2444 128
7 -0.08471108 0.17047831 0.13350053 0.20462911 -0.02736879 -0.062166326 0.026572144 0.21714784 0.0053586056 0.040344212 0.04482738 -0.11542689 -0.11295247 -0.07713333 -0.10502014 0.0860771 -0.13727336 0.060430218 -0.21232831 0.009669983 0.10454052 0.25569037 0.013375243 -0.254998 -0.15140688 0.13589416 -0.1963777 -0.033248425 0.007603874 -0.25448528 -0.21465094 0.10930412 -0.04473747 -0.13629995 0.02588145 0.07250835 0.07465456 -0.25033683 0.16911915 -0.043181982 -0.165567 0.22054988 -0.5876076 -0.049158122 0.10389725 0.09512929 -0.048229694 -0.056364127 0.022192664 0.45745334 0.11171113 -0.077914074 0.0031292853 0.07358827 0.1682398 -0.042507492 0.30245313 -0.16474928 -0.2552757 0.18105043 -0.08960395 0.19509844 -0.20798713 -0.16019478 0.08193201 -0.048238564 0.116267815 0.16267157 0.05928649 0.04398076 0.0112419985 -0.05033399 -0.124778315 -0.23028159 0.051694687 -0.18959029 0.2811754 -0.08669387 -0.1038734 -0.12234909 0.044780225 -0.21038388 0.4426336 0.3580277 -0.12035367 0.14759351 -0.087923005 -0.35788217 0.121370666 0.08716667 0.093702756 -0.032033492 -0.20442748 -0.051597547 0.41272867 0.09984991 -0.20029375 -0.21222058 -0.22945638 -0.023020174 -0.27018398 -0.03284303 -0.011115558 0.12411083 0.10377138 -0.06350797 -0.19582205 0.23337369 -0.02251055 -0.22225474 0.11321542 -0.24760187 -0.14072412 0.22544545 -0.19898543 0.20344168 0.16631596 0.17393963 -0.18651533 -0.23952743 0.12601419 -0.09088344 -0.06902036 0.054230995 0.077077426 0.11672831 -0.18126094 0.07755245
133 -0.22917403 0.11123633 0.23186144 0.190568 0.061409798 -0.06453455 0.030073922 -0.06789542 0.00749761 0.25107488 0.28682274 0.024108654 -0.11454768 -0.3833748 -0.11080387 -0.10076167 -0.24993965 0.4146586 -0.20459682 0.16368811 0.1676229 0.19771267 0.21503557 -0.48170877 -0.18998979 0.008357503 -0.48372713 0.19676687 0.2271072 0.034724202 -0.027848385 0.1638611 -0.3175392 0.13909253 0.24076508 0.0054428466 0.27571064 -0.21711458 0.32871386 0.036096003 0.024823641 0.07860238 -0.19053753 -0.1853628 0.039491806 0.18263574 -0.07847917 -0.14973558 -0.23108009 0.040210724 0.25207058 0.01759882 0.017132852 0.22508568 0.114114076 -0.06751718 -0.11341964 -0.010358853 -0.12814452 -0.05043218 0.1740057 -0.12778383 0.16277805 0.050959673 0.0049205124 -0.22822994 0.111805454 -0.08286597 0.04898807 -0.056141276 -0.33314756 0.12962961 -0.14346305 -0.075989194 -0.17511438 -0.1766833 0.10916927 0.29561153 -0.17393607 -0.045818247 -0.10918576 0.14955296 0.19729143 0.09583009 0.10464567 -0.0060939067 0.06796032 -0.031737894 0.059062794 0.15145043 -0.31550732 -0.068175755 -0.1654023 -0.012424103 -0.10110718 -0.15224743 0.1493761 -0.22760575 0.0022579597 -0.08193134 -0.20969892 -0.22428904 -0.0810845 -0.0649387 -0.22604163 -0.11973678 -0.30481344 -0.1737833 -0.15327469 -0.031195663 0.1733931 -0.15882309 0.053572915 -0.14605592 -0.20948991 0.15934768 -0.16457254 -0.013230521 -0.027710985 -0.36225876 0.023440136 -0.1024322 0.11173568 0.4306038 -0.22863404 -0.051839743 -0.28347522 -0.1431249
5 -0.030736307 0.02443078 0.028983722 0.004519807 0.15768991 0.062431607 0.11050179 -0.19782373 0.12673427 0.25910407 0.17253643 0.13303198 -0.085773624 0.17212991 0.0519796 0.11377264 -0.14804867 -0.053088352 -0.5008052 0.14454262 0.36399052 0.23193735 0.08693781 -0.18670616 -0.00010679062 0.16495599 -0.20589827 0.06527412 0.13772939 -0.1048152 -0.17284161 -0.1381242 0.13523465 0.051675312 -0.0086218435 0.082347654 0.2905971 -0.2560046 0.12505613 0.09971952 0.04507674 0.016363734 0.0001967542 -0.3514603 -0.04270073 0.19609556 -0.24699457 -0.1631893 -0.14038454 0.22601734 0.06886737 0.19536626 0.17734487 -0.17409588 -0.030972522 0.026887424 -0.08346063 -0.13834754 0.07871834 -0.028729454 0.17389402 -0.15241757 -0.13376749 0.17231493 0.08880866 -0.19865724 0.34870893 0.17817393 -0.24621068 0.17888442 0.120397136 0.03030511 -0.12274659 -0.0018143472 0.2374226 -0.058378763 -0.2013351 0.06933217 -0.12856235 0.13923368 -0.12009768 -0.16958837 0.011820562 0.28206837 0.12154576 -0.011768284 0.15350255 -0.4227224 0.24038549 -0.019447723 -0.18298821 -0.21601471 -0.05900698 -0.01393276 0.17678088 0.2729966 -0.3655827 -0.3258601 -0.3291709 0.059146788 -0.12325309 0.1549803 -0.1507174 0.2011232 0.029124366 0.17238584 0.2373835 0.11386317 0.1808862 -0.15901032 -0.0085909795 0.07183738 0.14506835 -0.15374191 -0.15506521 -0.07887272 -0.04190297 0.43960112 -0.06216711 -0.08185748 -0.08742767 -0.15943937 -0.318466 0.4534987 -0.12048365 0.24063787 0.10269244 0.018605528
9 0.2353546 -0.1222947 0.17838319 0.15837346 0.12348476 0.022028804 -0.004433428 -0.09987168 -0.11750217 -0.03049678 0.032459762 0.108937256 -0.14568368 -0.0030113093 0.14853798 -0.21747108 -0.12372853 -0.086961724 -0.17549719 0.05099351 -0.028667942 0.0878862 -0.17066933 -0.02149343 -0.04208203 0.11309718 -0.30045474 -0.08192438 -0.072594516 -0.13987681 -0.28715324 -0.14261806 0.022645582 0.072890095 0.21484683 -0.033753593 0.09265545 -0.124729715 0.2339645 0.24828587 -0.16957948 0.024787376 0.077371836 0.062306155 -0.2189508 -0.034951128 0.13512634 -0.041951828 -0.21731606 0.03064137 0.2662647 -0.012497859 -0.065875724 -0.19726256 -0.19459166 0.04607393 -0.012610409 -0.2673392 -0.23694493 0.021943925 0.16899936 -0.36785328 0.12383095 0.012797151 0.2435433 -0.5023652 0.2673936 0.03831016 0.15027249 -0.17605655 -0.10848114 0.06194611 -0.41303208 -0.24119951 0.06983785 -0.5292916 -0.09144512 0.013982216 0.09502134 0.17416091 0.17839915 -0.27281794 0.23116213 0.4111369 -0.07647936 0.2611167 -0.06159721 0.16492543 0.18539277 0.12299151 -0.10055516 0.10800662 -0.25563356 0.10225082 0.49833715 -0.069273524 -0.40053934 -0.09843156 -0.07927012 -0.09359292 -0.32034215 -0.2232998 0.016742768 0.14873318 -0.21718594 -0.012640376 0.18216576 -0.107278585 0.23732212 0.0975018 0.02019299 -0.28656226 0.26365852 -0.056212343 -0.043909207 0.16801475 0.073091954 0.026222657 0.06448267 -0.31124952 -0.12703472 -0.1092816 0.12680504 0.37919068 -0.18290477 -0.20163089 -0.09475116 0.06045067
29 -0.2161869 -0.28321448 -0.22823593 -0.10145655 0.006888468 -0.19976507 -0.08987108 0.14493391 -0.06762352 0.2316597 0.30974665 0.01018736 -0.08553044 -0.007814118 0.096343786 -0.36365232 -0.10823238 -0.12652107 -0.2199065 -0.29013819 0.076894715 -0.061995804 0.055244945 -0.05162626 0.064212956 0.12553887 0.20913847 -0.17244513 0.31378233 -0.18436891 -0.43004215 0.10351242 -0.127019 -0.024484888 -0.083399236 0.18040052 0.112563826 -0.1308702 0.22169816 -0.096462324 -0.0105748745 0.027355189 -0.24920155 -0.09716201 0.22180863 -0.07805907 -0.15352388 -0.2228024 0.04217663 0.21235836 0.25549683 -0.25421095 0.09071864 0.19142328 -0.08099342 -0.036986448 -0.20199636 -0.2553444 -0.044241402 0.16734679 0.1299885 -0.070006214 -0.022219123 0.18653192 -0.021620048 -0.13411197 0.054718133 0.04309564 0.24196784 -0.23606002 0.16916247 -0.25031844 -0.39521682 -0.31124127 0.05749474 -0.04452339 -0.051075034 0.069755755 0.045824412 0.0606338 -0.12664454 -0.15151268 0.53166324 0.12534736 0.11933706 -0.02624402 0.05737729 -0.38441393 0.36051244 -0.023166254 -0.22763923 -0.08811422 -0.20061895 0.003359902 0.024997583 0.048643798 -0.41829637 -0.19578244 -0.05587871 0.040875755 -0.23271416 0.21597888 0.07951253 -0.009221632 0.20144337 0.23915161 -0.14646575 -0.4307694 0.062021498 0.080461405 0.21902528 -0.10220938 0.17742315 0.14464545 -0.27701992 0.16415499 -0.1489743 -0.045272205 0.057596162 0.102783285 0.0599079 -0.11694142 -0.050626438 0.2669221 -0.26996085 -0.16696166 -0.17571092 -0.38986012
17 -0.009870991 -0.24177553 0.30688393 0.12196465 -0.04589087 0.1646972 -0.1929259 -0.12295959 -0.16679916 0.012080405 0.28808475 -0.39558876 -0.29240572 0.15656005 -0.17639774 -0.09619585 -0.030567152 -0.3272568 -0.48895353 -0.09260708 0.013114815 -0.070686385 0.05762056 -0.11609795 -0.061926577 0.37512714 -0.31989416 -0.0960223 -0.20415786 -0.082499556 -0.023158433 0.01604292 -0.17942384 0.08760929 0.38270748 -0.007286792 0.27574295 0.069865696 0.2262321 0.1269272 0.02538584 -0.12088788 -0.37784424 -0.029351901 -0.08910529 -0.039260473 0.12071202 -0.2689061 -0.003492764 0.18519276 -0.019635905 0.0035036493 -0.0951691 -0.009569309 -0.079910286 -0.004608268 0.23369813 -0.027886998 -0.04710929 0.2638295 0.10649677 -0.21189533 0.10452095 0.27914888 -0.046317197 -0.12959221 0.18956845 -0.21958329 -0.052044846 0.07367407 -0.2116079 -0.24014008 -0.04626718 -0.108027674 0.12411994 -0.043809675 0.3368113 0.31120458 -0.20330109 -0.18793212 -0.14777477 0.08755088 0.19639282 0.010503405 -0.19819702 0.22458607 0.023550669 -0.105659746 -0.020795658 0.324137 -0.42192817 -0.17232452 -0.16889669 -0.06571694 0.05216849 -0.06189192 -0.37833318 -0.12895858 -0.32721788 0.104137205 0.06177107 -0.19855781 -0.11670398 0.30924505 0.3242359 0.03152812 0.09872138 -0.29348597 0.07692594 -0.10714896 -0.14995608 -0.06146832 0.2295919 -0.09659498 -0.21238871 0.18734708 -0.21953061 0.15109527 0.042967338 -0.015559535 0.23193297 -0.03552974 -0.22052427 0.48893693 -0.037004743 0.1821089 -0.4090893 0.04661477
28 -0.15619157 -0.074212015 0.07265915 0.11429326 0.10173896 0.029135572 -0.060722888 -0.04184535 0.10458353 -0.03778362 0.026959108 -0.24263129 -0.32679367 -0.13891527 -0.015324388 -0.078152314 -0.08910207 -0.16714497 0.0030954934 0.2950311 0.05990224 0.13240245 -0.050261248 -0.098349154 -0.24744938 0.32859635 -0.016392265 0.093184 -0.09518429 -0.14754516 0.17402047 0.10491824 -0.3447428 0.18250918 0.12722012 0.18023786 0.44753858 0.1435461 0.36355993 -0.13248007 -0.3696875 0.11811499 0.061463542 -0.45465022 0.25160065 -0.0021700808 0.21152619 -0.11473995 -0.12764528 0.06725823 0.15641929 -0.14282219 -0.00036137854 0.21050036 0.016786141 -0.02888461 0.044191822 -0.23307854 -0.17810778 -0.4042756 0.1494986 -0.09149527 0.37315565 -0.10777067 0.15770677 -0.039732084 0.08046738 0.085340746 0.20417948 0.22811002 0.14114858 -0.19967033 -0.36094254 0.10515363 -0.002761451 0.037298694 -0.00051285897 0.054348737 -0.08543263 0.28566238 -0.25550225 -0.117946714 0.32559034 0.25690627 0.04142488 -0.03547042 0.17648138 -0.41075188 0.13353272 0.18097413 -0.007266865 -0.2215306 -0.29886806 0.107308075 0.5129511 0.19237934 -0.3928548 -0.098196514 -0.033657398 -0.032645065 -0.24576731 0.14386572 -0.19098218 0.043947227 0.08466226 0.36586374 -0.1352663 -0.12608421 -0.065064415 -0.3024962 0.07742633 -0.12347569 -0.065803 -0.36475208 0.045598257 3.6100766e-05 0.10868938 0.020052534 0.0506176 0.013204053 0.04420165 0.041900765 -0.21498713 0.41737184 -0.18923339 -0.27527523 0.008547441 0.069462456
2 0.07404245 0.15008529 0.4345382 0.006316583 -0.08935002 -0.340315 -0.3310162 0.28966624 -0.056049515 -0.2979749 0.00583354 -0.09229733 -0.055181634 -0.21527591 0.15828261 -0.2582404 -0.27806446 0.08443341 -0.54798883 0.2891986 0.096333645 0.045681793 0.2115781 -0.15585199 -0.15575321 0.27713892 -0.49760926 -0.06556266 0.4511461 -0.12147714 -0.37094522 0.64867383 -0.22332056 -0.37981486 0.4970048 0.16780578 0.06259609 0.06104461 0.046165213 0.31371883 -0.029965186 0.06074102 0.06824615 0.043804277 0.23623422 0.4542269 0.0073374165 -0.27105954 -0.034128908 0.4645138 0.18393289 0.22356577 0.08669119 0.2525042 -0.26329887 0.14089413 -0.044071205 -0.011715643 -0.010689752 -0.0968203 -0.044195093 -0.21325418 0.11941849 0.02739774 0.030646741 0.14520068 0.5045193 -0.281749 -0.23943897 -0.17341779 -0.34605527 -0.15395403 -0.27534848 -0.26225373 0.4002823 -0.028707128 -0.15269189 -0.28054708 -0.23214704 -0.2292093 -0.018815689 -0.23291075 0.66133887 0.16979274 0.13224289 0.28351042 -0.012092308 0.102739386 0.22732753 -0.13678153 -0.6241387 -0.11609658 0.050231844 0.22057538 -0.15773953 0.25710088 -0.07927613 0.14996356 0.12322685 -0.2425495 -0.4834361 0.18483911 0.019539293 0.3644269 0.27188364 0.06588146 0.17830326 -0.27980188 -0.102027886 -0.16130835 -0.26569209 0.004554041 0.08535075 -0.32955217 0.06354425 0.00022002595 0.13893875 -0.23998351 0.24652697 0.25388932 0.09929912 -0.24915422 0.114174075 0.09401127 -0.24952897 0.17843518 0.12068691 -0.07913692
11 -0.26143816 -0.050595466 0.20741388 -0.0068996884 0.21943994 -0.008307766 0.10729012 0.09633862 0.29652712 0.1714365 0.19257823 -0.059391726 0.15043709 -0.22209188 -0.11295683 -0.21814552 -0.14343749 -0.2082965 -0.40405852 0.27403545 -0.23762335 0.101239115 0.11600568 -0.16128275 -0.24487524 0.29317483 -0.30528563 0.0014982068 0.07616623 0.07127564 -0.020121403 0.14925659 -0.15354034 0.1804609 -0.016780913 0.1392203 -0.11149003 0.026689593 0.29350767 0.012876466 -0.49890375 -0.020464333 -0.2600974 -0.27422202 0.12606816 -0.021124953 0.09734479 -0.05227624 -0.083555095 0.3819899 0.3912376 -0.18305044 0.15037851 -0.17693602 -0.28449664 0.2642168 0.14550595 0.035556473 0.12061459 0.07926441 -0.14484169 -0.21948855 -0.30684978 0.09974619 0.110193454 0.06330869 0.17717749 0.19233614 -0.09883116 0.11206913 0.13172452 -0.15051892 -0.13984613 -0.073021404 0.33331403 -0.34886935 0.2850983 0.19232926 0.04313003 0.13696288 0.16626553 -0.29840437 -0.04322245 0.12048058 -0.16117314 -0.1359551 -0.031281825 -0.10628012 0.004679728 0.023600262 -0.08712858 -0.2872357 -0.26879406 -0.15068324 0.20038497 -0.25066742 -0.14024945 -0.33768752 -0.08308687 -0.32566047 -0.3361054 -0.051095765 -0.27477634 0.013845303 0.22097035 0.0681477 0.111526966 -0.35340682 0.1235752 0.047487356 -0.054237027 -0.016827215 0.051886976 -0.19937634 -0.14890316 0.0784403 -0.20752403 0.022426376 0.12930673 -0.001255472 -0.004060415 0.08152086 0.13275445 0.2145155 0.08945649 0.22527622 -0.010758068 -0.16510162
3 -0.084499046 -0.023676747 0.0193678 0.21758385 0.10663294 0.05278746 -0.12744735 -0.09202635 0.10925209 0.18971926 0.2670312 -0.059154727 -0.16481759 0.20140226 0.08186378 0.13218069 -0.4394322 -0.032435715 -0.37015915 0.029641118 0.20745212 0.1820258 0.046436857 -0.05028432 -0.21593983 0.43377906 -0.4016599 -0.165812 0.14457574 -0.017958736 -0.21869463 -0.0068122116 0.22616272 0.07570788 0.023189625 -0.03336974 0.59836143 0.056199115 0.2214664 0.08688978 -0.31984586 0.00079420325 0.07245604 -0.1686054 -0.14162077 -0.1031918 -0.38169265 -0.10274255 0.043875493 0.085396625 0.27702978 -0.1468212 0.08760661 0.26587003 -0.30082318 0.07944992 0.22924569 -0.30853882 -0.12507685 0.01439642 -0.2058408 -0.117865264 -0.19836345 -0.18362458 -0.05816168 -0.11138825 0.33181933 0.049819868 0.0014433649 -0.10314426 0.1346942 0.038879186 -0.33985642 -0.25134817 -0.126235 0.06412747 0.02442246 0.19595641 -0.15288776 -0.0937632 0.008167846 -0.19003236 0.25459728 -0.06632021 -0.10162327 -0.11362026 0.09893953 -0.1419454 -0.08627764 0.27577367 -0.093675815 -0.1333983 -0.35076493 -0.29384515 0.32848677 -0.13950342 -0.19401573 0.068892874 0.22072206 -0.042425405 -0.14963938 -0.054132402 -0.090832956 -0.034202643 -0.052495964 0.21018226 0.2402765 0.010418503 -0.12553285 -0.15674222 0.26202708 0.006720769 -0.003487418 -0.13220757 0.31288308 0.15126193 -0.3049758 0.035172015 0.20484921 0.17562523 0.077836715 -0.25697005 -0.0012995722 0.24263531 -0.06848538 0.03140802 -0.26731145 -0.29475075
61 -0.4130735 -0.2092137 0.16718422 0.3880763 0.03617685 0.13792011 0.0038888757 -0.2557475 -0.05817843 0.14858042 0.08685256 0.022129426 -0.052062504 -0.34267405 0.09624823 -0.084397495 0.053650364 -0.034932997 -0.20298827 0.19303548 -0.27218115 0.29800025 -0.07336008 -0.016132973 -0.3272849 0.316015 -0.30665666 -0.41070333 -0.16843759 -0.16834795 -0.16301602 0.267356 -0.22961685 -0.09634347 0.32311526 0.27132672 0.4280895 -0.0023641244 0.21314833 -0.21302009 -0.09891571 -0.067248255 0.08558131 -0.12159555 0.21669003 0.3566383 -0.27218905 -0.08921775 -0.04113333 0.45532718 0.3075866 -0.1058399 0.21768178 0.01454894 -0.12400005 0.046214618 -0.09427665 -0.030913856 -0.039736196 0.15370171 -0.14838304 -0.07320336 -0.08092824 0.25423437 0.06811741 -0.58030355 0.052489012 0.13118604 0.32136142 -0.16179109 -0.0069307317 -0.24640141 -0.1270673 -0.028656432 -0.16189577 -0.069037534 0.14526045 0.161621 -0.13769093 0.041208215 -0.0100514395 0.068028785 0.22651999 0.37483203 0.32394558 0.100518025 0.08204421 -0.17303082 0.23283619 0.1213108 -0.11733425 -0.21193536 -0.21851042 0.0178984 0.31387666 0.19282494 -0.1538994 0.09460593 -0.059915368 0.10755946 0.017369121 -0.15352468 0.22897832 -0.06343835 0.09678222 0.28257158 0.23114477 0.1840974 0.03664104 -0.3106613 0.32455721 0.15252058 0.10749701 0.0044895476 -0.057260115 -0.18448107 0.056754533 0.096324414 -0.20515825 0.26302814 0.18140352 0.032882776 0.043143146 0.12855838 0.24121349 0.018033635 -0.1474319 -0.03608018
89 0.03416241 -0.17898531 0.38194364 -0.14302343 -0.3484044 -0.22340322 -0.04681385 -0.1965433 0.28900015 0.13860871 0.33010447 -0.14151593 0.057247985 0.047026243 -0.1756762 -0.023221208 -0.36150664 0.16462424 -0.41628277 -0.10793638 0.14597102 0.2337303 -0.16510381 -0.18311247 -0.16093487 0.07260473 -0.39081606 -0.4454505 0.22484832 0.19715343 -0.014803357 0.3022184 -0.14268202 -0.048632804 0.2875487 0.2269387 0.39924052 0.071612164 0.27556866 -0.004467959 -0.12813129 0.046952773 0.043712206 0.090251975 0.22453101 -0.107234016 -0.13083453 -0.08152108 0.11550065 0.30275214 0.01841572 0.16940711 -0.02550573 -0.10485519 0.12919132 0.036252275 0.24730456 -0.08996409 0.002481699 -0.22489129 0.063273825 -0.23986028 -0.15557441 0.011928357 0.25884962 -0.14962776 0.11789095 0.21066144 0.20564185 -0.06957097 0.012672605 0.025297008 -0.37084314 0.14412701 0.035554886 -0.28759345 0.027801944 0.034911804 0.14017555 -0.029433036 -0.109078154 -0.3056899 0.28753984 0.04746552 0.03624218 0.04288843 0.09437052 -0.24427068 0.18005769 0.32391208 -0.22494803 0.23431055 -0.28376645 0.06848574 0.10924397 0.11224068 -0.22983754 -0.040168542 -0.28069746 0.14351279 -0.1345991 0.19956085 -0.30753747 -0.014530384 -0.08875813 0.23582059 -0.18588163 -0.33824283 -0.153485 0.2207943 0.13005629 0.0025892947 -0.02182327 0.021239959 -0.19690129 -0.07134647 -0.3344882 0.15137576 -0.10039771 0.2165278 0.03019118 -0.3035018 0.023993619 -0.08643377 0.09070947 0.11146848 -0.19466531 0.25040725
20 0.058248095 -0.27151248 0.14252226 0.15131724 0.24357398 -0.28272238 -0.26185337 0.21679917 0.19608447 0.23351195 0.32483196 -0.0709031 0.37707227 -0.14006013 -0.115561366 -0.055444162 0.10740014 0.06396033 -0.22141358 0.11219877 0.12861298 0.20295452 0.35280287 0.180024 -0.046298232 0.27413216 -0.108896755 -0.15588424 0.22440177 -0.2032868 -0.1995934 0.30383912 -0.012283102 -0.058632087 -0.060658716 0.3534018 0.5677212 -0.07271597 0.59185123 0.23537078 -0.22909166 0.17164043 0.032181516 -0.17683876 -0.22341453 0.12504597 -0.036081374 -0.030091353 -0.16474049 0.28179944 -0.008834931 -0.104348585 0.3255246 0.26994845 0.17413497 0.18330713 -0.03707717 -0.015451312 -0.24843365 -0.029613536 0.3127172 0.015323987 0.048625812 0.09231895 0.20505522 -0.35593283 0.3467722 -0.12836453 0.18667215 0.11995361 -6.838905e-05 0.124745995 -0.08167985 -0.063033044 -0.012231374 -0.25300014 0.19531675 0.17280628 -0.07219699 0.28026938 -0.099741206 -0.09607929 0.25991568 -0.073953025 -0.05567769 0.08440007 0.17718002 0.04986832 0.14559916 0.36591244 -0.0010183625 -0.25404066 -0.089462526 -0.001978283 0.25403112 -0.043650016 -0.2193197 -0.47498536 0.032980468 0.064518906 -0.20688562 -0.058485106 -0.058283806 -0.075910404 0.121448725 -0.14841041 -0.11381298 -0.16028562 0.0721173 -0.08966125 -0.22252072 -0.00093255384 0.20222841 0.16904514 -0.05243717 -0.21788506 -0.17229992 -0.21257624 0.08450579 -0.009093764 -0.107403025 -0.36652708 -0.1325256 -0.014484809 0.14667708 0.07512643 0.2075395 0.12197149
12 -0.0041532214 0.2420401 -0.1572238 0.17748868 0.34322435 0.23059203 0.15220815 0.35199082 -0.032223877 -0.011551257 0.13453466 -0.26600876 0.12344422 -0.07995995 0.18837146 -0.053415697 -0.3499164 -0.14382006 -0.66849333 0.14461178 -0.16262211 0.19883785 -0.092248335 -0.45989975 -0.37057504 0.043395553 -0.033877768 0.041452833 0.054862905 0.082219325 -0.17032693 0.23447652 -0.33495447 0.0129726045 -0.07449338 0.20607994 0.19902268 0.10566716 0.18202056 -0.110214844 0.202636 -0.07745626 -0.011283163 -0.016243095 -0.15118589 -0.07375476 0.015681906 -0.25730497 0.13416855 0.17596108 0.24851054 -0.29151112 0.18610288 0.102415346 0.19885036 -0.27706006 0.22849819 -0.08407633 -0.25145027 -0.24253011 -0.09869987 -0.18382089 0.09412184 -0.096185245 0.042992834 -0.07257592 0.18619376 0.14339586 -0.0007984302 -0.103378005 0.0927041 0.168465 -0.4952039 0.027815158 0.06674116 -0.28376755 0.23996833 -0.15112695 0.14024815 0.070326984 0.08924601 -0.21245559 0.24835892 -0.017957691 -0.0045527676 0.05742069 0.14517856 0.0568539 0.42454317 -0.034149107 -0.15972593 -0.21902156 0.027319528 0.16835491 0.055907954 0.235305 -0.26838526 -0.20805766 -0.14492275 -0.09634892 0.0045633363 -0.029170483 -0.013172659 0.26312676 0.22431873 -0.06397423 0.062129207 -0.12360065 -0.0089516565 0.10817238 0.13187638 0.103688434 0.35652143 0.052691508 0.10519495 0.23815419 -0.26511154 0.32931054 0.11197076 -0.2229827 0.19605808 -0.089250505 0.2180621 0.44641367 -0.03365776 0.1196596 0.051144607 0.11534763
0 0.06758704 0.08301099 0.22647472 0.26159647 -0.08853344 0.06332614 0.14163852 -0.17130853 0.23103324 -0.21831536 -0.00828331 0.06060705 0.22917701 -0.097841404 -0.036307827 0.016158396 -0.21280207 -0.2386611 -0.42622098 0.027431915 0.09644647 0.46630615 0.11390166 -0.054522026 -0.12528075 0.38947502 0.07319475 0.29875255 0.100531235 -0.09955799 -0.21460123 0.24469692 -0.17246611 -0.02280292 -0.123335645 0.073130555 0.17882432 -0.30129 0.3666454 0.09840469 -0.22242373 0.0066427845 0.08139202 -0.19974583 0.12568602 0.29359585 0.13887681 -0.38025078 -0.13443415 0.038263258 0.54944545 0.01780029 0.040964965 0.0054081157 -0.27266365 0.1260464 0.28855008 -0.24404818 -0.0875304 -0.15753585 -0.07055198 -0.0730761 -0.072466955 0.3809222 0.13501304 -0.25003362 0.27026844 0.13658454 -0.031805124 0.19510405 0.05806887 0.22868751 -0.3484801 0.30976343 0.1932746 -0.09379415 0.303679 0.08238188 -0.10676071 -0.13613673 -0.124793634 0.053296912 0.40934142 -0.052295674 -0.02249637 0.20775066 -0.38826507 -0.40873605 -0.08774681 0.2612635 -0.35380355 -0.056777388 0.17062964 0.088609435 0.16351807 -0.009230414 -0.12492676 -0.14874904 0.1268984 -0.13415508 0.023666127 0.33764705 0.0125375 0.29540896 0.11796577 0.040386066 0.050037973 -0.11607753 0.3061444 0.045520063 0.13296776 -0.033241384 -0.22707714 0.40438694 0.19125527 0.14516611 -0.1130111 -0.043603472 0.08675373 -0.23420976 0.29928166 0.06459472 0.032646928 0.11909781 0.16619548 -0.017008428 -0.1467034 -0.2850322
8 -0.52873534 0.13339938 -0.07243061 -0.055108014 -0.45477512 0.03589095 -0.1378124 -0.12910382 0.057463665 0.18069981 0.15282734 -0.14092407 -0.039140575 -0.23730975 -0.35736507 0.19489965 -0.05109518 -0.08280086 -0.20771393 -0.06988624 0.09448732 0.1435425 0.2664288 0.17117576 -0.04037022 0.047904108 -0.24812216 -0.11652489 0.05275407 -0.030158613 -0.535002 -0.24055387 -0.28016067 0.060882293 -0.00081645325 0.34911463 0.31843707 -0.00971637 0.46161178 -0.10375587 -0.19068679 -0.15791422 -0.034020565 -0.20879616 0.018037058 0.36215168 -0.17587022 -0.14101362 -0.038757417 0.086312115 -0.033490747 0.14668684 0.075274296 0.031776328 -0.11659046 0.060539506 0.0834898 -0.01570837 -0.18035376 0.04141564 -0.055670585 -0.091021195 -0.04405637 -0.08853749 0.5781112 0.046353336 0.22533065 -0.22921929 0.041151974 -0.20656371 0.07155473 0.035986997 -0.50378287 -0.07530992 -0.15174791 -0.2885678 -0.048995126 -0.055877183 -0.056627523 0.29491508 0.15019968 0.006035554 0.074605756 0.64243764 -0.016809924 0.3410775 -0.05889362 0.010260695 -0.03525297 0.012927426 -0.12214497 -0.22900517 0.011214466 -0.045449335 -0.03292209 -0.33154798 -0.30458313 0.08932888 -0.15669301 -0.057607405 -0.15037015 0.17012304 -0.21174367 0.14536662 -0.0454835 -0.044638798 -0.030562624 -0.19580719 -0.11922008 -0.22642535 -0.07626214 -0.3245668 0.25139403 0.061302356 -0.13378811 0.16777965 0.07748587 0.15725255 0.0877421 -0.11008024 0.10841147 0.095690235 0.19151282 0.2603816 -0.06334236 -0.16958584 -0.10764139 -0.06839879
112 0.06938402 0.050559573 0.45533174 0.22163787 0.25733465 0.16251655 -0.15533392 -0.07211309 0.20652026 -0.14406717 -0.13106386 -0.34076655 0.19948016 0.18892004 0.18948255 0.0628504 -0.61814237 0.14778751 -0.39680472 0.07139861 0.14502051 0.002140506 -0.11375554 -0.026353413 -0.3313385 -0.048602305 0.14655945 -0.0227839 -0.16218928 -0.18820414 -0.108106315 -0.082237534 -0.16823879 -0.0136498 0.12478961 0.22490096 0.15094467 -0.06322804 0.4334728 -0.054487098 -0.31032497 0.12043334 -0.219644 -0.049414072 0.03967744 0.4442711 0.0423329 -0.0895988 -0.11525185 0.2732754 -0.062569216 -0.32520342 0.3820816 0.16475132 -0.10831888 0.5476157 0.08626865 0.09169451 -0.10313865 0.041450176 -0.13003546 0.07234312 -0.04425256 0.33449477 0.26312667 -0.16139738 -0.081391506 -0.24128659 0.05272403 -0.09567011 -0.16609235 0.06375092 -0.17969114 -0.16871022 -0.13648081 -0.22092053 0.00029253634 0.1607797 -0.104184784 0.06513141 0.2042331 -0.08967816 0.2957942 -0.08734974 0.08843472 -0.05721042 0.18684399 -0.41323262 0.05535006 -0.1237284 -0.40021822 -0.15405326 -0.06648603 -0.046967134 0.21137881 0.093792334 -0.33606035 -0.086070366 -0.09466521 -0.27578866 -0.25699735 0.08813312 0.06105324 0.041638102 -0.40992352 0.26213098 -0.039419167 -0.0132293 -0.048578285 0.11312072 0.14380082 -0.09164086 0.045923363 0.46905777 -0.08250251 0.02315267 -0.3292349 0.10168711 0.21535951 0.04586582 -0.05468678 -0.015328564 -0.11468641 0.46267715 0.03758107 -0.03220146 -0.14650594 -0.15760949
47 -0.2741618 -0.030828845 0.46284977 0.44965968 -0.29906344 -0.0832777 -0.039565854 0.13327183 -0.085497975 -0.10140505 0.29861182 -0.26614353 -0.17237481 0.12308792 0.09577358 -0.33933714 -0.11484706 -0.11194835 -0.58180225 0.058589328 -0.10825599 0.2804809 0.0069380547 -0.0012879621 -0.21149223 0.36696082 -0.01319918 0.30786088 -0.12735945 -0.09586528 -0.30092722 0.23230873 -0.29419598 -0.38433075 0.059902284 -0.1272296 0.20415744 0.15395078 0.39779082 0.04780729 -0.43750682 0.04537883 0.22470193 -0.16678211 -0.048837546 0.09074435 -0.12590379 0.14545146 0.075867586 0.6310504 -0.052156795 0.12869954 0.2773094 0.114497095 -0.31065616 0.28850904 -0.046022043 -0.1663916 0.011534407 0.18056622 0.31266445 -0.02816274 -0.23892191 0.07441656 0.10436203 0.19700712 -0.28720865 -0.015496953 -0.15095465 -0.0037209713 0.11120627 0.10331449 -0.07206132 -0.11494728 0.210457 -0.14481135 0.082044184 0.21598887 -0.021920519 0.25780904 -0.1794587 -0.09546672 0.30177426 -0.07717248 -0.2321333 -0.030300517 -0.03609009 0.02841693 0.1291128 0.07429815 -0.013591084 -0.20188011 -0.27410743 0.13246867 0.046100363 0.10305963 0.038349666 0.004566577 -0.1059463 0.12179657 -0.34342676 0.0043695816 -0.15692589 0.29405802 -0.16679497 -0.036381654 0.19157116 -0.13112028 -0.13197188 0.10609933 0.31298396 0.05308934 0.21922272 -0.0022961749 -0.057329748 0.122230805 -0.29013547 0.16350654 0.1578749 -0.41925216 -0.07582982 0.061596647 -0.019008655 0.35603476 -0.07179107 -0.24823377 0.2597371 -0.15821743
13 -0.35462752 -0.28276482 0.17157249 0.15365149 0.22998141 -0.054060277 -0.34159482 0.037223272 -0.004643985 0.18183276 0.26334852 -0.01604778 0.1608083 -0.45134005 0.07492115 -0.030094933 -0.10231627 -0.035694655 -0.31775266 -0.26539838 -0.23069836 0.38944346 0.1923392 -0.35656157 -0.0630952 0.47185794 -0.074341945 2.4194158e-05 -0.13866471 -0.1560697 -0.10491192 -0.046816546 -0.09583328 0.28543663 -0.0131706735 0.2675039 0.55401856 -0.1051109 0.19006313 -0.2085993 -0.18016279 -0.12939675 -0.11041691 -0.085487686 -0.023900202 0.14138807 0.064101055 -0.10973459 0.14684933 0.37400252 0.13578944 0.36214706 0.20317961 0.47936293 -0.22960043 -0.010000019 -0.029855324 -0.1759084 -0.1612337 0.20990735 0.09130552 0.088532954 0.21356757 -0.2992741 0.33801562 0.14678931 0.328309 -0.08480705 -0.14225246 -0.31328514 0.118683524 -0.11001971 -0.14220607 -0.28411943 0.020508125 0.06349355 -0.098197654 -0.047521017 -0.3550171 0.00588712 -0.26087445 -0.1248793 0.21352227 0.2620285 -0.3384604 0.34667116 0.10673409 -0.25160438 -0.2216511 -0.19624 -0.4330735 -0.03455432 0.033192445 0.049851187 -0.1893642 0.31604034 -0.13840789 -0.19315057 0.045648143 -0.44758818 -0.46027467 -0.29778424 0.133305 0.18661112 -0.12116476 -0.042973574 -0.24261962 0.02400377 0.17129073 0.037029587 -0.19518276 -0.11144479 0.111830525 0.07277786 -0.34467557 -0.070655994 -0.26920962 -0.115863375 -0.007898024 -0.085237965 -0.2463613 -0.3873812 0.21668425 0.083448514 -0.21080504 -0.15773551 -0.038326822 0.18312047
6 0.1468806 0.022342566 0.30899242 -0.08589892 0.44898117 -0.33166596 0.23200014 0.1825135 0.062266394 0.14200751 0.3345807 -0.09719348 0.16602764 -0.07597505 0.20010756 0.26564288 0.065264516 0.026820466 -0.21434912 0.44122407 0.20077653 0.15881568 0.02811772 -0.07565685 -0.053824365 0.47231662 0.043339167 0.029130079 0.3800813 -0.3004076 -0.27738082 0.3263069 -0.23775098 -0.14447172 -0.21464272 -0.23391968 0.073862016 0.0899003 0.086734354 0.013227979 0.043205336 -0.093810566 -0.01106938 -0.13339092 0.28974643 0.28319833 -0.12434745 -0.1477721 0.4951289 0.26543564 0.03224324 -0.10500617 0.19564582 0.06666582 -0.28998467 0.23295921 0.322045 0.20177957 -0.04534789 -0.21217962 -0.14831181 0.027744867 -0.13139239 -0.13331759 0.27523136 -0.62544674 0.43134576 -0.32498515 0.3706593 0.20237325 -0.020813553 -0.22352311 -0.24490951 -0.25056997 0.0754221 0.09005561 0.31875506 0.039473597 -0.26749882 0.3132925 0.09783305 -0.180905 -0.0024957645 0.36982477 0.20425308 0.12042791 -0.28202298 -0.4467523 -0.017214049 0.15949675 -0.4405161 -0.4540955 -0.37523696 0.123655975 -0.21102785 -0.073177956 -0.13290349 0.20620875 -0.18800756 0.13049105 -0.3415871 -0.107080586 -0.006407159 0.27174947 0.09696247 0.16650434 0.22343305 -0.26104546 0.069180325 0.13031168 0.25423092 0.033853196 0.1292892 -0.14021084 -0.08765306 0.05308653 -0.09295 0.027052546 0.14841023 -0.3653634 -0.15430957 -0.13345073 0.03972587 0.06487772 -0.24833708 0.13902085 -0.41391793 0.0840714
122 0.0049744425 -0.09716194 0.4368358 0.19979466 0.27593815 0.13893707 0.02823143 -0.10775732 -0.22062491 -0.17761828 3.0482624e-07 -0.19212884 -0.1269703 -0.22421633 -0.14987805 -0.3412221 -0.3087798 0.18946221 -0.3511165 -0.07372207 0.21694307 0.29183123 0.25843334 -0.00917623 -0.09407123 0.17348099 0.13248858 0.18794322 -0.057013225 -0.19100036 -0.58915865 0.079837754 0.1217929 -0.26013562 0.038778942 -0.13721728 0.056972057 0.4412848 0.13002282 0.15122586 -0.29995927 -0.017315606 -0.17031556 0.09779727 0.21582773 0.3218698 0.26747704 -0.12853026 -0.24166934 0.62647504 -0.058669847 0.42924798 0.1584456 0.06619658 -0.09662963 -0.17088939 0.32260713 -0.38355926 -0.0030076758 -0.2414125 0.25505653 -0.27748248 0.26012287 -0.14995874 0.0820367 -0.25858667 0.17503993 0.06801874 0.11025122 0.03782453 -0.04093355 0.204131 -0.14719443 0.07181213 -0.038468964 0.062805794 -0.1074848 0.16109152 -0.03268495 0.10889564 0.19918014 -0.2138553 0.31672987 0.18826967 -0.06836068 0.1225865 0.33705422 -0.082468234 0.29658544 -0.048048124 -0.21415685 -0.10026585 -0.08946475 -0.099465825 -0.08524679 0.19635035 -0.112151735 -0.4856612 -0.12428816 -0.45192143 -0.12917823 -0.10028854 0.16767086 -0.1121806 0.16357568 -0.1323267 0.27315333 -0.5187638 -0.31615648 0.07155911 -0.20836169 0.0033414552 0.14949967 -0.19787203 -0.29928738 -0.17177297 0.058324996 0.20554644 0.11086267 0.22609843 0.34836686 0.024600282 0.12003387 0.19652362 0.029474374 -0.21413332 -0.3416022 0.32241753
23 -0.14320914 -0.15459737 0.41825342 -0.25251174 0.28795293 -0.34341666 -0.38337255 -0.24276899 -0.112019435 0.13460802 0.011021779 0.030510345 0.014956185 0.010815742 0.08374617 0.10247003 -0.043820087 0.0858789 -0.22628157 -0.03386481 0.4396034 0.00073396834 0.18613236 -0.2671659 -0.368919 0.3470479 -0.36536542 -0.36947358 0.34529245 -0.30898783 -0.46682274 0.49106655 -0.4236274 -0.038869876 0.19063541 0.050609168 -0.31858283 -0.07733854 -0.19170086 0.22884071 -0.16149786 0.026575163 0.34068272 -0.039338183 -0.08730442 -0.09500505 -0.14833929 -0.3575068 -0.07845866 0.64896345 0.3214093 -0.38787812 -0.14624007 -0.12348751 -0.64394224 0.09027109 -0.28709903 -0.12827097 -0.009282154 -0.089259304 0.18032604 0.15313566 -0.024442032 -0.30304638 0.2697569 -0.16840224 0.40178108 -0.21494569 0.15258044 -0.047663886 -0.19864209 0.09674902 -0.5414334 -0.55200815 0.28505772 -0.12985311 -0.27534083 -0.1390684 -0.37036788 0.023602035 0.2944999 -0.081764 0.51319224 0.2314936 0.37163693 -0.0713076 -0.18334557 -0.38789502 -0.1314573 -0.31101075 -0.09387509 -0.44289017 -0.1876152 0.07358227 0.0048890347 0.27021894 0.06804234 -0.15128048 -0.19307579 -0.3693093 0.0077972654 0.33119816 0.16873555 0.13469437 0.20086955 -0.11615537 0.34041503 0.0082300585 0.1299882 -0.045433424 -0.22164544 -0.13990882 0.31240138 -0.306316 -0.24300128 0.17169683 0.0683038 0.14398271 0.49099985 -0.34686127 0.21620089 -0.031806976 -0.32172117 0.17200035 -0.036713917 0.43156287 -0.15743193 0.306606
173 -0.012915687 -0.01215411 0.20040722 0.035748426 -0.013578083 -0.004061702 0.015571229 0.12693639 -0.020245487 0.07877235 0.20177642 -0.14284095 -0.01838044 -0.09438465 -0.12559077 -0.056582343 -0.13847792 0.057060756 -0.14705436 -0.12818372 0.124419056 0.30399835 0.08981355 0.035476107 -0.17631128 0.16281523 -0.1552073 -0.08944273 -0.051821865 -0.15661526 -0.20371509 -0.0012768091 -0.1620497 -0.027289227 0.101372726 0.049753036 0.32938746 -0.06893961 0.24535497 -0.09503335 -0.1831604 0.08483624 -0.050091196 -0.00961502 0.2423395 0.08653339 0.01693895 -0.065277755 -0.13191935 0.2707995 0.03464172 -0.09393533 0.2876148 0.08938137 0.023938166 0.02225202 0.07053665 0.008834873 -0.23592953 0.0746806 0.07790285 -0.15426752 0.042189915 0.081597075 0.15009104 0.020984305 0.07827099 0.07562676 0.07340249 -0.062205553 -0.022362364 0.008576438 -0.16251428 -0.19714022 -0.035237715 -0.07933198 0.05691153 -0.054514594 -0.03814939 0.081064776 0.08918331 -0.13369618 0.13037367 0.18629637 -0.10688038 -0.01532436 0.083200246 -0.21549262 0.07504798 0.059661213 -0.27607855 -0.014773455 -0.10721917 0.029714374 0.042303566 -0.027629849 -0.23058687 -0.10839591 -0.08328678 -0.14955811 -0.21366602 -0.11353836 -0.041885998 0.01791026 0.036432587 0.15976492 0.013595492 -0.091933414 0.07389754 -0.1039922 0.13432673 -0.011091797 0.14708067 0.022477489 -0.06628735 0.0908571 -0.3074808 0.118836045 0.034783464 0.020720597 -0.028814668 -0.010863758 0.08053842 0.105534226 -0.032862604 -0.11491235 -0.16270973 0.034328483
258 0.026723856 -0.020101229 0.2315128 0.16749309 0.053243775 -0.076857224 -0.032540683 0.059527464 0.033854455 0.032701276 0.19993408 0.022207858 -0.010993265 -0.10585014 -0.0151016405 -0.03560785 -0.11377816 0.004153045 -0.19520807 0.08920103 0.048240166 0.124399215 0.08759335 -0.073054776 -0.16258736 0.13128252 -0.09525642 0.0030870088 -0.009063645 -0.12600861 -0.09315462 0.084269896 -0.19125962 -0.014041846 0.062354557 0.20607184 0.21470758 -0.11909387 0.2076273 -0.06404463 -0.26776522 0.115319945 0.10472074 -0.1180797 0.16043492 0.12307664 -0.006698693 -0.12238649 -0.08440815 0.20293011 0.14824142 -0.08363355 0.17379873 -0.0084144 0.020709513 0.056555808 0.098814204 -0.057015844 -0.03411408 0.0074310773 0.011927192 -0.15446693 -0.04283957 0.23975739 0.12639177 -0.06949879 0.06946053 0.028163223 0.07520083 -0.06014072 -0.005541252 0.047012962 -0.19548169 -0.041274495 -0.057031147 -0.08545688 0.16439939 0.046339557 0.014627249 0.023445709 0.053929348 -0.019602116 0.14911741 0.10318552 -0.08248312 0.045156736 0.019020293 -0.08021979 0.16664414 0.092206836 -0.20607486 -0.12944634 -0.05415967 -0.05945094 0.2016533 0.00296701 -0.17624572 -0.15907116 -0.14064467 -0.09407791 -0.1505359 0.0069123004 -0.0112111475 0.05872358 0.09290114 0.08615978 0.097025424 -0.15346916 0.10264122 -0.04782402 0.16033055 0.0570612 0.24119474 0.113812774 -0.106209524 0.12098442 -0.23237896 0.1957725 0.00882646 -0.095132746 0.112271115 -0.048876267 0.008320639 0.22909965 0.028249746 -0.1198134 -0.17411973 -0.07806404
21 -0.0046300683 0.027822196 0.3277848 0.032866262 -0.0038601314 -0.010412167 0.031001968 0.029096885 0.07472842 -0.07737794 0.27558374 -0.008852663 -0.06373133 0.0484028 0.03892803 -0.15794563 -0.11586278 -0.06838447 -0.29630193 0.10768965 0.06772787 0.16068855 0.10823479 0.00096053805 -0.14921872 0.13541545 -0.1696892 0.051108025 -0.03434119 -0.045877937 -0.19763318 0.13196976 -0.104280755 -0.07827401 0.073286176 0.0033220672 0.30970472 0.040645786 0.31239292 -0.0156669 -0.1931023 0.06570655 -0.026895812 -0.11689009 0.102996096 0.11116955 0.06983975 -0.10099417 -0.27734265 0.3257094 0.14648503 -0.09355622 0.16892947 -0.016758643 0.016840516 0.15838943 0.1594284 -0.1147806 -0.16935998 0.00027698535 0.10627997 -0.15915374 0.023686832 0.084169015 0.038716357 -0.08572 0.12958825 0.09033475 -0.02696416 0.042300478 -0.058121387 0.10008504 -0.13995154 0.0062123057 -0.041658856 -0.09430017 0.0590883 0.07460816 -0.09795317 0.010263228 0.10681627 -0.06648822 0.07722545 0.08504292 -0.066280544 0.016013622 0.06702591 -0.18629558 0.08381741 0.0011267886 -0.28900608 -0.010911582 0.07651643 0.04951584 0.20913658 -0.015090704 -0.19564049 -0.16424723 -0.030980557 -0.114940524 -0.12234802 0.00048268578 0.005530195 0.050168548 0.04924651 0.040365875 0.080464266 -0.050394867 0.010556373 -0.14968733 0.12501638 0.08554412 0.024452128 -0.030635903 -0.0033959863 0.035717048 -0.15802282 0.071710855 0.046933535 -0.038038455 0.14452071 -0.060367066 -0.013287053 0.21935774 -0.042661536 0.00051041064 -0.2356955 0.087337054
158 0.028383998 0.025327176 0.18237719 0.11695496 0.12972632 0.04057733 -0.020669824 0.13873151 0.02851885 -0.023849003 0.1780397 -0.15701006 0.008483574 -0.19375676 -0.13405707 -0.050084498 -0.15986465 -0.06009973 -0.22683056 0.018120581 0.061660215 0.324246 0.1747336 -0.046744533 -0.21975897 0.1436938 -0.16601777 0.10853771 -0.116844036 -0.19343023 -0.25875825 0.022645088 -0.15723899 0.002878219 0.030065328 0.13553473 0.28659636 -0.16468886 0.32337165 -0.07812801 -0.24351992 -0.091321304 -0.019415222 -0.18308283 0.20939745 0.06651145 0.14409642 -0.12722747 -0.22812957 0.22345495 0.050870296 -0.104726195 0.25051415 0.116749525 0.012768104 -0.09319374 0.099683724 -0.07187794 -0.23032804 0.09980864 -0.056246385 -0.14139882 0.08696122 0.047980275 0.125103 0.0065846173 0.14970548 0.029821776 0.0054177484 0.0045949463 0.003535471 0.06924222 -0.12456188 -0.06634249 -0.020483611 -0.006081419 -0.093114085 -0.12431252 -0.11639305 -0.0092583075 0.15465023 -0.132628 0.021382997 0.19231908 -0.09394895 -0.0062769516 0.036566906 -0.21033812 0.09199441 0.02439591 -0.3833895 -0.010896642 0.046967514 0.07034965 0.061780903 -0.0319584 -0.14756723 -0.098474905 -0.06381239 -0.23348005 -0.10911414 -0.106822096 -0.036240336 0.04852692 0.022499733 0.04360995 0.07456917 0.022515878 0.12870161 -0.0383893 -0.054051895 0.011016135 0.11673102 0.1091298 -0.07012811 -0.023300167 -0.18981339 0.1276928 0.12761424 -0.0014806547 0.008352724 0.02618273 0.07687048 0.18432085 -0.018810935 -0.14986385 -0.2556814 0.048578933
436 0.09475957 0.01054628 0.24344665 0.02399038 0.009546395 -0.15486823 0.031105125 0.11685189 0.014499717 -0.027348544 0.22984666 -0.12139897 0.013242038 0.015564231 0.05978094 0.078554265 -0.12010631 -0.0026216416 -0.15655382 0.054758344 0.08122342 0.109995805 0.09094515 -0.13462093 -0.18108357 0.15035948 -0.23074614 -0.07559967 0.030670788 -0.20992954 -0.14715175 0.1060786 -0.16884534 0.0077516963 -0.019954981 0.15512124 0.11711495 -0.06271258 0.16008526 -0.035458334 -0.18729998 0.07102278 0.064294904 -0.11189279 0.14949203 0.10899449 0.022501424 -0.1812767 -0.0011642831 0.07764023 0.13179119 -0.07017884 0.13659014 -0.010731547 0.05752385 0.050499853 0.20662014 -0.06335372 -0.005596226 -0.017453516 0.013712785 -0.106624916 -0.20095107 0.054075602 0.19269283 -0.1131867 0.098921075 -0.076003775 0.06095928 -0.027825499 -0.060172427 0.101202145 -0.30367276 -0.15601277 -0.07259266 -0.06918398 0.14644906 0.05267697 -0.033403978 0.0046794377 0.10410305 -0.081041306 0.10052322 0.0439168 0.029022656 0.09065428 0.013134086 -0.066794455 0.14568837 0.09393248 -0.27067485 -0.05204012 -0.13466159 -0.17601311 0.13243113 -0.07344418 -0.18176918 -0.10820664 -0.111603126 -0.17187159 -0.21123809 0.083770245 0.02212454 0.0767216 0.028699882 0.094864935 0.19778802 -0.122463524 0.16141759 -0.07514369 0.04863235 0.059241638 0.16290645 0.12794112 -0.0926094 0.15800408 -0.17375898 0.16455568 0.14164135 -0.09539248 -0.027562657 -0.07181274 -0.025737815 0.22380543 -0.09769677 -0.016491061 -0.23591737 -0.025615392
163 -0.04858383 0.026567265 0.3491395 0.11860566 0.122443594 -0.05968113 -0.0011878324 0.022711402 -0.002270425 0.07111928 0.1995189 -0.11323154 -0.0003236089 -0.18978876 -0.11064977 -0.25224933 -0.011485536 -0.08824401 -0.30131608 -0.049568508 0.043210965 0.26934335 0.085054815 -0.06895893 -0.115409225 0.17248748 -0.14105368 0.07637387 -0.049942285 -0.090013705 -0.15741694 0.12908798 -0.120553136 0.10637473 0.07303473 0.06886195 0.28582558 -0.06244047 0.23161244 -0.02247062 -0.19718677 -0.03048092 -0.02004347 -0.09354833 0.21713378 0.0369548 0.12810735 -0.05416809 -0.125197 0.2857866 0.10406501 -0.09264719 0.122688204 0.06575204 -0.06905284 -0.00928691 0.039533097 -0.17580158 -0.15066835 0.079037115 -0.05703373 -0.11853194 0.113424815 0.07922275 0.08071302 0.005055113 0.09200077 0.11766489 -0.027872706 -0.025288604 0.005174042 -0.04587164 -0.16274536 -0.1000949 0.07416769 -0.04678018 0.009223851 -0.08942949 -0.15528697 -0.038611837 -0.011478086 -0.11420451 0.09963039 0.13041803 -0.09331763 0.033995368 0.0626798 -0.30442914 0.0664532 0.020504797 -0.3163105 -0.010144044 0.09380924 0.22403091 0.066484265 -0.018357275 -0.08793089 -0.16520333 0.01477298 -0.18921073 -0.049564917 -0.06443128 -0.019268146 0.072025284 0.1241728 -0.032550927 -0.11266325 -0.06438611 0.113091424 -0.010768246 0.095683016 0.017676692 0.10681391 -0.021911658 -0.10974589 0.05033866 -0.21281381 0.09576652 0.0069060475 -0.017214267 0.16710581 -0.030660735 0.1003496 0.18189286 -0.02261946 -0.020545991 -0.20644443 0.08783938
35 0.006976695 0.08589094 0.28497392 0.15274839 0.051683784 0.015029057 -0.13763636 0.009072498 0.04669457 0.17991398 0.29227105 -0.16002275 -0.03272011 -0.021154054 -0.0905247 -0.07528638 -0.16001491 0.05585207 -0.36054748 -0.019107852 0.14744884 0.21962218 0.026840758 0.03046858 -0.12762295 0.1656284 -0.10343688 0.07731868 -0.032529533 -0.24360943 -0.17804082 -0.018288752 -0.23168765 0.1417104 0.0001283068 0.10746029 0.24380215 -0.2132404 0.29041398 -0.018469471 -0.2470642 0.058321755 0.07046611 -0.13423814 0.2308821 0.004563291 0.010740704 -0.012621133 0.04136377 -0.017269516 0.015021759 -0.08176397 0.20597209 0.14566214 -0.048716184 -0.020705895 0.072270766 -0.18102568 -0.14388767 0.12378877 -0.02611567 -0.17058857 -0.08773817 0.19264254 0.14532386 0.030602304 0.15774156 -0.047538638 -0.0983305 -0.112708226 0.010760848 0.05203129 -0.2054451 -0.1514559 0.028068557 -0.023820553 0.018396337 -0.048271596 0.0019379129 0.016903896 0.035801798 -0.12461142 0.1645179 0.16548361 -0.16081128 -0.04197357 0.086430416 -0.13648817 0.059171595 0.024263635 -0.31547448 -0.04971043 -0.034377158 0.017898 0.05761699 0.009204846 -0.1191818 -0.02654958 -0.1287061 -0.12395504 -0.1583668 -0.046845574 -0.032997176 0.16306657 -0.03914408 0.07735443 0.03440005 -0.08119602 0.109654956 0.091309845 0.16505729 0.08606646 0.16444741 0.16943592 -0.05540821 0.11870434 -0.31939614 0.17907424 0.01686651 -0.031182168 0.0521593 -0.073072284 0.10183027 0.22043356 -0.1283655 -0.1325397 -0.07987653 -0.11436954
1 -0.06356669 0.01815288 0.27978238 0.09578837 0.054477334 -0.12050939 -0.1620649 0.008241296 0.10919971 0.06306232 0.3250361 0.039774343 0.085404664 -0.012988436 0.0009504375 8.1707025e-05 -0.114138134 -0.0070628147 -0.23520416 0.01825464 0.031977773 0.010638269 0.12051311 -0.094346516 -0.13890666 0.10198071 -0.0035435301 0.014490471 -0.020345384 -0.052643254 -0.16316386 0.057044946 -0.24819237 0.01192968 0.089469515 0.18258557 0.21774095 0.01174307 0.19291577 -0.13431123 -0.17796265 0.105496265 0.07367776 -0.20773356 0.13790146 0.047014505 -0.044334944 -0.096969776 -0.06925449 0.121893436 0.18201807 -0.12115899 0.06162098 0.053553093 -0.06357919 0.052041125 0.16530317 -0.16915807 -0.0653533 0.031754494 0.069293626 -0.05204121 -0.026813254 0.13301963 0.029346136 -0.0807823 0.15563244 0.069334544 0.07531637 -0.08636975 -0.07460687 0.07984901 -0.19776034 -0.055152416 -0.057453237 -0.082734264 0.136793 0.07693703 -0.03175384 -0.017096983 -0.10677674 0.012886144 0.2001749 0.027217044 -0.027279455 0.071685575 0.07376124 -0.13005257 0.094414234 0.016109524 -0.28433603 -0.10576752 0.007818765 0.02800433 0.24848105 0.13261601 -0.24145856 -0.17363413 -0.08690664 -0.0667505 -0.117690876 0.052779008 0.05187245 0.02455462 0.061895598 0.10599316 0.019531464 -0.10656669 0.07805795 -0.035228748 0.18482697 0.0705425 0.21236326 0.06328004 0.016469331 0.08259964 -0.2027196 0.07991995 0.011686345 -0.082972005 0.23064321 -0.13040495 0.010630403 0.30675787 -0.02281107 -0.18092439 -0.23741885 -0.008030081
32 0.019553358 -0.026582295 0.23791558 0.007863695 0.09018215 -0.074526705 -0.032585494 0.059292365 0.078118995 0.0239225 0.33154833 0.026492044 0.025186956 -0.017227301 0.052335724 -0.0833342 -0.12620229 -0.032763813 -0.22050162 0.048855115 -0.0116241835 0.06306902 0.068777315 -0.04542985 -0.13402416 0.13223337 -0.13593964 -0.03332166 -0.060766473 -0.10105881 -0.15647942 0.06312328 -0.15642534 -0.044358164 0.1004985 0.12388073 0.21299452 -0.11542539 0.18833068 -0.08504314 -0.14377527 0.085006446 -0.013387752 -0.16528173 0.18055463 -0.02619107 -0.047324564 -0.1134565 -0.09905112 0.15392321 0.16911988 -0.124577925 0.19586487 -0.020828824 -0.016861781 0.06817273 0.108034745 -0.14934134 -0.09423709 0.15856706 0.025316115 -0.04355758 -0.092188805 0.16000739 0.053278856 -0.120515145 0.13171661 0.123350345 0.029978624 -0.122431606 -0.071159594 -0.023870643 -0.13151157 -0.1496131 0.042037565 -0.11052253 0.16593815 0.08382993 -0.009020291 -0.016146434 0.00858831 -0.108716995 0.112682804 0.08793684 -0.062787645 0.05017103 0.06314154 -0.052705552 0.11426125 0.030359326 -0.33007807 -0.014424512 0.030076502 0.019914787 0.2297251 0.06348083 -0.22132619 -0.15508917 -0.1257876 -0.05519312 -0.20593107 -0.024614401 0.029202966 0.07782133 0.0891492 0.12240872 0.038342364 -0.107544854 0.1901157 -0.03439981 0.1284153 0.105109386 0.16264018 0.0572578 -0.0215889 0.10368938 -0.22389375 0.1158088 -0.0095732575 -0.0387722 0.09782135 -0.17692141 0.03983346 0.26311916 -0.07305679 -0.044366322 -0.22975367 -0.044703722
203 -0.028709654 -0.1544938 0.24814205 -0.03325265 -0.086440474 -0.06793647 -0.12648079 -0.017273014 -0.055958793 0.06260604 0.236829 -0.0013169844 -0.14577834 0.04937689 -0.043924924 0.011921334 -0.18201986 -0.0040300996 -0.2915046 0.07860676 0.0068400516 0.09020988 0.1066271 0.0026289644 -0.1695186 0.126753 -0.14884491 -0.06672887 -0.028065372 -0.14454848 -0.17949724 -0.024046319 -0.16287932 -0.09154457 0.16317382 0.1859956 0.2791791 -0.03254269 0.2839499 -0.094091795 -0.1277563 0.11053318 0.048064522 -0.0638851 0.16559564 -0.06677382 -0.027814137 -0.16288999 -0.088452436 0.1886067 0.16102149 -0.10698506 0.21152964 -0.060684893 -0.044647686 0.15830907 0.033851564 0.00373529 -0.051438887 0.105032995 0.10425875 -0.24653429 -0.0035722002 0.19004488 0.12874962 -0.07905944 0.13325058 0.021395314 0.13827787 -0.14460285 0.03376992 0.011085554 -0.17440999 -0.17283343 -0.047884054 -0.11976927 0.08669463 -0.005925117 -0.0055312985 0.08806656 0.016734257 -0.05712866 0.16480361 0.15949227 -0.2237304 0.053160783 0.17969462 -0.1785486 0.036161005 -0.00662988 -0.13807854 -0.13507192 -0.1352967 -0.0785178 0.21271084 0.053169936 -0.22392656 -0.045011442 -0.04802239 -0.08592241 -0.0896847 -0.0002689748 0.0044640247 -0.013176086 0.04818972 0.17971817 0.09522575 -0.1376234 0.069588274 -0.15762761 0.059103753 0.0026089917 0.23478103 0.04911001 -0.037062738 0.00976071 -0.21770494 0.19850683 0.064305216 -0.13629515 -0.041650157 -0.06250175 -0.091027014 0.14968455 -0.016797105 -0.08864135 -0.17106123 -0.08017342
127 0.03298087 0.025955738 0.17532034 -0.011723599 0.12459639 -0.0071271546 -0.06850006 0.05573746 0.092857786 0.06394546 0.19639362 -0.14777125 0.096408054 -0.0732428 -0.0049573877 0.10863471 -0.1137759 0.10177311 -0.10453559 -0.06306539 0.18357784 0.0932451 0.06609121 -0.10240981 -0.110863276 0.2285426 -0.07972817 -0.06384241 -0.03243988 -0.09109194 -0.06089979 -0.0023838058 -0.25984117 0.0548911 0.06933539 0.03713259 0.120052956 -0.1374199 0.0923137 0.0046773255 -0.10015431 0.1251593 -0.101903215 -0.10228261 0.28076875 0.09142299 -0.011162632 -0.17399222 -0.10428546 0.03207729 0.06317136 -0.01645445 0.12878074 0.05966699 -0.03137158 -0.080434754 0.084778786 -0.10765261 -0.07047586 0.052105915 0.14357167 -0.0035203558 -0.018554917 0.030268421 0.263132 0.011157871 0.19907932 -0.03140415 0.01255964 0.02881339 -0.09542428 -0.06286813 -0.30713153 -0.15896903 0.039284617 -0.024571784 0.12597977 0.1450889 -0.103187874 0.121867955 -0.08934072 -0.108072065 0.17946891 0.13548279 0.010887305 0.20890106 0.06222766 -0.15276083 0.1001974 0.09453141 -0.40408182 -0.061434023 -0.15889446 -0.070562564 0.052774236 -0.02767826 -0.16969767 -0.16762905 -0.20852192 -0.18672895 -0.21068525 -0.023038268 -0.08284134 0.114458516 0.07027291 0.2143215 0.055751935 -0.071976244 0.14004168 -0.050961778 0.27755672 0.15440114 0.19129634 0.03396323 -0.06135983 0.14202619 -0.28433555 0.07417075 0.06985889 -0.00266683 -0.12945947 -0.07442179 0.011889106 0.26105496 -0.25532943 0.03195011 -0.10429926 0.026467552
374 -0.110497646 0.0052600275 0.2605764 0.024882048 0.07605246 -0.06305645 -0.0032096107 -0.028983071 0.057136238 0.108424895 0.26145017 0.037627798 -0.08688245 -0.036213372 0.015840115 -0.11296579 -0.05414227 0.017128067 -0.29472974 0.12305239 0.010382814 0.06942914 0.044625014 -0.09024943 -0.08162797 0.18707603 -0.049686335 0.100698605 -0.048669938 -0.017814903 -0.14308675 0.18948978 -0.27469575 0.075913034 0.05131282 0.004896362 0.1458826 -0.07712695 0.28743905 -0.03581645 -0.21585402 0.18572186 0.039864615 -0.14373232 0.116710946 0.0417526 -0.024191294 -0.088809446 -0.121284954 0.20652694 0.20081955 -0.12293712 0.10907508 -0.026496733 -0.00397807 0.10703328 0.08849145 -0.24581474 -0.0718092 -0.022333276 0.04772268 -0.12842874 0.005369693 0.1250512 0.11054391 -0.10383455 0.020986145 0.12593432 0.021439008 -0.11282264 -0.0747529 -0.08267 -0.26335895 -0.10476177 -0.030801632 -0.15444192 0.22516924 0.070127085 0.046995066 0.07595996 -0.019882683 -0.087512754 0.11348704 0.2138364 -0.07350342 0.057337392 0.09969353 -0.113537185 0.17942084 0.011900451 -0.13724323 -0.08594277 0.001945365 0.075682275 0.22006015 -0.00513998 -0.08275656 -0.07149777 -0.13691618 0.0051864013 -0.09182882 0.026218778 -0.04176864 0.06960587 0.1290006 0.056782436 -0.03435942 -0.097546466 0.1401858 -0.049383882 0.3583858 0.0788311 0.17693914 0.011702313 -0.049737077 0.14975195 -0.13973853 0.24842322 -0.17715132 -0.16802143 0.17161714 -0.06813506 0.03729271 0.26477957 -0.12965609 -0.0603722 -0.1706046 -0.09605336
4 -0.030692106 -0.047016438 0.10036529 0.07095192 0.037996832 -0.19388738 0.012218776 0.11465806 0.05145792 0.05616337 0.18801057 0.13596381 -0.019170953 -0.19333291 -0.012367404 0.020168383 -0.07953402 -0.031159822 -0.095532484 0.05767741 0.021629117 0.1575027 0.13157533 -0.11660351 -0.13525039 0.04451559 -0.13826339 0.041096102 -0.02675803 -0.041473866 -0.13042715 0.06612742 -0.13296217 0.01013892 -0.036915008 0.21216966 0.27128258 -0.1366514 0.20686702 -0.135999 -0.33408734 0.01569913 0.12227334 -0.20788795 0.07810105 0.049178842 -0.039973598 -0.21400774 -0.038690493 0.2111884 0.22237547 -0.060228728 0.1536561 0.09623338 0.018229801 -0.033553947 0.105743654 -0.12739511 -0.028970797 -0.07715506 -0.10796506 -0.06474022 -0.031728555 0.044655897 0.22195871 -0.053253803 0.14436965 0.17162485 0.088163726 -0.12999266 0.043707542 0.027861087 -0.3095809 -0.05648777 -0.06364789 -0.09624498 0.06508819 -0.07184267 -0.012921599 0.05105638 0.06305709 -0.12955669 0.15630919 0.25923055 -0.05669668 0.016112136 -0.021049539 -0.14185898 0.1840732 0.04624548 -0.15193759 -0.10724938 -0.010606985 -0.01005369 0.34008533 -0.037829343 -0.12474481 -0.14165226 -0.02370404 -0.12699236 -0.18522587 0.05927965 -0.05321373 0.034406 0.10022958 0.086768426 0.053109296 -0.13134304 0.14034453 -0.05300613 0.122427545 -0.029699035 0.20381206 0.083550155 -0.07436681 0.07249847 -0.08410042 0.21166097 0.047120616 -0.07467084 0.05413513 -0.025660537 0.08916623 0.20000839 -0.0318253 -0.15794592 -0.2108676 -0.048445288
400 -0.059129976 -0.003131855 0.20020738 0.013096427 0.01388031 -0.13565944 0.089129716 0.031861734 -0.09175824 0.010910554 0.25387838 -0.056096707 -0.037522707 -0.0267554 -0.0009389425 -0.12385322 -0.10716319 0.038238235 -0.17455725 -0.0049781627 0.06333302 0.312053 0.101791464 -0.05666383 -0.080215134 0.034484327 -0.22008547 0.026958024 0.1014476 -0.019417683 -0.14787903 0.13975191 -0.09991816 -0.009033858 0.06351124 0.04186083 0.3789898 0.123462096 0.32912347 -0.13637003 -0.1912008 0.08056903 0.092563994 -0.09425753 0.086127125 0.23910564 0.026859283 -0.0612231 -0.10003407 0.32868725 0.12644766 0.036694232 0.15804532 0.029439084 0.1286888 0.056541465 0.13767269 0.01915597 -0.119498454 -0.13113908 -0.0015302817 -0.27460924 0.03431917 0.015061239 0.07992761 -0.10628863 0.039818347 0.06322965 0.0046683964 -0.05119345 -0.024571555 0.06520077 -0.19166347 0.013648343 -0.14689049 -0.16194789 0.024665661 -0.019452563 -0.104778275 0.027059918 0.12891258 -0.16379929 -0.0035100672 0.18859847 -0.06555359 0.0014577064 0.15479892 -0.25813657 0.15510722 -0.03559599 -0.14348872 -0.0287706 -0.06501453 0.03242102 0.13418622 -0.020396402 -0.29039174 -0.17888646 -0.0041579665 -0.15516956 -0.2765003 -0.026806843 0.04094374 0.059195027 0.043835223 0.06213822 -0.023834217 -0.23459321 -0.059219286 -0.08592888 0.14634834 -0.061728854 0.07592336 -0.11328257 -0.19139384 0.10446083 -0.18426935 0.14851785 0.023476124 0.041043073 0.14735743 -0.020030478 0.04701893 0.11858034 0.055562288 -0.10567566 -0.24803177 0.06762608
38 -0.11409266 0.027669026 0.31873038 0.16100211 -0.10577613 -0.010878486 -0.09237636 -0.01219836 0.033790387 0.12398239 0.16352862 -0.13557245 -0.0013150242 -0.08832689 -0.058789022 -0.05201643 -0.04889449 0.058233656 -0.29515773 -0.07126749 0.044749863 0.15582569 0.06528785 0.0065181 -0.16096704 0.17118107 -0.0701274 -0.011520948 0.1457898 -0.08976137 -0.12677361 0.052950654 -0.22265312 0.027383748 0.15943103 0.060392506 0.24598585 0.08552757 0.16280541 -0.11331072 -0.16318478 0.107344665 0.051059436 -0.0592287 0.07453182 0.21094146 -0.07501322 -0.016992847 0.023880064 0.17644687 0.07629805 -0.09791086 0.0315116 0.10964589 0.09758473 0.08655519 0.14018196 -0.06093703 -0.14770395 0.014413811 0.092539355 -0.20175864 0.0048489533 0.16006371 0.107980594 0.081779785 0.028418146 -0.039086778 0.018741662 -0.01598063 -0.07098158 -0.049133997 -0.20595747 -0.21893987 -0.09752465 -0.10330184 0.16102777 0.119570315 0.03519351 0.040443297 0.021754032 -0.006095757 0.3074372 0.1966203 -0.00890051 0.10409964 0.10599964 -0.074069306 0.024192352 0.018763874 -0.11421193 -0.19076426 -0.06790073 -0.1045049 0.06504741 0.0740976 -0.13202184 -0.036506068 -0.1222829 -0.013862029 -0.19796754 0.009306456 -0.026167968 0.0876902 0.12058496 0.16670962 -0.07783393 -0.1812196 -0.04084929 -0.08387971 0.21424574 -0.03843819 0.18820377 -0.06820658 -0.04619783 0.2986278 -0.25878343 0.18615337 -0.031282306 0.0034677018 0.13932343 -0.03746907 0.09879059 0.27742463 0.0135128265 -0.10617236 -0.19262064 -0.08009111
198 -0.039676078 -0.011221907 0.08881245 0.047679223 0.20592727 -0.18473844 0.14287186 0.13561432 0.08822094 0.0105222305 0.27175805 0.0733429 -0.036234356 -0.099246204 0.07406331 0.044454455 -0.09121227 -0.061811283 -0.13855487 0.12210381 0.101284795 0.15971024 0.13397291 -0.22544827 -0.16932286 0.2104862 -0.14746216 -0.042973682 -0.02617433 -0.1682699 -0.06454388 0.16809444 -0.2033005 -0.03915904 -0.15745236 0.13099508 0.08418254 -0.124098375 0.104748964 -0.16201937 -0.23075902 0.011266542 -0.005603802 -0.23890004 0.1728247 0.038438734 -0.06977491 -0.24968815 -0.062207192 0.2243657 0.22245061 -0.07499357 0.16916789 0.018071279 -0.04826721 -0.027799593 0.2084615 -0.07857954 0.00032087366 -0.049852174 0.0045083757 0.043886006 -0.07651642 0.012470908 0.1772769 -0.0962682 0.15165477 0.15157823 0.113822594 -0.0030454085 0.02002103 0.034728363 -0.2945295 -0.044795405 0.021601338 0.020873437 0.20810026 0.09775655 -0.15394208 0.1009747 -0.00027322065 -0.021597082 0.061231907 0.07732167 0.10076618 0.027274072 -0.04897468 -0.16061391 0.1547893 0.113950536 -0.24427252 -0.17342086 -0.09086796 -0.11546737 0.26500517 -0.062662244 -0.17095059 -0.20790431 -0.07747753 -0.11943467 -0.13232712 0.126291 0.022313153 0.12836543 0.170945 0.028145825 0.12179327 -0.12464085 0.1818068 -0.06386102 0.16413385 0.07175541 0.15261258 0.10178251 -0.079108715 0.13690318 -0.12588781 0.11244326 0.10919482 -0.10269746 -0.03765845 -0.113324374 0.024533229 0.15811633 -0.08186156 0.010471576 -0.18841161 0.0043708077
189 0.02131529 0.006478708 0.18201526 0.12744173 0.0027085238 0.057353053 0.084863886 0.036074966 0.051139325 0.037017 0.26775622 0.011554632 -0.117537804 -0.06969203 -0.054975994 -0.0009957112 -0.22104183 0.081171535 -0.39179036 -0.04298788 0.07211556 0.10088007 0.09886182 -0.14917274 -0.22913359 0.19137765 -0.1968018 -0.07671609 0.018834632 -0.118907586 -0.227434 -0.026118912 -0.179819 -0.10122408 0.08495723 0.2025105 0.14751837 -0.09488996 0.21267551 -0.1178824 -0.101083174 0.11604543 -0.12469431 -0.17332412 0.17302994 0.06924111 -0.06382416 -0.10002095 -0.18486577 0.26691148 0.19628447 -0.13078016 0.10407586 -0.10266887 -0.00036125243 0.119247586 0.13161337 0.012708276 -0.17599058 0.100329675 0.087294936 -0.1454656 -0.04191235 0.12767893 0.14804147 0.0040828697 0.08207237 0.05531128 0.077950925 -0.03746655 -0.059190873 -0.04063378 -0.17190783 -0.31502646 -0.08627627 -0.12530942 0.16466577 0.070493884 0.083681025 0.12757368 0.15256752 -0.057083815 0.18102399 0.15156752 0.0063987235 0.022433504 0.11666227 -0.024756491 0.0968975 -0.06902911 -0.26003444 -0.16026212 -0.0022549035 -0.15015472 0.06868374 0.07526936 -0.13285632 -0.08141356 -0.08904826 -0.091138385 0.109754406 -0.068105385 0.048792433 0.0057492214 0.14444394 0.14206833 0.1053096 0.028183563 0.16380462 -0.07478161 0.19588195 0.100260116 0.23489742 0.15960875 0.04020472 0.15614077 -0.13139002 0.19284041 0.028985213 -0.04735144 -0.1000706 0.021845862 0.055992518 0.2132764 -0.07061424 0.017081674 -0.20787998 -0.116737425
39 -0.15793367 -0.07544193 0.33707634 0.11375307 -0.07450337 -0.117797926 -0.007700805 -0.05314308 -0.017891182 0.21755445 0.13600567 -0.1297918 -0.14354531 -0.20970313 -0.15333793 -0.099872135 -0.098927446 0.026676368 -0.20628294 -0.09568106 0.16176853 0.44599476 0.08441979 -0.056138165 -0.06322477 0.16538353 -0.25908178 -0.13674346 0.1055469 -0.21554084 -0.16103363 0.0638707 -0.09755334 0.07936192 0.08362564 0.12863068 0.33705992 -0.14790213 0.14156963 -0.16217178 -0.13375033 -0.12049516 0.051106595 -0.088791266 0.18984035 0.050184067 -0.06243943 -0.07154937 0.03368514 0.049951795 -0.018809523 0.007064687 0.09259212 0.15880042 0.033331953 -0.06441936 0.012754127 -0.14137512 -0.19686992 0.14321978 0.044560988 -0.124218106 0.09451092 0.10841032 0.11627136 0.103315726 0.12424015 0.24649073 0.046922974 0.00408074 0.13761814 -0.107412644 -0.18100142 -0.0855402 0.089640126 0.023124782 -0.105691 -0.014915662 -0.24852875 0.043045677 -0.1438543 -0.07652007 0.20384136 0.24090561 -0.008441788 0.046756975 0.06886294 -0.16131641 0.017707914 0.16371238 -0.21265776 -0.0891603 -0.13120274 -0.08618308 0.18561108 -0.069225244 -0.14567886 -0.104981534 -0.06964452 -0.0036284528 -0.13929427 0.10048058 -0.022782564 0.020518688 0.05270779 0.11186407 -0.09237504 -0.06925391 0.06693389 -0.08510155 0.10457111 -0.08023813 0.19512402 -0.08653345 -0.1836172 0.13445048 -0.29594922 0.13803579 0.046639305 0.06574856 0.015002394 -0.18086325 0.13288175 0.11102782 -0.020734785 -0.061835717 -0.081242904 0.0018529203
242 -0.041582834 -0.13033313 0.21481562 0.23423716 0.07084761 0.040484034 -0.14993303 0.09405937 0.002779428 0.13801183 0.2668272 -0.135153 0.22212404 -0.1841748 -0.025234919 0.13364121 -0.10977891 0.05599915 -0.117765754 -0.076711595 0.076582104 0.30467704 0.08549658 -0.014173454 -0.2258228 0.0565683 0.07007547 -0.04874957 -0.08337428 -0.00081279007 -0.14264369 -0.04248581 -0.24239887 0.036671966 0.17548026 0.148209 0.39571744 -0.107548326 0.20091821 -0.06101443 -0.22393884 0.20997337 0.16622815 -0.04919869 0.14817351 0.29143518 -0.03536288 -0.014293938 -0.015860608 0.17789967 0.059047416 -0.13208674 0.2728561 0.14164677 0.04274145 -0.06676946 0.01696862 0.06733528 -0.12576643 0.027645255 0.06930941 -0.18408006 -0.011738104 0.116680644 0.20230545 0.057035413 0.11135707 0.055833474 -0.084534764 -0.12724988 0.056188557 -0.0036576614 -0.1417683 -0.058137745 -0.03252457 -0.18447857 -0.06140403 -0.10375693 -0.033258066 0.09116784 0.024451012 -0.1591844 0.11855583 0.27578062 -0.20218122 0.15863584 0.070184715 -0.19725981 0.052022733 0.031526394 -0.23356737 -0.05871502 -0.12908173 0.075797364 0.14747795 0.1508019 -0.24924618 -0.13927868 -0.19945171 -0.1255328 -0.37210914 -0.08529709 -0.019734101 0.12727426 0.037513413 0.23444815 -0.033324253 0.049898967 -0.028461264 -0.032053478 0.23314112 0.043666054 0.41219065 0.023941971 -0.036110856 0.13246605 -0.31691816 0.15731663 -0.05658051 -0.10607666 -0.0016172546 0.008325337 0.071631074 0.18187495 0.056762163 -0.19992942 -0.079653315 0.09386004
18 -0.010836108 -0.17427498 0.21100844 0.11125822 0.13436072 -0.11388781 0.047665365 -0.018143456 -0.005841365 0.056081064 0.21062264 -0.07780462 -0.06199671 -0.12642677 0.082945704 0.21950063 -0.1364726 -0.03231776 -0.22930516 0.12861656 0.17782289 0.10091416 0.1379034 -0.1427404 -0.20191206 0.24343154 -0.11326573 -0.15102069 0.08777204 -0.17311826 -0.19425511 0.128352 -0.10107562 -0.013325362 -0.06923034 0.14293641 0.20742139 -0.02071595 0.041187357 -0.152969 -0.17087908 -0.065504655 0.11139242 -0.0424793 0.13314815 0.16237557 -0.10421266 -0.23051064 0.07109768 0.12192988 0.0720825 -0.09788787 0.06122257 -0.012250172 0.06497965 0.04843584 0.36194158 -0.15431413 0.052088402 -0.1241915 -0.040906206 -0.10908518 -0.08899978 0.05141382 0.10735402 -0.051348515 0.20055464 -0.082204066 0.05751878 0.13104093 0.05845189 -0.062969156 -0.37447566 0.015934238 -0.08164092 0.12443427 0.09665812 0.074933566 -0.07731999 -0.07001537 0.11110762 0.008791677 0.12860149 0.17604162 0.110518895 0.18662468 -0.13786048 -0.07731939 0.14078541 0.13428031 -0.20237832 -0.13443914 -0.113622725 -0.17826347 0.17864743 -0.09510751 -0.20571285 -0.026671411 -0.26969522 0.034502514 -0.14895056 0.2370658 -0.012567916 0.10342657 0.17370614 0.17052473 0.18256491 -0.13642094 0.07215112 -0.106418036 0.18611597 0.06319176 0.19338295 0.054302704 -0.16732793 0.16258542 -0.1454941 0.25178337 0.05703698 -0.024825519 0.13327533 -0.17397839 0.027656121 0.20069765 0.016768696 -0.047667135 -0.42309168 0.10908077
286 -0.040317465 -0.07938047 0.12517427 0.13632019 0.19395664 -0.27837923 0.18856017 0.20208272 0.0871411 0.011223167 0.2376019 0.11234826 -0.057471536 -0.17975435 0.13351314 -0.07077624 0.02095483 -0.00066449365 -0.08435929 0.10226029 0.070027284 0.04457958 0.18112442 -0.19530916 -0.14066374 0.18800549 -0.10438272 0.0054749902 -0.012373184 -0.08808922 -0.09522576 0.24379118 -0.1327565 0.021246929 -0.08638987 0.048105277 0.18244176 -0.11986168 0.18479675 -0.073184915 -0.21985321 0.09683683 0.06377481 -0.114889584 0.15674423 0.19564286 -0.092142075 -0.20399624 -0.09218834 0.31207722 0.18712163 -0.115189016 0.15766785 0.0096533885 0.007865889 0.11619242 0.11768615 -0.14494245 0.024984429 -0.10364345 0.037249062 0.04935918 -0.064970195 0.07825213 0.14264466 -0.10179896 0.07577098 0.040022433 0.1251809 -0.05564181 -0.036000118 0.019632801 -0.38786793 -0.12385349 -0.00042210676 0.03430565 0.18749212 0.062040053 -0.07258392 0.056045394 0.06708799 0.013085196 0.08588336 0.0503382 0.20460309 0.1143949 -0.08957331 -0.16461247 0.21514784 0.090853654 -0.26021078 -0.05841827 -0.07036366 0.056887764 0.1595317 -0.053891797 -0.10349163 -0.10524076 -0.03775818 -0.10051609 -0.16502345 0.09033982 -0.047976397 0.085809104 0.1286173 0.008051865 0.07100654 -0.103210256 0.1868429 -0.09203058 0.28432673 0.07605491 0.1621779 0.064235196 -0.06547506 0.13329647 -0.08619797 0.0847077 0.021550262 -0.10519367 0.0047910246 -0.12883133 0.051699296 0.21358633 -0.07550816 0.036347322 -0.25072765 -0.061167434
179 -0.022451073 -0.047678705 0.17307527 -0.018281886 -0.028798038 -0.07539101 -0.081364594 0.06237421 0.06683676 0.109267026 0.27320743 0.084692925 0.08793315 -0.031683818 -0.16495565 -0.006769384 -0.15674357 0.046365853 -0.21252194 0.0012968634 0.081478365 0.23727937 0.21491109 -0.10658782 -0.10931329 0.123438396 -0.20008703 -0.06655538 -0.003280804 -0.06704567 -0.033873502 0.05441647 -0.2311973 0.052767698 0.08487128 0.264335 0.35981402 0.008183004 0.24724644 -0.09747873 -0.26635352 0.17016518 0.053595394 -0.18942836 0.18576731 0.0928693 -0.13802874 -0.1946046 0.018046265 0.21210682 0.16720162 0.0047078896 0.30191752 0.09602076 -0.0062295524 0.11292401 0.009917705 0.17575818 -0.014417506 -0.044273287 0.021254243 -0.18943247 -0.04772562 0.24048406 0.21003698 -0.06363815 0.081567355 0.11226505 0.16279627 -0.22193465 -0.04528569 0.02657963 -0.1258384 -0.06685602 -0.09707436 -0.15144847 0.218193 0.030233696 0.041501537 0.12817046 -0.007902733 -0.068045 0.09772485 0.061409175 -0.12090785 -0.046754662 0.23271191 -0.2013453 0.007922341 0.05688864 -0.16175662 -0.1672382 -0.18203841 -0.16022022 0.19402632 0.055022437 -0.099692985 -0.089531764 0.017260663 -0.13792078 -0.22023128 0.035125352 0.032997515 0.05303555 0.003999547 0.10764817 -0.0069443723 -0.29974338 -0.02223216 -0.040207837 0.08002055 -0.0058000847 0.21038559 -0.011726652 -0.025654936 0.06899394 -0.2256182 0.20753999 -0.03442755 -0.042523023 0.022508 -0.07643157 -0.059964433 0.09719863 -0.035023406 -0.04265187 -0.115302995 -0.18410683
82 0.013584187 0.21256801 0.11229744 -0.113008715 0.10259915 -0.07372085 -0.06348627 0.11539299 0.095510535 0.1829497 0.15288961 -0.17363706 0.095592186 -0.05919524 -0.08502539 -0.11489563 -0.12658505 0.028511139 -0.20608863 -0.11737351 0.046846416 0.32221982 0.00027596176 -0.15404625 0.033047732 0.19777963 -0.20249733 -0.08019296 -0.013410409 -0.12044003 -0.028751247 0.14789455 -0.1698159 0.07465988 -0.012115699 0.050675582 0.23970091 -0.17294344 0.1306654 -0.08992111 -0.1495242 0.02396985 -0.036359623 -0.16786714 0.12608036 -0.06853 -0.12104746 -0.08870891 -0.0115910955 0.1522098 -0.010078095 0.01647091 0.19528745 0.22679086 0.046759333 -0.10017912 0.009224571 -0.13605155 -0.32011095 0.17757434 -0.045146227 0.0013846962 0.071085095 -0.00892644 0.26128846 0.06385529 0.14386395 0.26615623 0.035153743 -0.10955113 -0.044469163 -0.028112127 -0.23015739 -0.19583651 0.061782815 -0.08361737 0.1824701 0.03844514 -0.20967819 0.12057058 -0.1075533 -0.21959072 0.093534835 0.111368276 -0.105605334 -0.036082108 0.21445487 -0.10686941 0.046684 0.121978395 -0.35535282 -0.112597734 0.022580242 0.004541657 0.069092095 -0.05925502 -0.13697135 -0.26417685 -0.12426829 -0.09220638 -0.15905881 -0.048059464 -0.051657315 0.12602514 0.16884874 -0.035919238 -0.13416228 -0.14016743 0.15174142 0.009799575 0.22611377 0.06315631 0.21362713 0.011947665 -0.09639797 0.2176772 -0.4519447 0.16826192 0.029265584 0.043206874 -0.006025968 -0.29982588 0.16798532 0.15176764 -0.24335882 0.10355683 -0.0410554 -0.03720205
367 -0.0951498 -0.1449939 0.36253303 0.027805572 -0.058066145 -0.19497614 -0.07122558 0.0081428485 0.029398689 -0.027208623 0.12773666 -0.0041883485 -0.058114693 -0.03403553 -0.10352973 0.1252901 -0.083915375 -0.05414782 -0.18696176 0.07077019 -0.0024571435 0.156625 0.17353213 -0.1262271 -0.09487252 0.1191294 -0.25716093 -0.06897917 -0.03283355 -0.10808272 -0.14940226 0.20915675 -0.15169981 0.031127274 0.07703052 0.19750778 0.26582843 -0.06775024 0.1918606 -0.094259836 -0.28786734 -0.049105912 0.15201016 -0.14472349 -0.006588274 0.08773927 -0.0053428896 -0.25366688 -0.11028187 0.07203753 0.16326265 -0.058344495 0.12416628 0.107803985 0.07347262 0.041591246 0.13217098 -0.09588635 -0.077120006 -0.060221072 -0.090835854 -0.08356166 0.04092687 0.115997724 0.17368694 -0.13232295 0.06564783 -0.026826167 0.10271919 -0.0761028 -0.08829437 -0.007936155 -0.21255606 0.005448034 -0.14010635 -0.09478807 0.092367284 0.035299163 -0.17191462 -0.054197557 0.008724358 0.06463431 0.1231957 0.14495964 -0.07940315 0.08087244 -0.03665362 -0.06889481 0.08494126 0.20681243 -0.17105176 -0.13105896 -0.05801034 -0.097466566 0.3014812 -0.16052724 -0.16727206 -0.06465067 -0.095000826 0.069902554 -0.18722603 0.15621205 0.0032194313 -0.0003449884 0.0022064792 0.105935775 -0.011916712 -0.053901814 0.18015979 -0.072103396 -0.036154505 -0.07005574 0.22722027 0.10216246 -0.12927446 0.060258035 -0.1196829 0.16670154 0.07475774 -0.093905374 0.08881153 -0.16814789 -0.0005740878 0.22391993 0.017803038 -0.16197743 -0.23399863 0.027945787
42 0.025815956 0.034990534 0.24353382 0.11061049 0.07242475 -0.11122228 0.053772904 0.14971848 0.08975074 0.055500068 0.21209987 0.026577083 -0.05011695 0.024617603 -0.004073161 -0.05994201 -0.08216381 0.07568969 -0.099247046 -0.083910264 0.072418064 0.020321092 0.0830546 -0.071423836 -0.112470284 0.008862381 -0.034085687 -0.05836908 0.011791759 0.011671119 -0.27829877 -0.07005541 -0.091732875 0.014951458 0.054893672 0.19260499 0.23359023 -0.05160809 0.31271046 -0.03649732 -0.16724733 0.1750609 -0.0030346196 -0.10962357 0.13942184 0.086911485 -0.018407524 -0.15658815 -0.04389241 0.2147776 0.09459221 -0.055314027 0.19444759 -0.106283836 0.040661648 0.15154397 -6.950753e-05 -0.018333623 -0.078438155 -0.03120165 -0.038437717 -0.05749861 -0.048274014 0.10966619 0.31210008 -0.053856645 0.13612954 -0.06814453 0.1249024 -0.17481492 0.10606332 0.06977322 -0.3201219 -0.15971789 -0.0032395087 -0.21290357 0.16695881 -0.006746688 0.039927132 0.19811808 0.13630234 -0.15201765 0.09303705 0.19472197 -0.0685725 0.098173 0.09733274 -0.18389389 0.1650826 0.022330988 -0.23152316 -0.096871495 -0.1005489 -0.079861306 0.14275248 0.0997414 -0.3014 -0.11801325 -0.12233852 -0.21479996 -0.15086345 -0.05404428 -0.031236177 0.05480654 0.12332631 0.14789048 0.06564313 -0.20209758 0.18658239 0.017975533 0.18513173 0.026373768 0.35149235 0.1662445 -0.12340384 0.15272848 -0.13448456 0.19133675 -0.043318935 -0.08501575 -0.05434941 0.034958392 0.013929404 0.12055792 0.013235115 0.06995384 -0.0983518 -0.090731815
131 -0.11990235 -0.0127254315 0.3259623 0.027483352 0.12071456 0.083906956 0.17486487 -0.045498163 -0.060018297 0.12339624 0.11977534 -0.21659881 -0.087759405 -0.25657675 -0.09847938 -0.18465793 -0.123749875 -0.021594025 -0.35327473 0.011033023 0.10305092 0.50889075 0.075644724 -0.05906216 -0.18823572 0.2830913 -0.22175297 0.008908165 -0.071489416 -0.05169558 -0.1843974 0.1375984 -0.0479243 -0.015472093 0.11940805 -0.08297617 0.33558533 -0.005389741 0.23188606 -0.09179395 -0.17498606 -0.02191172 -0.13776475 -0.039773107 0.14830805 0.091362335 0.19763409 -0.024856526 -0.16709566 0.24493383 -0.013612496 0.041292597 0.17462741 0.03157816 -0.036873374 0.1280342 0.07087181 -0.08950139 -0.25249317 0.0724901 0.005946993 -0.18614838 0.2310219 -0.116726816 0.18949567 0.024673993 0.07192324 0.18934481 -0.086068116 0.14148271 -0.0068055918 -0.17627573 -0.054764785 -0.06292094 0.20886134 -0.13918804 -0.07983125 0.0139697315 -0.21109302 0.1371589 0.014428294 -0.26662925 0.06320748 0.2769361 -0.084963575 0.13851975 0.12475034 -0.26224077 -0.07648219 0.031526476 -0.28985018 0.06597121 0.10564088 0.09956681 0.01492557 -0.04450474 -0.14316937 -0.289764 0.022589348 -0.1686517 -0.1846923 -0.08089892 0.009967166 -0.064766005 0.078015335 0.051931184 -0.20785654 -0.011866595 0.1016849 -0.042337727 0.07090213 -0.03577294 0.020191269 -0.14513269 -0.13588433 -0.01925327 -0.2206021 0.097905435 -0.05289282 0.06315041 0.102489695 0.004084551 0.13738164 0.058821566 -0.0910662 0.07201533 -0.20916232 0.27910036
97 -0.04469318 -0.1367949 0.30774537 0.030726662 -0.042813025 0.089283034 -0.027843866 -0.12062332 0.019689659 0.07289029 0.23245944 -0.122996785 -0.13994028 0.00744539 -0.15138274 0.030646944 -0.2674717 0.09199041 -0.404022 -0.012734267 0.0019110591 0.22673547 0.11252063 0.07446488 -0.1826834 0.21255955 -0.22500034 -0.05391126 0.006279789 -0.09780581 -0.22924867 0.097197264 -0.14704686 -0.0050467784 0.17070596 0.08510791 0.2099863 0.022698645 0.25875893 -0.040378515 -0.28342098 0.11064464 0.03180776 -0.10314992 0.12609622 0.10773506 -0.023473535 -0.08894435 -0.037032854 0.056163058 0.13927412 0.009375144 0.16799892 0.014175746 -0.06960729 0.13049598 0.14746942 0.010199411 -0.03735442 0.041950315 -0.07344342 -0.35881913 -0.053478077 0.2165451 0.20125543 -0.17173643 0.0078206295 -0.061845474 0.017778713 -0.18849294 -0.06846537 -0.07561623 -0.09996551 -0.19694106 -0.13433228 -0.20226547 0.16501708 0.13699698 0.06775723 0.06171136 0.16846402 -0.069364786 0.120655574 0.21966754 -0.24281758 0.0014728147 0.15547343 0.0024382682 -0.02065314 0.040411398 -0.1458651 -0.16139129 -0.12071475 -0.17130592 0.1469538 -0.07160842 -0.10948233 0.017835755 -0.08327812 0.003391036 -0.14585757 -0.06952976 -0.028074719 0.00845077 0.04627502 0.24788676 0.059816334 -0.1697311 0.11877275 7.007939e-05 0.023757372 -0.00976435 0.23504664 0.053145174 -0.045148335 0.13074553 -0.18841013 0.22480698 0.010328544 0.01795428 0.029837394 0.004500622 0.10153225 0.19108462 0.025705634 -0.13567449 -0.21171412 -0.17074372
96 -0.059877384 -0.28255114 0.19096585 0.117451206 0.0044746012 -0.15456043 0.093266755 0.14141017 0.1565341 -0.028551163 0.18833466 -0.04858332 0.08807916 -0.16776456 0.012473984 0.18828286 0.040774 -0.059301507 -0.07714092 0.20214958 0.095748655 0.11046614 0.20761125 -0.09225809 -0.3337802 0.17775445 -0.098762654 -0.023944885 -0.08960751 -0.13586673 -0.05118369 0.12909345 -0.29222006 0.12590653 -0.0012761964 0.07353983 0.14902668 -0.15743747 0.30400378 -0.10927471 -0.2682793 0.047210224 -0.037219603 -0.09115993 0.11732242 0.24783012 0.05438305 -0.3256233 -0.025813391 0.1922544 0.15028651 -0.19467181 0.18527022 0.075295195 0.10073622 -0.057003457 0.1907848 0.0686113 0.050891954 -0.114007 0.14209986 -0.13020055 -0.16111581 0.03018473 0.29487902 -0.031145738 0.11367375 -0.09281515 0.13106689 -0.032971606 -0.08613664 0.12426895 -0.3550047 -0.024846636 -0.028224181 -0.004192123 0.22904341 0.09286594 -0.06354603 0.10278934 0.16355813 0.036714073 0.14321285 0.21333383 0.19844864 0.14321081 -0.049781937 -0.2867096 -0.008306688 0.16002347 -0.2441202 -0.1401154 -0.24551377 -0.17001386 0.23220222 -0.069547415 -0.113031134 0.011112979 -0.012523387 -0.14708813 -0.31867513 0.124049515 -0.07069262 0.11926236 0.0010437301 0.16470233 0.05333886 -0.04630734 0.15330397 -0.11940017 -0.07273573 0.0016596839 -0.01421904 0.17683627 -0.0147137875 0.16245334 -0.061190147 0.12619339 0.065699056 -0.117558405 -0.19355804 0.004338513 0.026183872 0.12033081 0.03982431 0.044061147 -0.34084088 0.091002524
43 -0.026211035 0.043388113 0.19066578 0.013240978 0.047708064 -0.14683586 0.03198883 -0.008877412 -0.040121485 0.096503705 0.1647347 0.045356423 -0.14294247 -0.021642555 0.044491865 -0.054865427 -0.116508976 0.08634051 -0.24088073 0.007928554 0.05669377 0.028684957 -0.0494031 -0.15432031 -0.03845798 0.11210768 -0.23333585 -0.0706462 0.063902445 -0.10619671 -0.08946159 0.05474949 -0.102312826 -0.020312034 0.12903689 0.060864326 0.1532119 -0.047333214 0.08135899 -0.09970008 -0.0066628885 0.03346642 -0.012096736 -0.14890993 0.014160571 -0.02524152 -0.028391983 -0.090905964 -0.058518503 0.09821843 0.1493063 1.671934e-05 0.024830768 0.016944014 0.07859021 0.08451459 0.1637112 -0.13987197 -0.14618127 0.0055092955 -0.004330863 -0.078244954 0.08852867 0.07551686 0.13225235 -0.06762782 0.21228816 0.028086107 0.039320108 0.02346348 -0.12694979 -0.11998397 -0.20444678 -0.15537912 0.024650956 -0.13880867 0.12967345 0.07139514 -0.07322641 0.056809537 -0.07157805 -0.1379508 0.2760636 0.16662686 0.019463548 0.06371642 0.095244646 -0.026819242 0.19956256 0.052889485 -0.21839546 -0.1508184 0.010531222 -0.06561342 0.16146788 0.09808189 -0.31868988 -0.18233344 -0.14514342 0.017053671 -0.12045269 0.038724285 0.027243057 0.064342946 0.13577779 0.19975737 0.043400418 -0.14980271 0.193722 -0.088808484 0.16537954 -0.038395643 0.17796595 -0.035090655 -0.10091037 0.08944987 -0.17051135 0.14187936 0.025110452 0.114395045 0.09494919 -0.19898559 0.055433664 0.2237709 -0.109174944 -0.008656523 -0.14742765 0.041790694
398 0.061652537 0.10457089 0.31783965 0.098680556 0.008527085 -0.08099049 0.00063741993 0.02431409 0.05878969 0.12241161 0.20570149 -0.020691479 -0.07497148 0.03305888 0.009827888 0.012395984 -0.19665904 0.11314284 -0.3554203 -0.034770224 0.036059268 0.058035098 0.009380066 -0.18460546 -0.12489614 0.11608467 -0.14948663 -0.03098158 0.1472536 -0.18349105 -0.2268793 -0.07379616 -0.14852524 -0.00887874 0.07455461 0.24891771 0.17680429 -0.12209883 0.21567728 -0.18045929 -0.08335915 0.0938598 0.025120478 -0.19815528 0.08351824 0.101335585 -0.0854138 -0.087084986 -0.051683467 0.19894542 0.035584435 0.01859769 0.0452886 -0.1133057 0.1827524 0.1069943 0.15812209 -0.09355323 -0.10888689 0.11608267 0.03788105 -0.17248197 -0.08250166 0.15387142 0.17709382 0.058475737 0.08252186 -0.062236823 0.10013975 -0.0060167992 -0.00463713 0.071917124 -0.19392842 -0.15427162 -0.12760358 -0.09291448 0.09489138 0.12401505 0.041038416 0.035238452 0.045386948 -0.078545764 0.062373344 0.13213654 0.03355534 0.064971484 0.1467838 -0.04538057 0.16657683 3.0996223e-05 -0.23963083 -0.09914373 -0.030500028 -0.29461467 0.036531296 0.07430761 -0.28339404 -0.099950016 -0.276783 -0.054325707 -0.12758519 -0.0005664258 0.020916535 -0.014425983 -0.004051747 0.12159961 0.047467522 -0.17600225 0.13389124 -0.006806686 0.15741646 -0.04519944 0.19550386 0.16707104 -0.23250556 0.2095371 -0.2534603 0.33544582 -0.062112726 0.03185127 -0.024288138 -0.100165136 -0.014434886 0.22111264 -0.036629383 -0.09264225 -0.2744908 -0.15776616
427 -0.0065949676 0.10970259 0.31184587 0.21750987 -0.020948656 -0.09902453 -0.06266288 0.046914008 0.07817033 -0.019736595 0.114173554 0.05017562 -0.11496628 -0.06457734 -0.02634094 -0.021271072 -0.16280076 0.0027004734 -0.3375714 0.011588259 -0.04188946 -0.023807408 0.041849922 -0.08803959 -0.14016475 0.101549655 -0.12746973 0.11068048 0.06642468 -0.24734415 -0.21346955 -0.037783373 -0.16127446 0.047154438 0.013267823 0.2537877 0.060514066 -0.13690597 0.15940201 -0.11484703 -0.19829749 -0.062434897 0.039569903 -0.23213965 0.088501684 0.061540395 -0.008073284 -0.14704296 -0.02968104 0.15861107 0.1968253 -0.059263434 -0.009737002 0.060748156 0.025446465 -0.028406702 0.22296919 -0.22465731 -0.10544807 0.078209534 -0.11297077 -0.09193782 -0.068294056 0.18103486 0.13620408 0.005925657 0.1875713 -0.13442613 0.12275141 -0.08772687 -0.020480188 0.113167115 -0.2666813 -0.1758075 -0.12918597 0.002507212 0.09164149 0.0021072729 0.037294768 -0.08508022 0.08951795 0.051330853 0.24564919 0.17059104 -0.042326976 0.040467866 -0.032664318 -0.007781578 0.16608046 0.0057706973 -0.23208198 -0.19166681 0.031931054 -0.16686815 0.14178489 0.015012683 -0.16369471 0.0067762425 -0.1340915 -0.06461495 -0.060727354 0.02861039 0.0128570665 0.084319755 0.05437387 0.08809495 0.10565927 -0.15102297 0.14774857 0.0032944027 -0.017124059 -0.07290676 0.14651223 0.22972527 -0.10371269 0.15807457 -0.09592877 0.24045794 0.094866276 0.009395405 0.09876873 -0.08611653 0.09106378 0.2702662 -0.00056551973 -0.23044218 -0.27591923 -0.17254475
196 -0.1166875 0.015578288 0.18034804 -0.06315439 0.14105439 -0.08830811 -0.004666573 0.06756086 0.042592276 -0.037836425 0.28264442 -0.18308152 0.05146853 0.015342853 0.11566584 0.09158694 -0.0069443225 -0.06139314 -0.19796358 0.13450381 0.07096039 0.032799102 0.053343635 -0.11775048 -0.14025989 0.28986534 -0.19578491 -0.02911118 -0.040017467 -0.07578446 -0.025758058 0.2347079 -0.32210726 0.06995876 -0.0029566553 -0.07935172 0.16068324 -0.018139547 0.2456604 0.07486558 -0.1802251 0.069044426 0.11135768 -0.109696515 -0.010019266 0.18227784 -0.014610334 -0.12808889 -0.21534373 0.21241769 0.20148854 -0.1368295 0.14712924 0.021197153 0.005629866 0.0526407 0.22350505 -0.16555472 -0.1136816 -0.11392963 0.12623137 -0.100766614 -0.02745714 -0.08631587 0.23736948 -0.11765007 0.118164375 -0.16111015 -0.01844466 0.021746693 -0.18364085 0.0058316397 -0.34266698 -0.14272834 -0.1598678 -0.20824079 0.25762603 0.15880305 -0.11132123 0.10442326 0.07206926 -0.018168671 -0.022279387 0.12561595 -0.04258065 0.13572603 -0.025677089 0.029374218 0.119382985 0.093527146 -0.17561127 -0.13109125 -0.1262167 0.009890567 0.02932984 -0.27932948 -0.16090284 -0.117405534 -0.24219319 -0.004071446 -0.23124152 0.0071539027 -0.10584778 0.14179252 0.058567293 0.051749323 0.08910559 -0.056106575 0.08946611 -0.13271213 0.24621391 0.07856527 0.11777499 -0.021646366 -0.064849466 0.21335764 -0.21073847 0.027693598 0.121749505 -0.14466573 -0.06608168 -0.17006347 0.021456432 0.2559651 -0.21488073 -0.0007046235 -0.10721119 0.13797224
472 -0.04272861 -0.06960752 0.3903832 0.059855193 -0.09491237 -0.08051662 -0.081516 -0.13294414 0.059127808 0.11175412 0.051545113 -0.15509434 -0.20911118 -0.013155902 -0.04425633 0.064632416 -0.17822434 -0.044244308 -0.35958394 0.2909546 -0.030432934 0.088143654 -0.0031494133 -0.12407293 -0.22132325 0.20763382 -0.12358966 0.06832113 -0.060302697 -0.17555773 -0.19086033 0.09694248 -0.17280947 0.049648926 0.09642217 0.14959505 0.102596216 -0.1306565 0.38876227 -0.052125044 -0.28367397 0.101757176 0.02395411 -0.10452938 0.20143518 -0.08069989 0.20049393 -0.20353314 -0.01696124 -0.00997095 0.1002636 -0.084119916 0.12083764 -0.14483593 0.036619093 0.23191686 0.13154598 -0.18846105 0.02371646 0.030453132 -0.03215288 -0.22552262 -0.0635731 0.103924975 0.21248214 -0.061838076 0.17288543 -0.103565015 0.08032453 0.066722564 0.07216101 0.068821564 -0.2654806 0.08004897 0.13529271 -0.09287131 0.14269912 -0.012960229 -0.027443994 0.035639845 -0.0499354 -0.11732009 0.14165872 0.19150783 -0.18695664 0.14172389 0.07564624 -0.21951061 0.06255969 0.10017316 -0.15352218 -0.021594161 -0.09002758 -0.100814134 0.16165482 0.057711225 -0.21828723 -0.09776813 -0.12367409 -0.14383708 -0.13999866 0.13442813 -0.027120048 -0.08732687 0.003553615 0.13545287 -0.0018317981 -0.1330087 0.19110519 -0.035649866 -0.015349707 -0.015746424 0.07696858 0.199993 -0.122524515 -0.09574702 -0.07912405 0.26538017 -0.09803426 -0.1741577 0.12649561 0.042143434 -0.05686464 0.091622 0.0021973602 -0.08727582 -0.21419343 -0.0046941773
587 -0.10059433 -0.13806179 0.19062488 0.10782152 0.05973576 -0.12600951 0.11466228 0.04284407 0.15979205 0.03402209 0.20982818 0.106588416 0.030993348 -0.22259249 0.0465694 0.021982208 -0.05904853 0.056496818 -0.18362406 0.15384707 0.10947761 0.05305388 0.1517284 0.023616275 -0.31785822 0.21359868 -0.1313939 -0.0021840215 -0.028698724 -0.21979839 -0.043038964 0.08446071 -0.29385936 -0.018003028 -0.02960974 0.032758478 0.0667338 -0.03056318 0.17215398 -0.19943081 -0.1412757 0.044954054 -0.076344885 -0.12717712 0.22396255 0.08624276 -0.06457939 -0.18879622 -0.015364999 0.21561266 0.25890976 -0.20777765 0.15029632 0.02614123 -0.12961456 0.065276295 0.23703787 -0.06449675 0.029944064 -0.01773778 0.21693759 -0.006050743 -0.13511866 0.053520553 0.19566251 -0.20849542 0.17943893 0.020496467 0.20054434 -0.01150103 -0.18114309 0.09255559 -0.33245552 -0.24093956 0.019569533 0.021350507 0.22683245 0.20219396 -0.020652963 0.19887571 0.062278636 0.06600279 0.34109426 0.16148189 0.25403035 0.13671528 0.015364607 -0.18038683 -0.050406735 0.039430328 -0.18669714 -0.21390197 -0.12867515 -0.06894979 0.27449334 0.032675702 -0.005382491 -0.021374438 0.12397259 -0.06327311 -0.17902939 0.05193461 0.017675724 0.085757 -0.018503787 0.14942579 0.06686502 -0.08628518 0.10004783 -0.10330994 0.08449541 0.07301902 -0.092175156 0.03740714 0.120000444 0.11339974 -0.048077255 0.022914357 0.1321603 -0.114221066 -0.094887644 -0.08185598 0.098738 0.20880185 -0.07272029 -0.002822493 -0.27279568 0.02599038
144 -0.075404845 -0.0876471 0.19855067 -0.0013900086 0.004358795 -0.10318769 0.023464723 -0.114431135 -0.01351758 0.06984609 0.23400462 -0.043163974 -0.19922425 0.0027729492 -0.12551382 -0.015985908 -0.1573639 0.02403327 -0.39368293 0.11434544 0.08877613 0.21120195 0.105812505 -0.07137373 -0.109485365 0.18577129 -0.20589752 0.16095829 -0.13518809 -0.15842009 -0.14664544 0.1959458 -0.18472128 0.0123770535 0.038947072 -0.08551315 0.05141744 -0.10590244 0.30049726 -0.0063945856 -0.2700908 0.082902126 0.017348163 -0.25374728 0.02442175 -0.034879588 0.097523764 -0.053358465 -0.17392465 0.066869125 0.14994004 0.012409005 0.06995156 0.07113997 -0.06699438 0.022217857 0.18035895 -0.1854201 -0.06574783 0.005271972 0.073543176 -0.1505434 0.006334806 0.055075027 0.1287322 -0.14369398 0.120258205 0.11169213 -0.038662933 0.0012919197 -0.16473012 0.011599364 -0.1069702 0.01475166 0.08914998 -0.1263535 0.059822988 0.027697096 -0.1971859 0.050814953 -0.0931497 -0.06585807 0.121883415 0.093611754 -0.10734413 -0.018136228 0.0961768 -0.116784595 0.07133523 0.09198213 -0.17106393 -0.14414553 -0.06414068 0.054049533 0.21321917 -0.030010449 -0.19886538 -0.16927786 -0.0013320749 0.011864001 -0.15999123 0.1325338 -0.03926168 0.11748927 0.02926536 0.0994697 0.06764508 -0.02589908 0.227252 -0.059261177 0.02588371 -0.059878904 0.08906252 0.023565114 -0.027558003 0.0015310025 -0.05345812 0.13359974 0.09130137 -0.087036096 0.0980965 -0.083026215 0.02587415 0.24724025 -0.119505525 -0.14270641 -0.14968017 0.018218977
284 -0.04342338 -0.10666339 0.07226249 0.035625577 0.17413831 -0.17364226 0.16678597 0.22032744 0.039156433 -0.09729524 0.3963513 0.02016152 0.055836834 -0.10314596 0.16485967 -0.071831584 0.009172834 -0.08602329 -0.13030544 0.15152289 0.084615424 0.045678705 0.18381587 -0.19254737 -0.19975947 0.14748187 -0.14850388 -0.060633395 -0.03660821 -0.17703088 -0.096646644 0.19720337 -0.22270633 0.020432692 -0.13323371 0.17105351 0.22513522 -0.099620536 0.21328409 -0.044941407 -0.116308086 0.044867475 0.028283216 -0.20571236 0.22783926 0.19184393 -0.07660813 -0.21959218 -0.03566221 0.2506981 0.1867285 -0.13587119 0.25319457 0.025351848 0.00906503 -0.041761864 0.09520007 -0.13917416 0.101416364 -0.0469193 0.1125475 -0.0039896774 -0.21205936 0.0314441 0.14532743 -0.237824 0.054665145 0.037929982 0.06584702 -0.10584895 -0.03230783 0.03219464 -0.36545905 -0.15058972 -0.04736275 0.01524365 0.21455276 0.1367377 -0.055833418 0.077320084 0.039163917 -0.017491288 0.039929282 0.08458222 0.24207036 0.115781255 -0.023951845 -0.119341835 0.22746955 0.09999108 -0.31614918 -0.0763968 -0.060514 0.013316961 0.21307085 -0.06999396 -0.061411288 -0.13656034 -0.045182616 -0.09052722 -0.15235345 0.0933097 0.037430502 0.11694309 0.11569618 -0.042586878 0.11852365 -0.07814683 0.18040031 -0.10905234 0.124516 0.21616822 0.08797195 0.119794436 -0.06199025 0.13975476 -0.05359826 0.06755297 0.08906509 -0.18078664 -0.06353771 -0.12999894 -0.04558207 0.2606458 -0.16455276 0.11902767 -0.19387315 0.006006668
285 -0.12733145 -0.008907293 0.10864919 0.1142879 0.037067756 -0.22428662 0.06953209 0.095734306 0.12707534 0.046379328 0.23901197 0.06436109 -0.026681902 -0.19524263 -0.027758237 -0.17700486 0.07843989 -0.08366309 -0.17031604 0.099258535 -0.040032137 0.12128267 0.17002031 -0.18647273 -0.041073695 0.08671438 -0.0660527 0.10740384 -0.089299984 -0.02773165 -0.12903671 0.1630691 -0.1199691 0.05551946 -0.00808487 0.15688089 0.2959669 -0.08101474 0.36460075 -0.09317391 -0.24455237 0.09243254 0.12445926 -0.31133577 0.14535047 0.1782909 -0.015022236 -0.063812554 -0.13242358 0.23253424 0.16040419 -0.046147473 0.1491149 0.056291193 0.030643314 0.08625535 0.039772253 -0.13510089 -0.055400863 -0.015356318 0.0018813317 -0.013417373 0.0014452729 0.1312984 0.16428119 -0.06383373 0.08565016 0.2314702 0.10424359 -0.062665336 0.026457082 -0.012681899 -0.25646198 -0.046951674 -0.0070836153 -0.081360206 0.18878663 -0.019261671 -0.17541203 0.13981825 -0.1511015 -0.019880095 0.055081923 0.124378115 0.058961198 0.08616364 0.07339041 -0.18617238 0.17282042 0.09760463 -0.24050449 -0.149585 0.06373073 0.17054962 0.18476717 0.026779516 -0.19780901 -0.22315444 0.031489763 -0.09965632 -0.02198027 0.099326566 -0.02509002 0.061564922 0.23693365 -0.02371054 -0.03724869 -0.05289284 0.18510266 -0.14979179 0.24151525 0.067131795 0.267361 0.04448655 -0.0033048622 0.016602714 -0.06093291 0.09819941 -0.0456054 -0.08266646 0.072718106 -0.08970056 0.08318383 0.22057873 -0.032230522 -0.08205919 -0.15350187 -0.035202693
717 -0.050133914 -0.0049650734 0.32195008 0.09473712 0.089577965 -0.011624784 -0.031090206 -0.024434322 0.066282 0.010303136 0.23521832 0.057655595 -0.1303244 -0.02217603 -0.073453814 -0.014446341 -0.1848418 0.022941329 -0.4461059 0.2410881 0.08472612 0.055304557 0.1115823 -0.06745711 -0.19634047 0.16564357 -0.10497135 0.21106416 -0.19768599 -0.18000658 -0.12824474 0.07455723 -0.24037784 0.06106501 0.111417666 -0.00021114975 0.0419856 -0.15432784 0.30410862 -0.009361485 -0.20536762 0.12031414 -0.0644545 -0.15374252 0.069821104 0.06892961 0.10870339 -0.06217411 -0.1810614 0.11009631 0.13165846 -0.10095858 0.13640304 0.00032767977 -0.051766157 0.16861114 0.20889434 -0.0958605 -0.06688311 0.016387405 0.111276664 -0.11425884 -0.005331161 0.17284192 0.08937786 -0.07064812 0.15116195 0.04805951 -0.046511654 0.0059389314 -0.19955918 0.036883965 -0.09466226 -0.0428732 0.0480538 -0.12322978 0.12690224 -0.01978181 -0.026345052 0.03276975 0.007500576 0.020535955 0.17401387 0.12123674 -0.08790392 0.066355586 0.0394689 -0.15214737 0.055322833 0.012596294 -0.2134486 -0.13466853 -0.04556887 0.007957564 0.18237641 0.0721116 -0.19186416 -0.05279776 -0.09138015 -0.04592001 -0.11494659 0.04452673 -0.022517102 0.09710024 -0.043512143 0.12749611 0.13221127 0.029409556 0.17411572 -0.108307876 0.04459733 -0.007578418 0.08579246 0.097936064 0.05859085 -0.028761396 -0.051305037 0.17865255 -0.029451774 -0.15486364 0.070604004 -0.036720067 -0.0147259105 0.27619004 -0.06783582 -0.08228367 -0.19508044 0.01042125
361 -0.14006211 0.025884487 -0.054685652 0.15738936 0.06509881 -0.0667623 0.06751226 0.03439236 -0.030693596 0.14647971 0.25755447 0.03273424 -0.24289364 -0.02607206 -0.034963112 -0.0953166 -0.15305915 0.08776737 -0.31642509 -0.105673306 0.15524144 0.13404734 0.08067795 -0.06872652 -0.15095112 0.19693454 -0.26248577 0.1640032 -0.018329991 -0.026508268 -0.061439645 0.013799957 -0.17730157 0.1142342 0.034017045 -0.008797162 0.32217073 -0.06302115 0.35048553 -0.037192706 -0.25511065 0.1295049 0.16642858 -0.24584796 -0.117971726 0.040071957 -0.111245856 -0.0010062335 -0.09042729 0.2692428 0.19794929 0.017845446 0.13464318 0.06499638 -0.06987688 0.08111814 0.07295188 -0.16212411 -0.06442576 -0.13313803 0.010053799 -0.14684515 0.026546175 0.015884988 0.19370875 0.03246469 0.0796667 -0.07685059 -0.12134635 -0.11838489 -0.07418981 0.007697751 -0.32979903 -0.22740561 -0.075621866 -0.16086571 0.039815586 -0.04367477 0.098422796 0.1387738 0.07753185 -0.12733401 0.13553286 0.11709724 -0.076264486 -0.086977676 0.05582095 -0.06048351 0.22969045 -0.017819412 0.010933243 -0.15810442 -0.102016695 0.035102285 0.033015266 -0.011400301 -0.21330948 -0.05025922 -0.07388174 -0.044971205 -0.11221195 -0.06303437 -0.18524222 0.160206 0.050892383 0.13262826 0.14277208 -0.18249439 0.13733496 -0.019366812 0.292895 -0.077106856 0.19130234 -0.070073046 -0.084984995 0.17786737 -0.17691503 0.23929381 0.07435 0.0049035866 0.039425254 0.03637114 0.0458805 0.29333976 -0.13465612 -0.13600522 -0.04985136 -0.13150334
204 -0.07232872 0.009187359 0.39892653 -0.029507816 -0.13822433 -0.034428097 0.059256416 -0.12213779 -0.17320335 0.050041683 0.18202712 -0.16521567 -0.25098246 0.11265583 -0.1597464 -0.10759144 -0.12863207 0.08800071 -0.35286546 -0.08923041 0.15216409 0.2883367 0.07208656 -0.017892387 -0.047799535 0.12819932 -0.26600918 0.068512745 -0.007956105 -0.1827999 -0.23499717 0.0031183874 -0.12575646 0.02842899 0.13269658 -0.06523075 0.17627847 0.04305181 0.3346051 0.011814634 -0.22978562 0.15523455 -0.0012972477 -0.0013751286 0.1950358 0.1263173 0.1456908 0.0070326324 -0.21253859 0.2706971 0.116495915 0.086719655 0.12352399 -0.13692123 -0.013993387 0.15736385 0.14871839 -0.14465944 -0.10212309 0.015851624 0.117960155 -0.3969805 -0.015110155 0.09012889 0.13088621 -0.051718086 0.07064307 -0.038220447 -0.106202245 -0.03741004 -0.061544884 0.035714798 -0.17805776 -0.13496076 -0.039495822 -0.23680633 0.03631617 -0.04303451 -0.032265324 0.018454168 0.11468043 -0.13886936 0.06371487 0.23548436 -0.29160655 0.042933263 0.16870886 -0.21874872 0.06502517 -0.05525989 -0.10180999 0.011875279 -0.104199804 -0.003530444 -0.004197809 -0.14519474 -0.16931194 -0.16034885 -0.1384969 -0.16580151 -0.1425756 -0.005788435 0.008215758 -0.029658886 -0.017846342 0.0019373012 0.052243102 -0.15660612 0.0072483416 -0.043926403 0.087550476 -0.053815674 0.08897987 -0.017096765 -0.25845513 0.055253822 -0.20032096 0.21094249 0.020188605 -0.08501508 0.16993272 0.031551365 0.0011912656 0.089433 -0.07463834 -0.07648992 -0.17090258 0.07738528
95 -0.023859706 0.023029858 0.15660785 -0.12535353 0.0061649885 -0.22865029 -0.24982643 -0.04739107 0.09064216 0.13000973 0.14410937 0.05354885 0.10257009 0.12101086 -0.08417623 0.036145516 0.042838655 -0.063481055 -0.12004166 -0.122089565 0.05467679 -0.020611512 0.0030154209 -0.20603636 -0.1157391 0.16339108 -0.319206 -0.0599271 0.12199523 -0.1355427 -0.1640253 0.11571644 -0.34328535 -0.012508246 0.17621545 0.0744278 -0.025118403 -0.15002182 0.0503614 0.02675441 -0.2810374 -0.081328206 0.18304709 -0.24239007 -0.062996015 -0.18279232 -0.18759085 -0.3430768 -0.16716857 0.5003997 0.3514159 -0.24603374 -0.0031545046 0.07622228 -0.21153857 -0.13033037 -0.060444932 -0.14771897 -0.2635799 0.06543321 0.076430604 0.08528423 -0.06888241 -0.034955908 0.13242655 -0.12014592 0.27087268 0.13798356 0.24981064 -0.079145685 -0.18552601 0.18618438 -0.27015305 -0.35633957 -0.023507835 -0.10164435 0.074973226 -0.015480793 -0.10522464 -0.014208853 0.078670874 -0.04872429 0.23098922 0.1600286 0.12348948 -0.34179354 -0.059864487 -0.2791113 0.08489341 0.035259135 -0.1505278 -0.28704822 -0.13434145 0.020604348 0.18153314 0.082713544 -0.064278334 -0.14515164 -0.23632774 -0.12624812 0.07530358 -0.07280993 -0.012199567 0.033548962 0.11808161 -0.04735493 0.047451 -0.073005974 0.15088204 0.037298713 -0.0035726894 -0.068444654 0.24068908 -0.03965622 -0.15333906 0.19524792 -0.17540997 0.16429584 0.21820147 -0.16064171 -0.0058940724 -0.035440568 -0.110174336 0.22460434 -0.017677506 0.031357445 -0.12927987 -0.019141654
19 -0.13170645 -0.14604312 0.32643518 -0.029844142 -0.15157595 -0.18820146 0.054121543 -0.018981462 -0.0133077 0.056218993 0.18581969 -0.09417932 0.0047510588 -0.12033141 -0.026803862 0.13814433 0.014622985 -0.05372347 -0.09518899 -0.017940704 0.14688587 0.17168914 0.15673696 -0.14219798 -0.15159123 0.27587533 -0.2510588 -0.20403461 0.14921851 -0.2029657 -0.070465185 0.11598835 -0.23417115 0.007834679 0.054008935 0.07036655 0.1676153 0.031246671 -0.017017042 -0.20641012 -0.115794234 -0.07678943 0.101566926 -0.06371509 0.12251433 0.19807233 -0.11008672 -0.26254016 0.091497876 0.11733313 0.1014416 -0.07800755 0.026622815 0.06449861 0.06527821 0.06883196 0.23173049 -0.040703177 -0.03647217 -0.008272198 0.1572053 -0.07505313 -0.06472238 0.044160485 0.19534247 -0.012021155 0.06665719 0.04031978 0.15089561 0.115156084 -0.06642614 -0.09235855 -0.32816267 -0.1815179 -0.07392491 0.013336979 0.21507512 0.21244702 -0.119604826 0.05869375 -0.05652069 0.041029245 0.2562433 0.1809816 0.22444321 0.18360287 -0.040851 -0.1212403 -0.011211944 0.20274444 -0.22056624 -0.16246282 -0.1631548 -0.26205054 0.16065557 -0.09251083 -0.1286689 -0.06816144 -0.1326196 0.029540367 -0.20468017 0.20766884 0.022280378 0.011106094 0.09067568 0.141735 -0.03451855 -0.17842373 0.0632905 -0.16754028 0.094714865 -0.050629806 0.11424731 -0.0941961 -0.13460828 0.2956862 -0.21115896 0.14672615 0.11053905 -0.056689978 0.039026048 -0.1235935 0.003231394 0.19011015 -0.03932517 -0.012897649 -0.29909307 0.050095905
197 -0.10601271 -0.09399636 0.12115419 0.09998646 0.2264336 -0.10052358 0.18602885 0.010815316 0.08489439 0.015280649 0.20895915 0.023646854 -0.13746075 -0.12874767 0.22400098 0.071023576 -0.12759164 0.006149988 -0.21043076 0.2714049 0.060392532 0.19627169 0.043217327 -0.16329648 -0.28062463 0.33580768 -0.09629104 -0.039002273 -0.04342231 -0.17626967 -0.19377473 0.24162723 -0.23826796 -0.045240868 -0.15443842 -0.04107444 0.085551165 -0.10056705 0.15524678 -0.222441 -0.27838743 -0.06985216 0.03524695 -0.10951182 0.11126563 0.08255745 -0.08598188 -0.22171076 0.028104132 0.26810968 0.13009258 -0.1156361 0.18781921 0.021470783 -0.11494514 0.08749148 0.2734179 -0.1639833 -0.01097629 -0.08304639 -0.028041035 0.0034937165 -0.06414737 -0.11058519 0.17574961 -0.08549366 0.10167465 0.056298934 0.056479435 0.051297426 0.06150837 -0.052442875 -0.3889009 -0.038390253 0.04450129 0.13471743 0.17870934 0.08836085 -0.13060918 0.11314609 0.1654609 -0.09739074 0.09982759 0.25208786 0.17638052 0.025946567 -0.15857993 -0.12973574 0.09696099 0.03523371 -0.20337969 -0.1983498 -0.10361012 -0.073165804 0.3068051 -0.00018637454 -0.165796 0.03679825 -0.108187646 -0.06255092 -0.17096089 0.1223187 -0.02073358 0.19875424 0.101872 0.1078181 0.23118462 0.032270625 0.1939957 -0.050623644 0.27234048 0.09316885 0.01810286 0.15529598 -0.052885436 0.124830484 -0.06623994 0.21346787 0.067041904 -0.13576537 -0.056788735 -0.076202214 0.15899922 0.11205642 -0.042596232 0.033639856 -0.26963085 0.061602246
973 0.04300006 -0.042501822 0.30568853 -0.024703559 0.051780865 -0.21986309 -0.12017776 -0.02249403 -0.029479284 -0.0037821531 0.3089686 -0.02833765 0.07778826 -0.0112334965 -0.02747486 -0.021347787 -0.13867204 -0.07076701 -0.20832013 -0.02660351 0.082359396 0.13979661 0.08258695 0.024245596 -0.021864045 0.13331503 -0.10805478 0.09371873 -0.023888284 -0.12854175 0.028681869 0.1298866 -0.09895012 0.029750746 0.0066443207 0.056414228 0.32441524 0.019287573 0.16272086 0.023950832 -0.23238932 0.11560306 0.22593321 -0.15912029 0.06883024 -0.060560033 0.022308864 -0.049784653 -0.017969698 0.044890303 0.29627532 -0.12664922 0.11564684 0.14827174 -0.07846563 0.03461441 0.2473051 -0.32532248 -0.08670557 -0.053059116 0.037274007 -0.08274309 -0.036747485 0.10069264 0.057234243 -0.3299952 0.17162 0.10648163 0.060068175 -0.08937118 -0.13771187 0.0794382 -0.2677527 -0.1341369 -0.099427454 -0.22155976 0.1395113 0.04592666 -0.036581688 -0.021648318 -0.1527427 -0.06729425 0.2576636 -0.024121162 -0.26519158 0.09375787 0.03516798 -0.10218827 0.09152024 0.19379605 -0.1395374 -0.021293286 -0.03144503 0.1663602 0.2753449 -0.09916187 -0.12997504 -0.23237051 0.005857265 0.069706574 -0.23244114 0.022447756 -0.0011555416 0.01705623 -0.012492365 0.061402533 -0.08271912 -0.18312038 0.05569742 0.036051713 0.15746209 -0.0030759817 0.13657309 -0.06682769 0.04222127 0.045848493 -0.28782004 0.015592631 0.11587418 -0.16188073 0.23711982 -0.28853396 -0.0074451547 0.30757558 -0.1419159 -0.284133 -0.2166735 0.06777986
