2629 128
7 0.17690042 -0.006058062 -0.3258021 -0.077363506 0.053108715 -0.042409193 0.09515821 -0.022931306 -0.2596985 0.017317206 -0.36241964 0.018758193 -0.09988038 0.030778008 -0.36614618 -0.07404265 0.3168735 -0.016116837 0.02204946 0.32848403 -0.40667924 0.05077382 0.005119683 0.088595405 -0.20683576 -0.12315928 0.14483821 -0.12749104 -0.08107491 0.3656463 0.23966675 0.02170785 0.088349305 -0.36749762 -0.14594057 -0.074306145 0.025752274 -0.21382043 -0.29061913 0.16045524 -0.0072056027 -0.002168821 0.0037037663 -0.0023935223 0.38130304 -0.031656887 0.45783317 -0.16565692 -0.16010804 -0.37034267 0.015387937 -0.13140644 -0.04108962 -0.39432892 -0.17688482 -0.31578004 0.15866236 -0.045652363 0.02412054 0.2752861 -0.17280616 0.032834183 -0.14460239 0.016519986 -0.47922173 -0.06653611 -0.052409023 -0.08634932 0.1627277 0.13992196 0.061023086 -0.16581187 0.061647717 -0.01764766 -0.21613671 0.14812559 -0.23091948 -0.08111545 0.08039449 0.24990815 -0.04592637 -0.02214133 0.00023978123 0.044151228 -0.045189075 -0.08342738 0.13130933 0.079872005 -0.0696776 0.11470089 -0.1249703 -0.0782207 0.124021955 -0.2560523 0.05448937 -0.09322381 -0.10587705 0.12095791 -0.075592704 0.09008574 -0.007658349 0.08144418 -0.01632224 -0.15804593 -0.068673186 -0.0692747 0.062268846 0.10035672 0.0042409133 -0.17943107 0.013178077 0.08246851 0.07492137 -0.025067061 0.07277803 0.3284062 0.23222533 -0.029556809 -0.17471236 0.06276978 0.059387024 0.06644216 0.022243537 0.015042905 -0.04289715 -0.046989802 0.025311772 -0.010177692
133 -0.105506554 0.37002403 -0.18615116 0.040948655 0.10243756 0.008063502 -0.045214977 -0.24935077 0.051187538 0.055652875 -0.08970232 0.02663746 0.29627934 0.051529627 0.16612215 -0.33033374 0.093109705 -0.088601954 0.15563503 0.031914897 0.11642301 0.20935698 0.2556274 0.015048023 -0.0636383 0.05540957 0.06588451 -0.101693876 -0.15682389 0.012814012 -0.084213704 -0.1929622 -0.43424746 -0.035295308 -0.1563818 0.0839824 0.26605153 -0.30897504 -0.07227737 0.19806997 -0.14827873 0.39784384 -0.23620397 -0.23620665 0.5018838 -0.16717191 0.59108907 -0.65321016 0.0008517944 0.06487404 0.17182802 -0.32821742 -0.08635721 -0.01006572 -0.27522278 -0.19864076 0.23279056 -0.11205242 0.13353416 -0.13401248 -0.08028273 0.44298512 0.009174968 -0.20070742 -0.11360103 -0.0057342025 -0.023804553 0.078484215 -0.0058230776 -0.02558017 0.014076197 -0.09042062 0.009483728 0.0659834 -0.19420727 -0.0070056324 -0.05036547 0.052942842 -0.02386347 0.00835859 -0.074490786 0.012153546 0.08136454 -0.0952138 0.010699383 0.09672429 -0.1380883 -0.21236956 0.14747138 0.068877995 -0.09013785 0.0994015 0.17103758 -0.09255452 0.018281987 -0.09253186 -0.020581406 0.22688301 -0.016003348 -0.08859041 0.13912782 0.100728564 -0.038626157 -0.06466571 0.1839554 -0.10404398 0.14397717 0.08254623 -0.011089685 0.13428943 0.14958027 0.03857886 -0.10152327 0.30078804 0.29831594 -0.014927865 -0.15262522 0.11707727 -0.18004458 0.016191702 0.06820782 -0.38536915 0.005562872 0.2575669 0.009991489 0.13985407 0.132925 0.0002986949
5 -0.13409065 -0.121750034 0.15129033 0.22232726 -0.28667885 -0.2818648 -0.11798505 0.07520786 -0.3359209 -0.10456078 -0.047251374 -0.10724351 0.27378738 0.013544046 0.028964126 0.063495025 0.09157244 0.047311462 0.0030919616 -0.031381212 -0.24429052 0.25115472 0.2506291 0.037108734 0.02632136 -0.36884767 -0.0023387938 -0.27158937 0.048872087 -0.03759676 -0.027379345 0.024226984 0.004445797 -0.06747162 -0.021703938 0.6093991 -0.07067955 -0.37013444 -0.08653482 0.018981215 0.046468824 0.005871297 -0.09622301 -0.22586574 0.2546498 -0.026848217 0.27637956 -0.15736972 0.08847297 -0.15446779 0.048487216 -0.14166455 -0.13270931 0.009266367 -0.09341355 0.08303795 0.15026592 -0.0772305 -0.038668957 0.07433744 -0.06834083 -0.007052036 0.09336439 -0.08557593 -0.059648592 -0.16471666 -0.3056874 -0.23492181 0.026887435 0.01253607 0.07892069 -0.128176 -0.18239455 -0.011485759 -0.3336076 -0.19079241 0.013723636 -0.029969785 0.15641125 0.2899406 -0.24359396 -0.39192128 0.027159894 0.08556785 -0.07895601 -0.16791834 0.044394217 -0.16472073 0.042486917 0.42463383 -0.49029875 -0.091062926 0.22443569 -0.22075295 -0.016484408 -0.19716099 -0.15639615 0.14938782 0.08874845 0.14961433 -0.18090056 0.23613197 -0.094277754 -0.17944068 0.10304909 -0.08845197 -0.00060897804 0.10996915 -0.080406174 -0.3469757 0.090995066 0.22979632 -0.30024764 0.29547077 0.19446848 0.20629556 -0.176278 0.081604145 -0.2153284 0.18709713 -0.20069857 -0.12873939 0.045996636 -0.06674349 0.149065 0.009220894 0.16142832 0.3064656
9 0.16181032 -0.105649486 -0.0035789073 -0.2955457 0.21095121 -0.010971151 -0.40820754 -0.11630832 0.101233035 -0.2679712 -0.14425941 0.185461 0.17595781 0.0033578244 -0.2986432 -0.13912348 0.07248551 0.16307324 -0.038447294 0.30756542 -0.040727668 -0.08436058 0.17367473 -0.15479325 0.020431729 -0.37262332 0.038463138 -0.19671063 -0.13785891 -0.07924902 -0.24647327 -0.07413207 0.15267804 0.07537591 -0.2211745 0.43973288 0.25734735 -0.16024977 -0.14040966 0.07988892 -0.16403526 0.0847049 -0.043839626 -0.2163451 0.511395 0.023352548 0.1282456 -0.31014055 -0.21699491 -0.3446884 0.32979277 -0.22743575 -0.13646969 0.05404655 -0.08389348 -0.36661243 0.20790908 -0.16929206 0.24424946 -0.10265759 0.01226192 -0.121232465 0.09006594 -0.10857812 0.10894944 0.021457637 0.08343266 0.10361774 0.36338896 0.0021541303 0.18061285 -0.414882 -0.42321253 -0.0020846056 -0.06613642 -0.18537645 -0.00811417 0.16319753 0.07138421 -0.11652858 0.10087926 0.034142025 -0.13274357 0.06743693 0.25479466 0.17685257 0.23724467 -0.18386653 0.09352377 0.12951742 -0.28854305 -0.16660807 0.15544447 -0.30630273 -0.030904345 -0.052966036 -0.04491053 0.37013614 -0.30307278 0.077408575 -0.037865087 0.06648541 -0.16946773 0.23251888 0.04953597 -0.2548933 -0.12191783 -0.10366354 -0.13404426 -0.0009343839 0.12022802 0.019160155 -0.19096602 0.23151456 -0.07799885 0.28283092 0.16057315 0.020049118 0.036613494 0.011407547 0.036209416 -0.08592948 0.36216244 0.04093685 -0.09365949 0.01425412 -0.018897217 0.15458617
29 0.40201795 -0.065231994 -8.27759e-05 -0.041555643 0.118393 -0.10018397 -0.12649003 -0.13090852 -0.039912015 -0.0012137954 -0.062979944 0.162749 0.23663889 0.01142048 -0.25745457 -0.029749935 -0.21912636 -0.09186409 0.25248626 -0.0813967 0.10886499 -0.019099694 -0.3081534 0.018275246 -0.04471927 0.2587718 0.11165143 -0.05068112 -0.05926223 0.14464182 0.031792495 0.0371586 -0.00447159 -0.0025269717 -0.18371691 0.18629801 0.17103411 0.22838248 -0.19334508 0.2542523 0.043514684 0.14402282 -0.10703354 -0.24968576 0.29112682 -0.14543255 0.213482 -0.23846021 0.028425006 -0.12594117 0.23608747 -0.20130722 -0.13880365 0.005637456 -0.05275436 0.03506655 0.098702624 0.16509356 0.06937345 -0.003871307 0.00872391 -0.17104764 0.028961133 0.1334644 -0.30324647 -0.18862833 -0.20212053 -0.14425465 0.15805253 -0.07053767 -0.045735955 -0.2199308 -0.032029998 -0.05586062 0.105833404 -0.17515764 -0.06807055 -0.0170648 -0.147409 0.040247772 -0.5536805 0.18411817 -0.1396249 0.28889388 0.24582522 0.0362406 0.12168574 -0.11451203 0.029287253 0.22882017 0.076391324 -0.4389277 -0.22627226 -0.6721423 0.33736655 -0.067139596 0.1194614 0.35610613 -0.02069475 0.30621693 0.09452009 0.22287157 -0.023929378 -0.13754825 0.3042857 -0.03971017 -0.07785182 0.1271995 0.2926248 0.18925275 -0.2369204 0.32821238 -0.24774441 0.17600538 0.105298385 0.46283326 -0.23717837 0.07592703 -0.16015802 0.0678157 -0.06726209 -0.23061065 0.12952095 0.3952297 -0.067437686 -0.18889803 0.16383055 0.272287
17 -0.042374138 -0.05294233 -0.19839865 -0.22356233 0.33190113 0.0813208 -0.11173186 -0.30641562 -0.23769967 0.007121403 -0.2243873 0.21167868 0.34974682 -0.07876668 -0.49054715 -0.079471335 -0.17717302 0.08420853 0.01881594 0.043898687 0.079236485 -0.045648582 0.30632973 0.028863886 -0.032169793 0.005435676 0.05084806 0.007107782 0.096895665 0.084164314 -0.026081111 -0.13414647 -0.084669046 -0.047607824 -0.056859434 0.27268663 0.077701576 -0.17278256 -0.3992879 0.20999843 -0.05417439 0.16980271 0.08549258 0.049062893 0.21505602 -0.25310782 0.3617977 0.11874114 -0.110679336 0.18688731 0.02229406 -0.14426671 0.10477095 -0.21715918 0.015661996 0.07985091 0.45422155 -0.11634208 0.046409417 0.23123227 -0.33834904 0.12353474 0.41886407 -0.13184454 -0.33283144 -0.052956752 0.019633418 0.002361941 -0.0010378979 0.25448787 0.04189827 -0.26361242 0.063390836 0.37188554 0.22850218 -0.2348424 0.08869394 0.08417214 -0.17567101 0.14848505 -0.14238292 -0.09721568 0.057861574 0.1897016 -0.13883242 -0.0074912985 0.105746 -0.10764684 -0.14802432 0.44709316 -0.23237547 -0.08125048 0.1428588 -0.3524098 -0.008047473 -0.3821161 -0.08630804 0.042625345 -0.33564997 0.25858736 -0.17907758 -0.08063868 0.0739928 -0.04497023 0.05142083 -0.16420627 -0.16171534 0.38269946 -0.20249236 -0.1661979 0.056283977 -0.23166135 -0.2019545 0.19237044 0.0786834 0.030878581 -0.26362282 -0.039132882 -0.19028316 0.09695349 -0.028397402 -0.08210623 0.19030665 -0.20326819 -0.053425953 -0.14186569 0.14797874 0.07417269
28 0.09705194 -0.15347451 -0.2674653 0.03633065 -0.07694393 0.059378672 -0.30709767 0.03970908 -0.2177364 -0.16104145 -0.45137087 -0.043473355 -0.115330994 -0.1850505 -0.6704811 -0.2430156 -0.15953602 -0.028560087 0.10917099 -0.06567017 -0.24214 0.060579102 -0.08694206 0.05414165 -0.17249073 -0.24007194 0.21147726 -0.085188724 -0.044863082 0.053456254 0.13039532 -0.05368497 -0.26001152 0.17909741 0.16415828 0.42371932 -0.025228532 -0.11709369 -0.36174986 -0.097474344 -0.1694224 0.19315039 -0.022167867 -0.027218925 0.39876184 -0.17603514 0.082118444 -0.35978565 -0.17043194 -0.09113468 0.08310916 -0.44921064 0.00087429845 -0.123397306 -0.3586979 -0.13223216 0.18320745 -0.18463981 0.07543063 -0.105632074 0.09230195 -0.09852295 -0.097904235 0.017961347 0.07339529 -0.21744888 0.13557981 -0.29715768 0.17815493 0.06157347 0.15178238 -0.05364784 -0.15598637 0.068126306 -0.024604432 -0.26952225 -0.16088876 -0.084472984 -0.0018130259 0.0019085404 -0.47008774 0.21925499 -0.10496177 -0.12932603 -0.12752321 -0.047971543 -0.034027416 -0.18040526 -0.16460682 0.3792534 -0.1600997 0.048826016 -0.17901541 -0.24181315 0.025588691 0.1323351 0.17217243 -0.37771785 -0.085276924 0.068751656 -0.038800076 0.20241025 0.27557987 0.029917974 -0.11002258 -0.110739276 0.08034668 -0.04319339 0.33931994 0.21366897 -0.04887704 0.13186261 -0.31975135 0.13628559 0.13759759 -0.09728545 -0.09431083 -0.10810034 -0.21326387 -0.3106085 -0.37187794 -0.1912292 0.018992273 0.033060446 0.15479775 0.055454917 0.1605917 -0.23518099
2 -0.12277387 -0.32146823 0.015387008 0.24446887 0.33444363 -0.0027962057 0.010893045 -0.218624 -0.05929143 0.0056247967 -0.4418408 0.23128073 0.29079503 -0.3721318 -0.09117439 0.087905005 -0.045217603 0.39293155 -0.08846624 0.098030806 0.15056376 0.18907909 0.22225128 -0.35771412 -0.13782835 -0.3112662 0.5271897 -0.2551886 -0.5521918 0.25990543 -0.12936424 -0.31235904 -0.3425612 0.14930058 -0.59482074 -0.2195133 -0.26246122 -0.50691426 -0.28588694 -0.30732775 -0.21524177 -0.14965454 -0.05701148 0.2366228 0.22404154 -0.06560705 0.1266803 -0.101307616 -0.15691794 -0.5503317 0.08665259 0.021883614 -0.2316542 0.33119154 -0.056193262 0.23752296 0.2429382 -0.05540883 0.2578038 0.16749422 -0.21939974 0.0024763278 -0.042399816 0.06530204 -0.03561191 -0.05093704 -0.1302449 -0.21375172 0.026420303 -0.18639316 0.011913219 -0.25170302 -0.14625815 -0.116017446 -0.4239338 0.10592765 0.09536383 0.20481504 -0.051374905 -0.1533442 -0.19182946 -0.011592342 0.008229804 0.22901967 -0.079351574 0.17634389 -0.1204376 -0.08919153 -0.15314184 0.5721994 -0.15024577 -0.08622762 0.22870833 -0.5809995 0.013000732 0.3072121 -0.031051543 0.40854207 -0.055655155 0.4347503 0.18852751 -0.06460959 -0.11899749 -0.13735947 -0.102122955 -0.1513308 -0.14786088 0.3956031 -0.14653236 0.45938 0.07444046 0.046516564 -0.12206576 0.16512448 0.15179084 0.110415906 0.08578508 -0.30602282 -0.27700174 0.18050966 -0.35997155 -0.106624156 -0.22103447 0.27639744 0.08560782 -0.44035822 0.28910568 -0.28757918
11 0.34259793 -0.1550856 -0.2328224 -0.1445429 0.2176663 -0.2176161 0.08316137 -0.15555944 -0.2060817 -0.33303955 -0.49270353 -0.0053702993 0.14057612 -0.31690338 -0.38257974 -0.13002776 -0.04179367 -0.029811881 -0.08561175 0.107361436 0.08458589 0.18255688 0.38240442 -0.12900238 -0.110890135 -0.26468852 -0.1173405 -0.3387497 0.048709456 0.29023802 -0.049490493 -0.048779204 -0.06317639 0.2467857 -0.1669254 0.28139168 0.13229321 -0.08931985 0.12821653 0.0005646168 -0.04862485 -0.002325094 -0.019815153 -0.16788466 0.14535159 0.062164176 -0.00081490487 -0.2606725 -0.093687266 0.16808978 0.00022176074 -0.5000581 0.17948204 -0.1775298 -0.117410496 0.31533182 0.31059375 0.0102414265 0.12859485 0.17398669 0.028600119 0.031807296 0.14993943 -0.06889275 -0.2588052 -0.15497908 0.08387876 0.032273453 0.056558263 -0.11185537 -0.35057026 -0.33843902 0.029641995 -0.095259555 -0.15466794 -0.35677475 0.08893164 0.2031373 0.13428989 0.16159083 -0.15456164 0.2353133 0.23913261 -0.14261578 0.113065094 0.013827582 0.15532681 0.12264228 0.044493027 -0.13666594 -0.038361683 -0.21501648 0.14712963 -0.32447195 0.11433463 -0.23546977 -0.17901197 0.055444136 0.2949377 0.23746821 0.013990137 0.09841679 -0.16443366 -0.44144621 0.15326022 0.0074301427 -0.10585244 0.012513867 -0.038785074 0.038054053 0.34532627 0.28234142 -0.16710655 0.15069088 0.039049737 0.11381879 -0.17101619 -0.13251534 0.046696596 -0.0064879614 -0.21312882 -0.36419442 -0.0644591 0.08054955 -0.085643075 -0.13042472 0.36219326 0.09394326
3 0.19888367 -0.043601595 -0.10012177 -0.12350276 0.15487002 -0.024867686 -0.018801441 -0.113669604 -0.076147825 -0.25518832 -0.5166093 0.092570096 0.16816854 0.19320098 -0.22095354 0.24120884 0.28506282 0.20315842 0.07091009 0.05240957 -0.13684379 0.5093226 0.14145005 -0.10509017 -0.0005348563 -0.2484486 0.34900057 -0.06615021 -0.30498883 0.26355314 -0.21503934 0.16667962 0.021397682 -0.061266836 -0.016261032 0.12246255 0.18056153 -0.07235147 0.00908746 0.14888622 -0.11493686 0.26227832 -0.0028998498 -0.007455331 0.043605525 -0.35369143 0.5365943 0.0029618721 -0.25127432 0.19324347 0.25275278 -0.3078205 -0.20415269 -0.18379265 -0.097242475 -0.08757575 -0.11972954 -0.1185314 0.15848918 -0.12380306 0.018839614 -0.17524365 0.14002304 -0.22105294 0.08038126 -0.051975522 0.1400654 0.058867875 -0.20012681 0.13283265 0.06074142 -0.24828532 0.09237853 0.23370638 0.09296919 0.1297275 -0.011123235 -0.10851548 -0.096741185 0.1685532 -0.22384292 -0.25953016 0.23294657 -0.16747616 0.23914577 0.10496945 0.17582105 0.07230162 0.12478824 0.4463567 -0.3423919 -0.24566802 0.12592013 -0.4806067 0.093438216 -0.16283591 0.28819793 0.13899149 -0.024782889 -0.13752818 -0.023905301 0.29065895 -0.12428993 0.16796783 -0.11008888 -0.0771462 0.16232178 0.22512946 0.014288056 -0.20323618 -0.01832709 0.4446278 -0.23186646 0.009571447 0.012643194 -0.057751894 -0.12175493 0.3884811 -0.14305465 0.18905483 -0.044163827 -0.28064916 -0.06011283 0.12687513 0.048354965 -0.002756541 0.14742301 -0.153598
61 0.12648258 -0.09096692 -0.1717224 -0.06556632 0.23574632 -0.097073875 -0.12299991 0.14432286 0.14783576 -0.48860824 -0.4685171 -0.0130450055 0.08399785 -0.044004846 -0.66786593 -0.060090102 0.028505832 -0.06846214 0.28861645 -0.05297121 -0.06686903 0.0020533937 0.079979554 0.033720277 -0.43996638 0.042234413 0.10569817 -0.25749385 0.1312304 0.0046423264 -0.008136589 0.03878153 -0.18117134 0.1283179 0.06715438 0.06825752 0.30777887 -0.0110441 0.1889981 0.3366071 0.09467094 -0.0011428945 0.0054791826 0.1006325 0.13207012 -0.030906549 0.09161587 -0.018563336 -0.22897577 -0.3930775 0.06032342 -0.032992885 -0.072232686 0.24376175 0.05653438 -0.10860502 0.28306043 0.06577179 -0.09631302 -0.37123656 -0.25333342 0.14834906 0.013676787 -0.24865744 -0.26951078 -0.23385924 -0.2433518 -0.084839396 0.08244801 0.27926132 0.16801286 -0.208637 -0.11027344 -0.19743107 -0.28103468 -0.008767128 -0.069818445 -0.0071396083 -0.13230333 0.11631754 -0.39110437 0.14453664 0.1804974 -0.072966784 -0.14734186 -0.046589915 -0.2362705 0.09328147 -0.08814867 0.26335812 -0.07459964 -0.003900875 0.4172885 -0.36992222 0.18771325 -0.10484561 -0.14910644 0.12359713 -0.19835778 0.14860132 0.050084975 0.041398764 0.16854282 0.1955279 -0.021861633 -0.20105828 0.37780145 0.09005344 -0.11841807 -0.18417506 0.10801756 0.15436353 -0.31555605 -0.16471493 0.17603813 0.033947516 -0.02140462 0.19403255 -0.44475397 0.09760513 0.15008274 -0.039131887 -0.27845082 0.20762162 0.1315308 0.15944389 0.4512392 -0.22276033
89 -0.017104449 0.11618997 -0.30337906 0.10853947 -0.29003817 -0.14802766 0.014703229 0.10412254 -0.0627742 -0.14300643 -0.28948542 0.15921366 0.06462626 -0.08613298 -0.14721553 0.007136334 0.10548467 -0.18602441 0.013694565 -0.1407273 0.092509605 0.16494429 0.22242503 0.08695728 0.13217568 0.099964865 0.07240021 -0.3067513 -0.15763244 -0.1716828 0.0901419 -0.14962707 0.15059482 -0.35421196 -0.28826785 0.20208405 0.10152932 0.016945051 -0.17852892 0.010538254 -0.21291804 0.11440166 0.05740509 0.026578741 0.51919574 -0.056777086 0.13729656 -0.17667979 0.20278358 0.05321338 0.31464505 -0.3906562 0.15560855 -0.14229077 -0.1427189 0.15757741 0.13377452 -0.060989585 0.35035467 0.35820752 0.036168173 0.08728004 0.028641867 0.020539228 -0.35002336 0.1351091 0.05116324 -0.17402954 0.11296905 0.38372773 -0.008844004 -0.21864043 -0.2956716 -0.18821265 -0.10019837 -0.15238696 -0.3666628 -0.13212137 -0.29863387 0.35730004 -0.13380332 0.09149599 -0.19290984 -0.16136384 0.0022885392 0.13130341 -0.1858134 0.07159963 0.10307631 0.19821782 -0.36094183 -0.17550577 0.20288406 -0.4185185 -0.18241087 -0.23654212 -0.18746178 0.18204662 -0.13141929 0.27230704 0.11825446 0.23505835 -0.4453753 0.30159643 -0.04044092 -0.018846475 -0.019047957 0.0250155 -0.022768626 0.22130162 -0.056216583 0.27179497 -0.24365984 -0.15864107 0.099697046 -0.047105156 -0.056486297 -0.036799476 -0.23854001 0.0029291804 0.13151984 0.13811822 0.068295814 0.18632504 0.4122668 -0.21201564 0.36367565 -0.14311433
0 0.24937348 -0.12181178 -0.012710952 -0.07858592 0.24644683 -0.1962474 0.08005956 -0.38377625 0.30603057 -0.25832292 -0.43242806 -0.19287224 0.32137126 -0.116060644 -0.27863824 0.25205258 -0.15235828 -0.21803257 0.32975307 -0.098749496 0.08707614 0.33917302 0.3060844 -0.047594767 -0.17222862 -0.12026164 0.48004523 -0.2785612 -0.09298456 0.3972702 -0.23742586 -0.076210335 0.05891223 0.17801645 -0.2688971 0.24103974 -0.00074675365 -0.38487065 -0.29937863 0.08963708 0.30460155 0.15412462 -0.28334862 -0.2669228 0.39711154 -0.17383815 -0.07735035 -6.2693725e-05 0.15372491 -0.12112233 0.17680591 -0.27473825 -0.050352357 0.042948827 -0.07099358 -0.146683 0.29951057 -0.08113919 0.1857878 0.27214652 0.2548809 0.022913484 0.12817426 -0.056177404 -0.028421229 0.14423707 -0.12892771 0.0013899493 0.20603946 0.43602908 0.15665074 -0.1765459 0.07201993 -0.07782139 -0.22042556 -0.18373106 -0.21964873 -0.010864893 -0.09804799 0.20607172 0.26988432 0.11087835 -0.10075278 0.19405289 0.10817942 0.04154183 0.06898868 0.036071368 -0.0134060355 0.25514594 -0.23456658 0.09264048 -0.18828732 0.032167118 0.13968992 0.14133318 0.14927454 -0.22945526 -0.021305906 -0.009918489 0.026911074 0.20839188 0.19495489 -0.09726573 -0.08003539 0.14648375 0.107954524 0.1661774 -0.17215572 -0.40567172 0.020731123 0.21498588 -0.18486506 0.09866935 0.33911824 0.26372376 -0.123567134 0.06060136 -0.094950765 -0.095802486 0.02761712 -0.36757544 -0.032519776 0.22633643 0.11592324 0.16902572 -0.03776534 0.11855276
20 0.26139238 -0.1642031 -0.26687658 0.43786076 -0.055342387 -0.014049335 0.039281387 -0.104032435 -0.15342577 -0.3289623 -0.23022942 -0.037158202 0.21387792 -0.13561596 -0.18216163 -0.38149515 0.10841332 0.05736464 0.17311075 -0.002055288 -0.020536125 0.20117067 0.07931792 0.10679309 -0.038092013 0.15674827 0.15641327 -0.19311702 0.11033827 0.35048845 -0.26009682 0.06694579 -0.35303548 0.28365022 -0.06967196 0.009540628 -0.16045718 0.15724316 -0.23855847 0.24080868 -0.269195 0.0693452 0.030426232 -0.2825724 0.23062898 -0.29870385 -0.013138203 -0.28341243 -0.19508779 -0.20182106 0.17563786 0.084170476 -0.15863244 -0.15514806 0.021846263 -0.11575412 0.28674477 -0.07915912 0.21451704 0.15446672 -0.32674387 0.13771002 0.024626488 -0.22858731 -0.13596435 -0.16250354 -0.1968244 -0.19957133 0.3232593 -0.12778714 0.14572021 -0.18826039 -0.015658583 -0.21377972 -0.12184792 -0.12630542 0.027611515 0.130666 -0.09459064 0.21489507 -0.010631674 -0.35659304 -0.11570089 -0.016745783 -0.022746265 0.08069914 0.0063799787 0.09524722 -0.07164018 0.1491799 -0.20143238 -0.03366777 0.26478052 0.07790531 -0.15300708 0.049049247 0.18327683 0.13267003 0.29847145 -0.06393905 -0.031401485 0.18120836 -0.24459417 0.24696122 0.11599847 -0.45351785 -0.21173196 0.1367831 -0.18701799 -0.1623584 0.019173898 0.24967292 -0.29203302 0.03452318 0.07478964 0.2877397 -0.18288283 0.20327514 -0.1629513 -0.23049524 -0.089656 -0.06712201 0.31865606 0.12132029 0.24700116 -0.2532279 0.110294804 -0.23198594
12 0.034186747 0.06908947 -0.10398621 0.19578727 0.23624647 -0.195093 -0.017762335 0.067618355 0.062985286 -0.38257262 -0.29851028 -0.0056320066 0.27843916 0.060019907 -0.34360683 0.230613 -0.16889362 -0.22132184 -0.001233703 0.33167797 0.121444575 0.12465921 0.18798533 -0.32683077 -0.040515367 0.14645092 -0.13112469 0.17017788 -0.0059006386 0.42609507 -0.105403446 -0.30081666 -0.13702731 -0.23741117 -0.02993198 0.21466777 0.09936556 -0.385069 -0.21966186 0.19086722 -0.26553705 -0.070663504 0.0070166527 -0.17567572 0.33918485 -0.027292041 0.20302466 -0.048929602 0.14670411 -0.013630093 -0.05139762 -0.031320054 0.068300344 -0.085833825 -0.14336157 -0.088535205 0.05819314 -0.090598226 -0.048319127 0.20919806 0.09106412 -0.18685432 -0.05117574 -0.214001 -0.15264986 -0.272644 0.0023019281 -0.45413208 0.27720895 -0.2936898 0.022924103 -0.37411243 0.13736485 0.10227784 -0.46168053 -0.2169524 0.014117495 -0.11746419 0.008813948 -0.050606236 -0.0799903 0.14006315 -0.10752952 -0.19554992 -0.18345243 0.19225526 0.06317032 -0.09929443 0.07138884 0.26235688 -0.2785583 -0.23539539 0.008168739 -0.40665576 -0.27691013 -0.18294878 0.24878904 -0.07103767 -0.11285611 0.11888658 -0.087995216 -0.20577493 0.045870677 -0.10443694 0.07150013 0.21618861 0.015896384 0.14619598 0.10662259 0.0264967 0.2537894 0.12506388 0.0176329 0.3729001 -0.06726078 0.48867503 0.066766694 0.28738588 -0.18673588 0.11521842 0.08375578 0.07299077 -0.20703852 0.34644037 0.26696798 -0.14492981 0.35412276 0.1664792
8 0.3364994 -0.06414634 -0.2812428 0.015359185 -0.5123622 -0.14971368 -0.15984131 -0.24352314 0.014612111 -0.37077335 -0.30149394 -0.113088235 0.21164985 -0.06391561 -0.32811254 -0.09466287 -0.15529147 0.11884824 0.17940524 -0.13766512 0.07665922 0.13037372 0.046589687 -0.19576418 -0.12642632 -0.486776 0.24565144 0.28553763 -0.10751205 0.183066 0.076329954 0.1804795 -0.5200962 0.031569418 -0.38179675 -0.008871848 0.12111831 -0.03493638 0.2184794 0.19100502 -0.20513527 0.3829852 -0.26118344 -0.09388109 0.4983857 -0.18524659 0.26306304 -0.300224 0.3197623 -0.22901638 0.3382571 0.0035648725 0.19964087 -0.22695309 -0.25033557 -0.002719956 0.35017607 -0.07590539 0.087328084 0.535461 -0.39058733 -0.13258186 0.17431994 -0.27350977 -0.014822877 -0.07278443 0.06318389 -0.30692098 0.21471141 0.1708018 0.008845564 -0.13777158 -0.27842528 0.20343722 -0.27384657 0.017070262 0.30626082 -0.0027833097 0.00059622986 0.03810113 -0.3534364 -0.16565971 -0.10963043 0.005181608 -0.09817822 0.054483753 -0.06175576 0.06989486 -0.1316716 -0.15260138 0.13219559 -0.032003194 0.06019721 -0.34112278 -0.057372406 0.05694599 -0.0766683 0.25803006 0.20652819 0.15825677 0.081501506 -0.054999366 -0.11142295 0.016701333 0.0019467295 -0.09063701 0.13361387 0.06251536 -0.25386897 0.09773167 -0.12286152 0.056661993 -0.05986939 -0.065438665 0.109829545 -0.057112653 -0.10330985 0.25994122 0.14191677 0.2834223 0.04141243 0.094415866 -0.0034641842 0.001531437 0.072652906 -0.02421565 0.22236322 0.14500754
112 -0.0065555507 -0.2301417 -0.3197617 0.08010729 0.35134932 0.44984412 -0.19241531 -0.0734333 -0.16265228 -0.27302596 -0.2254669 0.15457134 0.062564455 0.10623255 -0.18734679 -0.08146696 -0.015295558 -0.24689186 0.46242023 -0.27385837 0.2641729 0.33183983 0.09037729 -0.023255423 -0.235691 -0.082990885 0.010411786 -0.017033016 -0.1612865 -0.11823732 0.045154735 -0.049377758 0.053955257 0.2445341 -0.34557253 0.034595713 0.16191192 -0.5273837 0.015645156 0.05760293 0.10399977 -0.23098509 -0.2586388 -0.026329681 0.12398596 -0.17880856 0.26172283 0.2535481 -0.25430316 -0.16174915 0.15074983 -0.2846705 -0.044616323 -0.24482398 -0.4362292 -0.21680668 0.30827105 0.0005012166 -0.1671558 -0.03363326 0.1241423 -0.18085799 -0.12166253 -0.15169175 -0.25341034 -0.19112845 -0.2732526 -0.25501597 0.43533507 -0.05415675 -0.027753478 -0.40049225 -0.1862021 0.10541463 0.005576699 -0.5511827 -0.003570731 0.16281407 0.14598821 0.01880864 -0.04263508 0.015205798 0.17972384 -0.22418301 0.19026612 0.0879377 -0.14169209 0.17023842 -0.07512724 0.20584089 -0.5329613 -0.14602031 -0.18458627 -0.12316683 0.030328562 -0.20808057 -0.11923857 0.29818952 0.06458998 0.1209819 0.13981326 0.22522393 -0.21448535 -0.14625522 -0.088840306 -0.18490791 0.097733185 0.1600131 0.15553735 -0.25475034 -0.25018108 0.23673205 -0.020616787 -0.046181154 0.2555115 -0.06954044 -0.022873238 0.23151657 -0.010840574 -0.06285787 -0.18899076 -0.01056916 0.18017493 -0.015044439 0.39849484 -0.16404347 0.2678956 -0.21241663
47 0.19189304 -0.04790606 -0.2524309 0.28760445 0.3844791 0.13215971 0.09697641 -0.053679857 -0.25692898 -0.3917353 -0.31907994 0.12920268 0.23918924 -0.047991082 -0.37484184 -0.060567386 0.0780625 -0.010912397 0.28622213 0.08588658 -0.13343586 -0.110063754 0.38414454 -0.24155197 0.080978476 -0.18245064 0.23708852 -0.17029986 -0.18584639 -0.009946139 -0.002312692 -0.18672879 -0.02178589 0.16037337 -0.09347806 0.20689031 0.1440484 -0.07421707 -0.23753297 0.024418818 0.15257661 0.21247104 -0.16640347 -0.35868058 0.30854127 0.06901636 -0.10885684 -0.0052136057 -0.0647736 -0.06406057 0.05071126 -0.5684131 -0.0739057 -0.11069505 -0.24086733 0.2669345 0.11913244 0.08481101 0.28462702 -0.05593065 -0.19221151 0.49831906 0.34790424 0.12758565 0.047095947 -0.13399307 -0.00043864857 -0.13456345 0.15135756 0.16500066 0.020881692 -0.15788013 0.12771754 0.3002181 -0.1811881 -0.009518613 -0.23580529 -0.22325462 0.19346008 0.011054477 -0.09740207 -0.3022864 0.12248119 -0.26461157 0.29026452 0.055287924 -0.0375016 -0.41739216 -0.14133784 0.0025149363 0.1416836 -0.06216829 0.12749447 -0.4375694 -0.18661486 -0.11685002 0.24775766 0.51611316 -0.0077601443 0.3584899 -0.23181781 0.09635716 0.17991574 -0.095710605 -0.22123414 -0.08850413 -0.11526678 0.1793882 -0.06534547 -0.16635022 -0.32610726 0.018518474 0.12162314 0.20883702 0.2439967 0.14573556 0.16449954 0.006598649 0.15105818 0.10590028 0.0024932406 -0.03323626 0.23784682 0.025521452 0.6196452 0.036792543 0.1572268 -0.114535265
13 0.3114594 0.11036013 -0.46561453 0.4345958 0.11156125 0.14251356 -0.22636339 -0.06537828 -0.09606721 0.2356426 0.055428565 0.22518846 -0.27879933 -0.45173866 -0.2516908 -0.2588623 0.053106833 0.08881084 0.041460384 0.25823578 -0.035209183 0.28042537 0.09854042 -0.063138984 -0.2882943 -0.0090070255 0.21826124 0.080235586 0.074379094 0.13316183 0.23409827 -0.13098587 -0.013011412 -0.24881472 -0.33327174 0.02378476 -0.055470105 -0.08852629 -0.4260827 0.10151223 -0.1300579 0.26376802 -0.20725894 0.0133407805 0.46765035 -0.17252207 -0.043998256 -0.31426293 0.11425739 -0.4949166 0.09490704 0.025853775 -0.07949868 0.19514464 0.021314094 -0.11114727 -0.041121166 -0.071126156 0.13288611 0.23684356 0.15476798 0.1419272 -0.036048252 -0.17710339 -0.35865292 0.17168836 -0.28347543 0.085238375 0.011911554 0.21861406 -0.33654627 -0.62824184 -0.019475069 0.3215492 0.03433026 -0.34657338 0.27980703 0.32477015 -0.021815903 0.15253194 -0.30525142 -0.3868381 0.10506864 0.036020756 0.18855715 -0.035694692 0.07373909 -0.1782678 0.057903342 0.13675205 -0.3111066 -0.19140583 0.17366818 -0.4425513 -0.1990566 0.14690776 0.24680765 0.39995155 0.08889645 -0.24785902 -0.034151815 0.039702006 -0.06390895 0.100509174 -0.05971044 -0.2363515 0.25132018 0.07310259 -0.056226127 -0.41777956 0.05423635 0.17694221 -0.29584435 0.24758023 0.06366759 -0.10790632 0.28787747 0.1890317 -0.15929922 0.015419066 -0.3178332 -0.32503107 0.08284731 -0.074485525 0.124456845 -0.05525212 0.46773997 0.0031169122
6 0.23670894 -0.18855374 -0.193814 0.084707044 -0.10340776 -0.2700712 0.06539518 0.3276293 -0.0024016853 -0.15480393 -0.45699066 -0.2448843 0.3364999 -0.08082441 -0.0101088835 0.06789689 -0.11158721 0.014338221 0.28145656 -0.008279183 -0.35197487 0.18934163 0.09656744 -0.296746 0.15560307 -0.021373013 0.06515332 -0.41796905 -0.0013024269 0.22211546 -0.27474096 -0.049253628 -0.24987024 0.3691133 0.1991462 -0.08674995 -0.15687378 -0.19612043 -0.22544685 -0.066680275 -0.24127883 0.077776425 -0.20608722 0.028952507 -0.029706229 0.13676761 0.16811346 -0.5132103 0.07886801 -0.3280286 0.39035147 -0.09759819 0.12821785 0.14641808 -0.1369388 -0.03416045 0.46658105 -0.20829204 0.15214631 0.39983484 -0.13922788 0.106978394 -0.16646492 -0.4169818 -0.2553666 0.108753495 0.11986227 -0.1772713 0.30187201 -0.23298123 0.009784434 -0.37539887 0.04700527 -0.13391632 0.024357395 -0.1929475 -0.04324756 0.012107188 -0.22484632 -0.0977305 -0.2816998 -0.15056431 0.28021553 0.05298068 0.014990198 0.07253923 0.1827299 -0.3437456 -0.29856583 0.18150944 -0.23793547 -0.38846496 0.039387167 -0.3585097 0.22222961 -0.02399784 0.2726932 0.18940252 -0.41822946 -0.107731625 -0.0051485994 0.32626614 0.07369485 -0.20159031 -0.22361237 0.32943428 0.37578967 0.074398786 0.2677186 -0.19071946 -0.07213031 0.1596071 -0.22865516 -0.18827263 0.2866169 0.26413205 0.14499174 -0.050584998 -0.06417907 -0.14554529 0.17330755 -0.20773984 -0.15402019 -0.15186696 0.100052334 -0.30340514 0.24512269 -0.3841017
122 0.29029754 0.073253185 0.035903897 -0.43434638 0.19064026 0.19720858 -0.27412388 -0.3119095 0.16038772 -0.20748316 -0.3783997 -0.058992088 -0.086417355 0.071136616 -0.30648 -0.0014394278 0.22558238 -0.16177821 -0.1715271 0.46551836 0.16072899 0.44936088 0.3545871 -0.09826301 -0.36410925 0.10416678 -0.16980289 -0.09454714 0.19199203 0.21070254 -0.2067052 -0.21644689 -0.48936054 0.17299978 -0.07749339 0.058534767 -0.4754949 -0.17678644 -0.1823835 0.04050925 -0.060037676 0.426704 -0.14835191 -0.15452985 -0.18116075 -0.2626404 0.04418739 0.067725524 0.109965466 -0.2778977 -0.013060323 -0.16948159 0.25556397 0.12746146 -0.14935775 -0.22956198 0.097486295 -0.28550214 0.30751425 0.042684913 -0.040748805 0.08300804 0.071305044 0.09510333 -0.046489906 -0.28133133 -0.2434906 -0.18273216 0.32582927 0.08827544 -0.05631621 -0.059202913 -0.24114996 -0.07668371 -0.107416466 -0.07926375 0.05181606 0.09699784 0.015183454 0.14876948 -0.3400244 -0.18891792 -0.01736346 -0.23983943 -0.028282495 -0.0575817 -0.10101021 -0.3638774 0.028993137 0.4429195 -0.36201376 0.15492381 -0.020649109 -0.39331207 -0.16104186 -0.14398946 -0.15991293 0.4491239 0.008625075 0.39410782 -0.23913719 0.33051285 0.051984973 0.12571773 -0.107279874 -0.17671257 0.43462834 0.34299543 0.070214435 0.26028344 0.050990738 0.2263472 0.21921198 -0.03660005 0.28158218 0.17265122 0.043732025 -0.26698756 0.13467221 0.065698974 -0.27169114 -0.095187284 0.067079134 0.20385855 0.17851396 -0.24945103 0.26818717 -0.059474137
23 0.46839634 0.1335915 0.05433852 0.09710353 0.14420375 -0.38023517 -0.036518227 0.027387336 0.16307278 -0.13850242 -0.63627577 -0.08043024 0.24603505 0.1374877 -0.21021463 -0.330951 0.22932732 0.13428982 0.17829531 0.20460409 -0.25369924 0.4540144 -0.18346833 0.29048777 0.09390245 -0.16452508 -0.04212054 -0.47697443 -0.3771398 -0.015803458 -0.149352 -0.11678993 -0.1670718 0.4697385 -0.30130067 -0.36055386 0.3913059 -0.30383092 -0.075698815 -0.22229367 -0.28581882 0.15765728 0.034941725 -0.18870698 0.34615004 0.0031173609 0.26441967 -0.08488506 0.045991633 -0.39182478 0.1268573 -0.031910125 0.055320393 0.42596138 0.003747683 0.07680651 0.49638328 -0.30539194 0.19512078 0.27209875 -0.07606644 -0.31774768 0.27741268 0.08140529 -0.36100516 0.20147443 -0.5941288 -0.04493881 0.15600505 -0.4218076 -0.033649392 -0.014914458 -0.34701878 0.31019253 -0.41071296 -0.045187183 0.027363574 0.15154411 -0.2612583 0.014384132 -0.36891004 -0.12249647 0.11370569 -0.013400198 0.11521651 0.29905948 0.321215 -0.003942375 -0.1817175 0.33339244 -0.10848209 -0.45433247 -0.05257581 -0.3500592 0.2983145 0.20864265 -0.09911354 0.05957403 -0.050344512 0.5336419 0.15933166 -0.030636257 0.3818382 -0.3911079 0.103791706 0.055504512 -0.44685224 0.3321251 -0.15439878 0.38747555 -0.12846711 -0.11900756 -0.3924246 0.11695055 0.019460583 -0.26784238 0.18097827 0.38240898 0.026800863 -0.25722247 0.041788142 -0.19767582 0.14279237 -0.19267492 0.4680728 -0.41008693 0.20734763 0.06116606
173 0.17775314 -0.036251422 -0.09775029 -0.0735472 0.034163605 0.07924036 -0.029908301 -0.12484045 0.0100716315 -0.05780805 -0.16386788 -0.00474863 0.01818397 -0.1338913 -0.11193686 -0.08910636 -0.09626516 0.09974731 0.08958358 -0.044671852 0.057608083 0.19381014 0.18468103 -0.022087373 -0.25168744 -0.1336007 0.094287924 -0.0070221643 0.046553582 0.19045502 -0.009321114 0.030113671 -0.099490255 0.051417444 -0.023492372 0.06286019 -0.07224695 -0.10423382 -0.16224113 0.118193276 -0.023566471 0.15786716 -0.071431816 0.0033243038 0.23119023 -0.12578674 0.04675754 -0.07868748 -0.031651236 -0.13709992 0.112531655 -0.22584702 -0.04250871 -0.102021545 -0.12542088 -0.10252645 0.18878916 -0.13538341 0.103837855 0.10221452 0.035105906 0.014990187 -0.04735398 -0.11418468 -0.12905358 -0.0019497477 -0.06525121 -0.0779439 0.08639943 0.06124371 0.029339543 -0.25798273 0.04223505 -0.013772474 -0.10015867 -0.07834436 0.03822816 0.1002622 -0.06286151 0.15761302 -0.20881025 -0.11685805 0.060786683 -0.050087713 0.022309903 0.03530398 0.05592027 -0.16111116 -0.13589323 0.19610012 -0.13665816 -0.07526308 0.04846687 -0.3076267 -0.15441155 0.044921435 0.0019098183 0.13668749 0.0048382715 0.12978628 0.019677313 -0.01099852 -0.041485436 -0.06282617 0.015355705 -0.12621588 0.12476297 0.113327846 -0.09461368 -0.11211351 0.077865064 0.24002656 -0.1433922 0.20722346 0.21490768 0.032904264 -0.13975973 0.08777888 -0.04207709 0.007237221 -0.059106827 -0.16825415 0.08722068 0.23190907 0.1719925 0.0077019185 0.26942068 0.037151854
258 0.04555656 -0.04925472 -0.19101796 -0.051018376 0.091422126 0.00617003 0.01301023 -0.047230225 -0.007584871 -0.15881084 -0.19889148 -0.05386387 0.20912208 -0.12379878 -0.2603466 -0.07641843 -0.01797674 0.06699889 0.13316488 -0.08465368 0.06953396 0.22595419 0.19338691 -0.03603637 -0.13397324 -0.15073252 0.016352626 -0.023137981 0.005845542 0.076522976 -0.08229002 -0.07756947 -0.019724833 0.024208518 -0.13293773 0.14178224 0.14098622 -0.07029978 -0.08874565 0.13680062 -0.05087285 0.08396395 -0.079079084 -0.062738605 0.3340362 -0.010779617 0.1612014 -0.1654392 -0.046433177 -0.035160586 0.2012857 -0.24746735 -0.05685483 -0.011049813 -0.18841262 0.011062165 0.18398897 -0.1379035 0.06220973 0.09064962 0.03408216 -0.04843324 -0.001084755 -0.06514569 -0.15938507 0.024612594 -0.003136437 -0.04103297 0.09088045 -0.015235783 0.023603993 -0.17950024 0.027666308 -0.0053656534 -0.11014535 -0.13465722 -0.0999987 -0.014508625 0.017427864 0.15824236 -0.08954237 0.03782936 -0.08739929 -0.04663136 0.1475561 -0.0628106 0.08140208 -0.06785047 -0.18400733 0.19299473 -0.15653516 -0.13318273 0.061613075 -0.24705745 -0.16169888 -0.002412068 0.02042977 0.19139384 0.0011070903 0.040318437 0.027076414 0.07881321 -0.046979327 -0.06476105 -0.0002748986 -0.09324706 0.036006346 0.075204134 -0.1398899 -0.2001711 -0.042321067 0.27101633 -0.051084127 0.118754275 0.100605614 0.12570073 -0.106797844 0.081077166 -0.08489446 0.0092734685 -0.016096301 -0.054945506 0.002306031 0.19820388 0.16568154 0.013269271 0.27101162 0.106081456
21 0.037190396 0.019044928 -0.18351287 -0.12309199 0.11999262 0.07057385 -0.042679604 -0.09500179 0.05129165 -0.06635944 -0.20638745 -0.054588024 0.19264778 -0.120888315 -0.26135993 -0.12591606 -0.0452581 0.058877487 0.17821419 -0.04657639 -0.017257595 0.18678755 0.15425943 0.050359625 -0.22365186 -0.044312734 -0.056150533 -0.075071946 0.06822693 0.07223917 -0.09417271 -0.016226744 -0.020569222 0.0627763 0.03764614 0.032777127 0.0324017 -0.052945312 -0.12643273 0.12087374 -0.05691222 0.024248596 0.020346906 -0.040930156 0.13394864 -0.021473305 0.1807404 -0.14371921 -0.09145581 -0.022273652 0.13720763 -0.28231618 -0.068262994 -0.14884464 -0.12874298 -0.054321676 0.27728868 -0.14566927 0.08460993 0.047408424 -0.008616125 0.004307582 -0.0371205 -0.06626552 -0.20671107 1.7337643e-05 -0.047774218 -0.061839335 0.14782937 0.028759291 0.17368346 -0.27623308 0.021310868 -0.08026246 -0.20179905 -0.10387945 -0.12691967 -0.038038194 -0.010790228 0.21767062 -0.15343748 0.07075215 -0.08507181 -0.10393369 -0.0032839933 0.006373422 0.08402317 -0.17606586 -0.17036872 0.27783632 -0.14438711 -0.07286264 0.06585588 -0.329146 -0.1484462 -0.043032154 -0.034149427 0.14332697 -0.08719355 0.10157934 -0.09238584 0.035570014 -0.055383403 0.0104734395 -0.06507947 -0.08427024 0.01853982 0.12721072 -0.10087039 -0.050086502 0.025138466 0.24641931 -0.116740085 0.2523211 0.13801774 0.19202882 -0.20438431 0.06167261 -0.049296323 -0.062021606 0.06793791 -0.06804116 0.054131497 0.23518561 0.16577111 0.014288333 0.18556097 0.0694266
400 0.07089677 0.0522319 -0.16782857 -0.17777975 0.05700405 0.06736198 -0.071042955 -0.23117694 0.032659356 -0.04575313 -0.12885433 0.030535502 0.1750659 0.0031776798 -0.2505153 -0.047030434 0.02575143 0.021444814 0.18788593 0.0015816233 -0.040231038 0.18749313 0.27056676 0.08777552 -0.13975634 -0.08960773 0.07235663 -0.14058734 0.031000115 0.14782287 -0.12569946 0.07457839 -0.0670295 0.05892311 0.025383817 0.07765013 -0.0075845653 -0.050365206 -0.023979401 0.18214636 -0.07580087 0.1624777 -0.055118058 -0.10123813 0.13442525 -0.03689695 0.16523147 -0.2468908 -0.0730108 -0.08852835 0.12710679 -0.2928676 -0.1278257 -0.15371828 -0.13168085 -0.02134121 0.32162243 -0.118444726 0.1831633 0.12479071 -0.028831888 0.015072465 0.12608506 0.005091159 -0.2051931 0.0144497 -0.07760387 -0.00946545 0.21400405 0.17266412 0.09715541 -0.24969776 -0.06611098 -0.06581075 -0.17592719 -0.056561932 -0.093698874 -0.10139794 -0.012714272 0.16864003 -0.12645821 0.016925048 -0.081675135 -0.13025652 0.015691428 -0.0061728205 0.021141974 -0.12484376 -0.12165019 0.25473183 -0.118872225 -0.083022974 0.06424147 -0.31280816 -0.21858817 0.015946401 0.033837784 0.15489107 0.0064054425 0.10559583 -0.04166173 -0.018047811 -0.018468285 -0.017234119 -0.015564807 -0.08233498 0.026018556 0.09990409 -0.11942207 0.021204723 0.06325597 0.1857151 -0.012720052 0.09701123 0.06785787 0.1728845 -0.1764762 0.022034172 -0.0010739934 0.067741916 0.059865408 -0.084870934 0.040100843 0.22761193 0.1640716 -0.0014633087 0.10810264 0.055185128
158 0.13430183 0.036603518 -0.14088283 -0.06717343 0.08231253 0.10446005 -0.010258699 -0.15459435 -0.04066812 0.02152023 -0.047681972 -0.05304239 0.031672943 -0.06044135 -0.1394126 -0.06599285 -0.0543245 0.12160805 0.106585704 -0.05743741 0.052230068 0.1720269 0.14311372 -0.024211293 -0.24193761 -0.15246323 0.0859419 -0.008403314 0.09222491 0.10028468 0.051584207 0.0056572147 -0.059095938 -0.01224922 -0.01930678 0.06995633 -0.00022089032 -0.083491206 -0.16112444 0.1047474 0.01592663 0.19206484 -0.066243194 0.041821994 0.21892603 -0.14753461 0.14166029 -0.06115164 -0.025504055 -0.18867552 0.078432485 -0.24017276 0.00417324 -0.0702735 -0.18174116 -0.14344925 0.28703684 -0.14438105 0.10211839 0.19148955 0.064883076 -0.03938352 -0.015481137 -0.12911756 -0.23393273 -0.117952585 -0.17776395 -0.111616865 0.15243408 0.10283658 0.14524168 -0.45204902 0.025668446 0.0076032514 -0.21428491 -0.10863594 0.03491129 0.056991182 -0.18507035 0.24629588 -0.28510755 -0.05947221 0.005486623 0.0020808624 0.032549147 0.016965663 0.071345426 -0.093715705 -0.12807338 0.21140285 -0.029907933 -0.08919032 -0.061352775 -0.35120934 -0.12654309 0.10486615 0.0773579 0.15431854 -0.010821399 0.13445316 0.011220868 -0.07961639 -0.01459283 -0.024893746 -0.009891155 -0.01718192 0.15099163 0.14218621 -0.06745415 -0.1599101 0.06803347 0.21631274 -0.03892128 0.147833 0.14715672 -0.010329963 -0.10312777 0.08911051 -0.06674161 -0.036141522 -0.042684015 -0.08439474 0.07543867 0.16593021 0.13299395 0.05888536 0.16742995 0.016408978
35 0.20685872 -0.03889893 -0.11368804 0.009479082 0.08173526 0.064277686 0.0115043875 -0.01269552 -0.057385243 -0.15660234 -0.148635 -0.038067326 0.12195896 -0.030523283 -0.17902243 -0.08413102 -0.026872886 0.10231374 0.12851495 -0.037303105 -0.022131339 0.17638509 0.18418162 0.021276196 -0.19577855 -0.079081334 0.0589868 0.046221465 0.069569856 0.0833283 0.009495949 0.045893785 -0.06705333 -0.03503369 -0.17186701 0.125605 0.0906087 -0.09706414 -0.1819311 0.07904813 -0.05493293 0.111849405 -0.16401027 -0.048686597 0.3234803 -0.094841264 0.105952084 -0.10544604 -0.13489686 -0.088898726 0.18174835 -0.21245714 -0.087255545 -0.061738543 -0.18259792 -0.081336886 0.20480776 -0.11595869 0.0010306948 0.14819445 0.034039665 0.03971304 -0.019413233 -0.12806818 -0.24004515 -0.048180994 -0.029216237 -0.09754652 0.13346103 -0.07873909 -0.05233971 -0.33097085 0.071752846 0.040791746 -0.10802705 -0.07734008 -0.029311754 0.012205242 -0.10967948 0.1854095 -0.072851956 -0.08860665 -0.002897205 0.03380561 0.13007987 0.00069433125 0.031067334 -0.10853002 -0.15453441 0.08861797 -0.065927394 -0.12761539 0.0019989593 -0.25588933 -0.15375619 0.10804551 0.056610066 0.27879122 0.06515389 0.070547014 0.08251379 0.06777161 -0.028376788 -0.12699066 0.028614387 -0.13136043 -0.010590222 0.0426724 -0.13696393 -0.122972764 -0.021954864 0.1422613 -0.10445639 0.18572585 0.112357095 0.044031825 -0.080508 0.1336282 -0.08833305 -0.07179311 -0.09131379 -0.10349939 0.12962727 0.1809046 0.06524583 -0.031874463 0.26239663 0.043627176
32 0.0014456256 -0.038420383 -0.21520488 -0.1199377 0.05905863 0.073016524 -0.089310534 -0.0234881 -0.025433106 -0.19249673 -0.15479204 0.045774758 0.20036988 -0.06285675 -0.36510256 -0.03847878 0.0008452669 0.12914333 0.1602823 -0.057325915 0.040763065 0.18390866 0.20126373 -0.0075850575 -0.11355879 -0.10240833 -0.00024527268 -0.000864841 0.042730033 0.068467565 -0.18212621 0.003459451 -0.10415136 0.06384856 -0.1442103 0.15111342 0.09874635 -0.076245666 0.01112692 0.15221275 -0.03670772 0.0808095 -0.10061713 -0.062226698 0.2644995 -0.026430262 0.190565 -0.2046927 -0.05607089 -0.0045893425 0.1584417 -0.22442663 -0.11681759 -0.036460314 -0.1349906 -0.0308011 0.17494254 -0.10634588 0.037600942 0.07204885 -0.058190487 -0.043659456 0.036420345 -0.1345971 -0.041460063 0.063523665 0.033436384 -0.05380311 0.14738235 -0.05176149 0.07412124 -0.27780023 -0.04155156 -0.018585216 -0.13485934 -0.09465646 -0.038452737 0.06830741 -0.00032113475 0.11350468 -0.02265845 -0.023403898 -0.02519639 -0.012930956 0.08166469 -0.089701965 0.034399617 -0.14488183 -0.20288824 0.20918804 -0.19390392 -0.09727706 0.10670208 -0.22046354 -0.14832471 -0.022503074 0.03746928 0.25529513 -0.031453338 0.075130485 -0.0014154982 0.047000073 -0.021349393 -0.091708355 -0.0633217 -0.10943251 -0.04086151 0.14256452 -0.09504012 -0.15913934 0.018614927 0.11832189 -0.07136599 0.12897962 0.08014425 0.12238102 -0.12634459 0.07925911 -0.10374898 0.019007925 -0.072827354 -0.07960288 0.032794047 0.19561896 0.12452307 -0.054498002 0.22495526 0.033762284
1 0.049310625 -0.042708516 -0.07187974 -0.08421286 0.14286868 0.045679282 0.008282087 -0.07588519 0.008720145 -0.03963713 -0.11852847 -0.002663062 0.15359916 -0.09312939 -0.2817212 -0.14623103 0.033907633 0.019696387 0.18465455 -0.09868064 0.022714928 0.20889272 0.06358161 0.03039102 -0.188936 0.033724587 -0.07797434 -0.0744011 0.060227286 0.044042166 -0.07050878 -0.04353405 -0.07270104 0.043995902 -0.16267838 0.076308355 0.08011251 -0.06412084 -0.16318913 0.18021859 -0.06996313 -0.021422949 0.02333454 -0.06493285 0.30663884 -0.016143152 0.14874819 -0.12626171 -0.08102242 -0.03331194 0.15245995 -0.28455597 -0.1282065 -0.022257373 -0.15085952 -0.033372276 0.19954173 -0.19791098 0.07790987 0.087886885 -0.021565443 0.07172998 0.045526784 -0.015615445 -0.25537735 0.0034601607 -0.010630978 -0.079825215 0.12841612 -0.037268154 0.09508521 -0.23161462 0.016872706 -0.088777766 -0.16457576 -0.14786465 -0.16060111 -0.026304245 0.025929885 0.19294581 -0.109385416 0.048531078 -0.16295508 -0.06285444 0.019217087 -0.115817286 0.031539798 -0.0903103 -0.19523957 0.258104 -0.1697286 -0.116454214 0.08918865 -0.24316366 -0.1760027 -0.02423303 0.018563088 0.25868595 -0.030248262 0.08048477 -0.0059200786 0.07822071 -0.020028193 -0.025710395 -0.04099466 -0.060834553 -0.06571001 0.18288064 -0.06958206 -0.08842884 -0.025269208 0.21301575 -0.014883688 0.13708323 0.059078105 0.25656006 -0.1074225 0.041738946 -0.10983686 -0.08436579 0.011729193 -0.0077568907 0.022663146 0.19947824 0.16409521 -0.054488122 0.22666556 0.053934906
4 0.057186328 -0.020654308 -0.14387912 -0.104889825 0.11634037 0.07790161 0.031748045 -0.07828767 -0.05587478 -0.11089174 -0.17433456 -0.030537158 0.16259733 -0.087770805 -0.2357247 -0.04767478 -0.03292854 0.023246842 0.07494163 -0.045973465 0.011488667 0.15980661 0.06816148 0.010419093 -0.07175113 -0.048045143 0.0044657937 -0.041390788 0.039051306 0.032232434 0.0044863685 -0.0617562 0.017148536 0.0013606611 -0.08142506 0.13153978 0.16108553 -0.1007297 -0.09261368 0.16995321 0.055171695 0.13337389 -0.10087726 -0.04394179 0.29765594 -0.08711925 0.19458918 -0.17587669 -0.037012 -0.07663107 0.1655464 -0.2889129 -0.023888124 -0.052389197 -0.17947187 -0.05898892 0.22714007 -0.1485598 0.06930624 0.13833486 -0.01249466 -0.025839288 0.019991573 -0.10177364 -0.1344706 -0.055052042 -0.06902148 -0.071386114 0.09983664 0.018114153 0.098720625 -0.24075593 -0.021964822 -0.0854553 -0.18397121 -0.11857582 -0.026326636 0.0053328993 -0.06309679 0.15368484 -0.12864344 -0.0010928457 -0.08713684 -0.017813848 0.07570115 -0.06267499 0.057559367 -0.14152142 -0.1495891 0.22648592 -0.09446742 -0.08137005 0.051230956 -0.24629776 -0.16410665 -0.013409532 -0.009100333 0.1890583 0.0033580146 0.09353671 0.0020994232 0.059354022 -0.006894511 -0.03984624 0.044961713 -0.0633539 0.068544194 0.14950335 -0.09781418 -0.11207962 0.04443235 0.18942039 -0.06346598 0.123381376 0.069709405 0.11643913 -0.13261949 0.07794824 -0.15312083 0.07431084 -0.023969308 -0.07294328 0.05353795 0.22175719 0.17528708 0.002619497 0.23060912 0.07134754
163 0.10429874 -0.009178131 -0.15726602 -0.026375854 0.11298452 0.07681041 -0.05784617 -0.072768025 0.03863744 -0.083644636 -0.21051152 -0.05545927 0.1345596 -0.10888252 -0.16154912 0.0058125434 -0.05464774 0.05925768 0.18481132 0.004120966 -0.0866586 0.2523611 0.28850538 -0.026597466 -0.28433573 -0.09504086 0.01937532 -0.06747266 0.11997597 0.039649274 0.034303218 0.021868907 -0.0055483226 -0.028584057 0.01730189 0.065818325 -0.09043261 -0.18811308 -0.30254087 0.10413676 -0.08676695 0.06951521 -0.043555383 0.016632695 0.08349802 -0.0312993 0.052810736 -0.080297984 -0.08888505 -0.08074665 0.05329268 -0.19865873 -0.098641194 -0.14156151 -0.10092199 -0.08936919 0.12648247 -0.15217383 0.13708217 0.026544767 0.11102085 0.052870642 -0.0801395 -0.012491258 -0.3150719 -0.046140276 -0.1471712 -0.09496864 0.07382154 0.0515875 0.082910076 -0.33078706 0.090981975 0.05070538 -0.16619235 -0.13081269 -0.089508064 0.021179926 -0.017539434 0.2050043 -0.22051466 -0.078458205 0.015026761 -0.08302679 0.077289365 0.14307685 0.12063822 -0.23714569 -0.017747073 0.1535842 -0.06622607 -0.11375355 0.020852065 -0.40007174 -0.1611628 0.00643903 0.07344131 0.1096705 -0.15508209 0.15358435 -0.035417285 -0.023124363 -0.05491733 -0.0806067 -0.060188916 -0.10355718 0.026625931 0.09005257 -0.1268483 0.0026436101 -0.0038130933 0.23459123 -0.08627094 0.3188827 0.17589065 0.057326563 -0.11551047 0.05966882 -0.016685516 -0.07284099 0.07169703 -0.1307841 0.12782554 0.18029833 0.12053506 -0.013626844 0.2622719 0.06913383
436 0.12602536 -0.029077688 -0.101425834 -0.047997877 0.09749935 0.018001525 0.12382357 -0.0020284052 0.0886257 -0.05477794 -0.23523903 -0.0736092 0.19217193 -0.021334387 -0.1323374 -0.061510954 0.024871461 0.036759447 0.23130913 -0.10983138 -0.002372541 0.113829136 0.056079756 -0.017119965 -0.04814658 -0.03448824 -0.040636227 0.02481824 0.17382343 0.14379229 -0.09797348 0.011768016 -0.07339243 0.13657983 -0.03007212 0.056003943 0.13033174 -0.23321876 -0.1848885 -0.021285964 -0.0017419341 0.06543535 0.034637112 -0.023774186 0.36924365 -0.062288348 0.19549426 -0.16492398 -0.049078923 -0.080725946 0.26038057 -0.28723165 0.053778585 -0.08832955 -0.21439661 -0.068619035 0.36530238 -0.15003604 0.05230424 0.23410268 0.013320679 -0.01586812 -0.04394126 -0.14840187 -0.078155994 0.07368036 0.065866984 -0.033827715 0.12167204 -0.08937048 0.093767315 -0.29277822 0.048507366 0.0002125859 0.015858313 -0.0853957 -0.013065814 0.08620624 -0.0849924 0.045277547 -0.106033385 0.018014282 0.05767489 0.05117254 0.043023236 -0.121176705 0.0957888 -0.11590641 -0.25300834 0.2844413 -0.16161558 -0.1348283 0.013735963 -0.23128703 -0.033185117 -0.058569185 0.041485928 0.21832018 -0.101096414 0.06090154 -0.025818948 0.12632449 0.03883737 -0.06886304 0.014905902 0.045628026 0.12960023 0.12760346 0.06658497 -0.11337725 -0.014025824 0.17937732 -0.09437336 0.13714635 0.15141997 0.21790087 -0.22420149 0.037426483 -0.12652083 0.11929054 -0.033403084 -0.08853241 -0.018661184 0.18043274 0.16073588 -0.044597335 0.2590614 0.10616642
42 0.07048349 -0.036773875 -0.15941401 -0.08366063 0.07025563 0.025622837 0.022165367 -0.12766205 -0.01697849 -0.08219565 -0.103693046 0.0605864 0.08223439 -0.008216055 -0.25452575 -0.069267206 0.0022203196 0.062397603 0.07634365 -0.074674785 0.01852884 0.12902725 0.07538152 0.031254813 -0.061284382 -0.06212203 0.06694524 -0.081871934 0.015280566 0.11452901 -0.046791766 -0.0022985635 -0.12332738 0.0677047 -0.1225614 0.113465235 0.12351213 -0.09979449 -0.04279736 0.112996444 -0.038292505 0.09825345 -0.041124944 -0.058574244 0.30721676 -0.066138126 0.1998965 -0.17414717 -0.088355325 -0.04587782 0.17397065 -0.2966545 -0.013633675 -0.013227396 -0.17271216 -0.028923932 0.28288883 -0.13639557 0.05482941 0.15686645 -0.090883486 -0.09587338 0.04306033 -0.10138828 -0.088739105 -0.07049563 0.0034383219 -0.1186011 0.20066439 -0.03715966 -0.00072616455 -0.20812438 -0.04491838 -0.08777917 -0.14808512 -0.14534687 0.009436445 0.012770219 -0.114032865 0.090402804 -0.11493594 0.02913738 -0.069503374 -0.07064014 8.03905e-05 -0.10306198 -0.048587583 0.026250292 -0.1893469 0.22053209 -0.15205497 -0.13575713 0.10434373 -0.17872976 -0.1342806 -0.0739827 -0.020481315 0.20405307 -0.016374579 0.11241096 0.04527876 0.10918768 -0.0066247503 0.016077012 -0.009576562 -0.09236434 0.0286172 0.12649639 -0.10474407 -0.13541688 0.026336895 0.20668283 -0.14191927 0.032473397 -0.051233154 0.117811784 -0.06445204 0.1371397 -0.17534749 0.06132012 -0.08764468 -0.0830601 0.045239367 0.15486662 0.16593553 -0.102154866 0.30082703 -0.016422678
127 0.2183349 -0.04877552 -0.064255305 0.08363902 0.16937964 0.060213808 0.043753657 0.0937084 -0.06678997 -0.030189896 -0.09921027 -0.029357346 -0.023676032 -0.15057379 -0.06948031 -0.16880672 -0.04585718 -0.04669938 0.20197503 -0.059925653 -0.026627174 0.17123634 0.16623247 -0.078786165 -0.1636016 -0.054239504 -0.040905647 0.014041093 0.14903137 0.08012506 0.036151573 -0.042284854 -0.049018893 -0.026779404 -0.12849091 0.099602275 0.09563481 -0.16970967 -0.3807654 -0.046345893 -0.13411477 0.049734592 0.04931742 -0.10236836 0.475191 -0.023464547 0.04983813 -0.093174376 -0.06001172 -0.12944485 0.1979226 -0.20561491 0.038109045 -0.00631021 -0.12354019 -0.060633097 0.1423725 -0.11993051 0.06487136 0.12552059 0.058373097 0.13168767 -0.030476974 -0.16050495 -0.30119312 0.017990319 0.14762391 -0.10477188 0.12815094 -0.08365556 -0.09293717 -0.29875487 0.045288626 -0.008909637 -0.0011505719 -0.18391103 -0.03244151 -0.016338505 -0.03288765 0.103982605 -0.18139036 -0.041024584 0.0027461054 -0.09469141 0.03740804 -0.026474524 0.11754984 -0.09512425 -0.11985608 0.14862004 -0.20336907 -0.22405909 0.030255133 -0.27089322 -0.12320872 -0.120669246 -0.016138213 0.24745344 -0.119843796 0.12568459 -0.020800589 0.22247227 0.054321293 -0.06223414 -0.067206435 -0.04288892 0.037267305 0.0836779 -0.038744345 -0.07120168 -0.022136541 0.16899525 -0.24215336 0.15089588 0.1127403 0.0876754 0.1435565 0.16190976 -0.058591925 -0.12422254 0.0123548275 -0.16208847 0.15302528 -0.017988684 0.11580399 -0.09269981 0.38824874 -0.0055795433
203 0.08302621 -0.06341419 -0.17080826 -0.10835182 0.05703627 0.0067818495 -0.07005668 -0.15075882 -0.17963928 -0.084256425 -0.14293972 0.07662846 0.18069237 -0.13535564 -0.2985379 -0.14964469 -0.034597013 0.097964145 0.1744691 -0.10526103 0.0327582 0.19260284 0.14408813 -0.0034275847 -0.13558605 -0.16466679 0.06365375 -0.09359106 0.00652607 0.07832079 -0.007633115 -0.068306714 -0.06166611 0.019076487 -0.11442701 0.20516686 0.076450884 -0.0072771953 0.0052298605 0.11313558 -0.042610373 0.07610796 -0.023155356 -0.015823998 0.31094953 -0.067688644 0.135206 -0.095222384 -0.05557822 -0.043679956 0.20859857 -0.22547959 -0.07136147 0.06893526 -0.15623572 0.04628668 0.18577744 -0.09822204 -0.006826769 0.031522114 -0.058876272 -0.089142 0.07760606 -0.062074184 -0.22197446 -0.060949612 -0.025268042 -0.081102 0.176906 0.02619472 0.02571693 -0.22173014 -0.06463034 -0.068563126 -0.08178104 -0.13760762 -0.002458323 -0.04516265 -0.04293867 0.16629894 -0.142288 0.026079752 -0.123456486 -0.0046433657 0.053114362 -0.17706686 0.01220601 -0.03481177 -0.22271588 0.2250224 -0.17227057 -0.20086415 0.10462384 -0.27842966 -0.1775856 -0.06083724 -0.03624578 0.21314351 0.012290599 0.07530812 0.011662522 0.13418576 -0.01774976 -0.02752807 0.0143163325 -0.12871803 0.026458671 0.05511637 -0.097344756 -0.24030258 -0.022188583 0.16985539 -0.12883729 -0.01743941 -0.011269743 0.15664984 -0.02884123 0.09989488 -0.20293534 0.10340972 -0.068102695 -0.038596705 0.11474268 0.10179588 0.103436925 -0.05593071 0.28288645 0.09776678
96 0.056459103 0.053668972 -0.13905722 0.008359617 -0.022908669 0.028142234 0.040608063 0.09539771 0.02570477 -0.18603036 -0.16957594 -0.119380705 0.055817716 -0.03131582 -0.2043606 -0.07681781 0.14715697 -0.08587713 0.1707248 -0.12950091 -0.025368148 0.17689794 -0.0652875 -0.032396287 -0.006064646 -0.06940326 -0.062835194 -0.018756794 0.0906814 0.08909559 -0.15200903 -0.0021075716 -0.14792791 0.25074118 -0.1771133 -0.03808998 0.15568483 -0.123093285 -0.020746434 0.03709684 0.0530225 0.12607428 0.03925131 -0.17811981 0.3721275 -0.006632152 0.21880491 -0.28216603 0.018663913 -0.2123188 0.15393123 -0.2694591 0.003674893 -0.04452898 -0.20826274 -0.035603836 0.3580874 -0.10069404 0.09095381 0.18043008 -0.08390824 -0.021505605 -0.02987772 -0.19460309 -0.12971152 0.02459625 0.0176796 -0.088590324 0.14309946 -0.13013166 0.1223207 -0.21753143 0.014206909 -0.10691892 -0.18572265 -0.052740574 -0.060643915 0.14327385 0.0023710248 0.15173894 -0.16743748 -0.09297472 0.044690683 -0.020511484 0.07618275 -0.09905629 0.2067108 -0.13563214 -0.33155635 0.2584462 -0.10435395 -0.20555037 0.06157133 -0.14022669 -0.031765357 -0.015681308 0.01986754 0.08997592 0.0090803895 0.11686259 -0.036113556 0.13801014 0.15454476 -0.10879305 0.018838076 -0.028079111 -0.036197606 0.19750738 0.03955897 -0.12901679 0.04689521 0.20579493 -0.112845324 0.03945174 0.13018404 0.14550231 -0.109049365 0.077351004 -0.10645191 0.021694802 -0.10322528 -0.07749918 -0.057123248 0.16089809 0.27657598 -0.026294006 0.21375866 0.025069928
179 0.033773936 -0.010465343 -0.1340212 -0.041481696 0.06921738 -0.032749698 -0.0718796 -0.06011808 -0.18196249 -0.15832418 -0.041277338 0.047566697 0.1413387 -0.03828621 -0.29459336 -0.055462386 -0.012677894 0.09938421 0.17945798 -0.03903095 -0.013677341 0.22542615 0.19488437 0.0945396 3.598116e-05 -0.18716283 0.09538446 -0.12901433 0.027327437 0.046510473 -0.12349386 0.059625536 -0.049681295 0.021981448 -0.1395292 0.12495701 0.23966552 -0.15115023 -0.0016367357 0.07765125 0.006625621 0.12898189 -0.0662438 -0.16172464 0.20761035 -0.026193425 0.24420507 -0.18323664 -0.04210505 0.08612233 0.2611913 -0.30916634 -0.09404965 0.08060624 -0.20194505 0.117549494 0.24156573 -0.112181365 0.05876434 0.042039696 -0.049542118 -0.05365412 0.12256369 0.0141396765 -0.06659574 0.001961018 -0.106122494 -0.05015374 0.22695711 0.008693926 0.006681983 -0.11142818 -0.11285513 -0.05975842 -0.24034543 -0.054958664 -0.006098117 -0.01982727 0.05834461 0.059484363 -0.038531896 0.047518358 -0.050137375 -0.06488468 0.10939065 -0.077755235 -0.025932442 -0.049894005 -0.15003517 0.23525159 -0.1500242 -0.18796639 0.07482038 -0.26680097 -0.10921965 -0.03346602 -0.01402797 0.26799974 -0.038596936 0.12885073 0.027223656 0.15960088 -0.02658312 -0.030374434 -0.03829616 -0.15443686 0.008088747 0.05633501 -0.20154114 -0.07157599 -0.030521683 0.16465081 -0.15038946 0.082571745 0.013661476 0.12411069 -0.096518986 0.16037412 -0.07938859 0.16366807 -0.02857954 -0.057789836 0.0884963 0.18096301 0.19782467 -0.10032625 0.23267266 0.12425692
374 0.033508785 -0.0985052 -0.05202363 -0.1257167 0.09768315 0.05322203 0.03294654 -0.034405325 0.14183234 -0.040567387 -0.30897582 -0.028249774 0.19268353 -0.0996001 -0.26818037 0.018814124 -0.017602405 -0.03390887 0.1650291 -0.06007678 -0.05683614 0.08135423 0.1806101 0.037435587 -0.20735982 -0.024245443 -0.037884038 -0.06588884 0.059754476 0.033339664 0.025453439 -0.07305021 -0.08068996 0.11625473 -0.03964577 0.1719828 0.0040278607 -0.22029153 -0.22799845 0.1842313 -0.104215465 0.07115306 -0.07045269 0.046183933 0.29356968 0.016669774 0.11054492 -0.23321155 -0.06027471 -0.038369115 0.10591936 -0.3295797 -0.15210705 -0.016488282 -0.12631822 0.0759147 0.18005787 -0.17413837 0.0630637 0.013751367 0.026997242 0.12814751 0.088386774 0.05650473 -0.34643012 -0.03669695 0.0027214473 -0.07478399 0.044782903 0.08025017 0.07242265 -0.18663311 0.098054014 -0.016984206 -0.03835217 -0.15026899 -0.25629413 -0.09550608 0.08935032 0.13039486 -0.098743364 0.105486825 -0.011609035 -0.019108506 0.047195364 -0.04788986 -0.03876444 -0.09698438 -0.12892607 0.16862276 -0.009507426 -0.09656967 0.12422739 -0.3132195 -0.09284222 -0.05112193 0.013398601 0.17271988 -0.08113875 0.10195402 -0.004829902 0.055836935 0.07079052 -0.15238291 0.003643378 -0.047272146 -0.07236639 0.081385754 -0.02152083 -0.019195048 -0.023266496 0.14781438 -0.087868705 0.14696176 0.029312741 0.2168738 -0.11272266 -0.050221354 -0.18897088 0.03978683 0.01568517 -0.06283346 -0.06253485 0.19654274 0.0904245 -0.045922283 0.30333832 0.081770115
38 -0.025066199 0.059067354 -0.2680397 -0.01550611 0.037597585 0.04445404 -0.08441714 -0.10005956 0.03428914 -0.08669172 -0.065229386 0.09310586 0.088500395 -0.042170264 -0.3207734 -0.045078676 -0.017683767 0.003867754 0.17921548 -0.069002114 -0.06268993 0.16287395 0.16784021 -0.034352016 -0.13811031 -0.0986327 0.021689842 -0.074161984 -0.006185389 0.0736693 -0.06492252 -0.12200973 -0.099422984 0.04847426 -0.15305576 0.031156003 0.12135308 -0.030696148 -0.06758393 0.05701208 -0.05440861 0.13184321 -0.06671494 -0.123650305 0.3172166 0.0740007 0.2227688 -0.16813539 -0.017462252 -0.08001382 0.10031129 -0.2545117 -0.064823434 0.0063844924 -0.22548924 0.04988721 0.26884267 -0.060011957 0.022070218 0.098094486 -0.09217283 -0.116691895 -0.05538309 -0.030103695 -0.1424721 0.031344846 -0.020133616 -0.080739774 0.1484877 -0.08631184 0.03699638 -0.08396076 0.03744736 0.07023777 -0.15744063 -0.067904 -0.10078816 -0.006459731 -0.020553881 0.07988976 -0.16889489 0.059697863 -0.08443599 -0.11243561 0.03748339 -0.05781178 0.0038011395 -0.14325027 -0.2470671 0.28420967 -0.110632785 -0.13944924 0.038649704 -0.2551607 -0.15631787 -0.07492936 -0.026699781 0.189909 -0.19581912 0.12062492 -0.025941841 0.16051303 0.08896754 -0.018855752 -0.044235885 -0.123638764 0.02496795 0.1381963 -0.10035925 -0.1006856 -0.10909948 0.19710848 -0.16015182 0.12990947 0.054839015 0.06374286 -0.047271483 0.16094637 -0.11390507 0.041869704 -0.076060764 -0.026009856 -0.060319487 0.10268832 0.20472734 0.04167121 0.29804203 0.11504006
39 -0.01584156 0.042640563 -0.21464233 0.103867635 0.02482723 0.033983022 0.035863798 -0.042752367 -0.041855022 -0.0902383 -0.0153747685 -0.013861293 0.046829056 0.0453783 -0.14151374 0.024055935 -0.013046549 0.05395449 0.037424177 -0.04463667 -0.08421912 0.13236864 0.11269077 -0.039875336 -0.16802707 -0.0888983 0.1090455 -0.060157463 -0.044765737 -0.016587505 0.19788419 -0.14091632 -0.019729327 -0.13848831 -0.11208184 0.1455738 0.14568374 -0.029701838 -0.14707242 0.047167465 0.003320083 0.1271023 -0.16776846 -0.044404197 0.31164405 -0.030441975 0.14439876 -0.11117275 -0.0471212 -0.08345279 0.055582374 -0.12941076 0.044616837 -0.025776701 -0.23496053 -0.06643011 0.25654897 -0.13235639 -0.08474344 0.15821505 -0.035986025 -0.041314613 -0.20039614 -0.101172 -0.28014442 -0.16410062 -0.16073166 -0.13694984 0.14006166 -0.14946114 -0.06506588 -0.27462414 0.062134754 0.10094269 -0.14629248 -0.17338713 -0.0027698774 0.06528025 -0.2170672 0.17857672 -0.27102977 -0.020004602 -0.08466644 -0.06506429 0.06649832 0.046991527 -0.01145669 -0.08937928 -0.08638506 0.18550584 -0.09625291 -0.08243895 -0.021385223 -0.24155122 -0.12192525 0.05552525 0.014101096 0.21120754 -0.07091986 0.14645289 0.078179225 0.1496475 0.02018804 -0.065834686 0.05935337 -0.16059858 0.14073375 0.049881134 -0.14277501 -0.1771105 -0.05968331 0.25540966 -0.14514346 0.17540503 0.14952338 -0.041844524 -0.06573536 0.15418991 -0.24714975 -0.05332227 -0.16857834 -0.09586176 0.036629263 0.11561953 0.17213577 0.03327256 0.42133796 0.015587072
43 0.029055728 0.10221136 -0.18186751 -0.10119837 0.051236916 -0.061417334 0.048965737 -0.12420005 0.01746585 -0.033645853 -0.22827017 0.08264802 0.1473306 0.090837754 -0.21383488 0.012944288 0.026256237 -0.005858653 0.061075047 0.053530622 -0.12195087 0.09107274 0.19288929 0.047351964 -0.05840752 -0.06223632 0.00095660664 -0.08636289 0.034724727 0.13962156 0.036954742 -0.024915135 -0.06199472 0.024066066 -0.0060081244 0.17403403 0.06622467 -0.13174962 -0.07015119 0.16439725 -0.1081274 0.219926 -0.15480253 0.015374173 0.32344377 -0.070297495 0.28597206 -0.26960686 -0.14905493 -0.16974705 0.11755418 -0.24038427 -0.082282215 -0.032619204 -0.16450392 -0.047839638 0.27077746 -0.11321486 0.081533894 0.11569875 0.001162068 -0.093461156 0.09482253 -0.064747594 -0.1490137 -0.07866128 -0.13196586 -0.094949625 0.13916492 -0.0153084025 -0.04964065 -0.07988594 0.07795891 0.005184525 -0.15738831 -0.06090834 -0.031871986 -0.14000934 -0.26317096 0.0596009 -0.28184724 0.019160185 -0.06567482 -0.044423357 0.030776031 -0.07962968 -0.0007111974 -0.09203035 -0.16781862 0.23200402 -0.031557098 -0.16503489 0.053360164 -0.25895727 -0.2221684 -0.08337893 0.012434356 0.13408625 -0.05952138 0.035410415 0.021509925 0.10043489 0.08673593 0.03835923 0.035692863 -0.054792687 0.15274875 0.09128935 -0.1243527 -0.091618106 0.019194288 0.21771948 -0.21926613 0.08156696 -0.14543022 0.11570121 -0.07709762 0.25210583 -0.1730826 0.101416156 -0.01973244 -0.116792955 -0.06349116 0.12241492 0.12398099 0.05047246 0.23258772 0.1531646
367 0.07360652 0.025865326 -0.15262659 -0.063156866 0.0827895 -0.031228123 -0.04035602 -0.09691516 0.025417289 -0.13391954 -0.21211153 -0.115130775 0.20359038 -0.0597839 -0.23910773 -0.08559318 0.002881564 0.08636218 -0.008998457 0.010430516 -0.06377895 0.16340755 0.15274327 0.045982398 -0.031520944 -0.15553574 0.058088798 -0.067859486 0.06369819 0.037372716 -0.085689224 -0.021247376 0.025375798 0.016377315 0.021508612 0.1496289 0.1077178 -0.11726055 -0.04143285 0.18625475 -0.064686134 0.16936894 -0.030621931 -0.015451741 0.24605519 -0.063670754 0.1719456 -0.2702474 -0.09680471 -0.17831153 0.26658043 -0.24364439 -0.02596576 0.0023284522 -0.14858322 -0.072470956 0.35847136 -0.15749882 0.13076861 0.13727376 -0.01054772 -0.0033340827 0.11580619 -0.13694867 -0.08035042 -0.026970042 -0.105507344 -0.015176276 0.13264512 0.14349745 0.06376558 -0.08584217 -0.08537015 -0.0881361 -0.12250579 -0.106802665 -0.021655785 -0.029961798 -0.031660173 0.14156553 -0.11302663 -0.058492184 -0.107042216 -0.013208932 0.021430053 -0.08609586 0.08089802 -0.044508163 -0.13974652 0.28028506 -0.19151399 -0.12425005 0.1592568 -0.23308145 -0.16466378 -0.06225559 0.033301238 0.016319038 -0.06614379 -0.048487928 0.021063084 0.045559287 -0.022876868 0.09869192 0.043938957 -0.112899914 0.15390565 0.070932016 -0.13307928 -0.1738224 0.003007105 0.22256243 -0.18863228 0.05087758 0.010427558 0.086365715 -0.17354125 0.049002923 -0.20287623 0.17490864 -0.0131487185 -0.135647 0.012561639 0.2093815 0.18326521 0.012357093 0.1833868 0.055583477
189 -0.07076461 -0.03186946 -0.08729465 -0.16608743 0.15270017 0.020741194 0.09028838 -0.041056328 -0.014944797 -0.07322275 -0.22226185 -0.0037155186 0.27227652 -0.083284 -0.2611264 0.03367115 0.011467238 0.016249638 0.12890016 -0.047076456 0.09775607 0.053693905 0.04324306 -0.0047263615 -0.09300329 0.005995106 -0.027983688 -0.018036742 0.03512456 0.02425698 -0.055366434 -0.02905878 0.014120642 0.06335074 -0.040454503 0.07424646 0.17302006 -0.16211602 -0.12798361 0.13214836 0.061644845 0.02988147 -0.0931894 -0.029476076 0.22841428 -0.034672208 0.34371454 -0.12865758 -0.034738474 0.08063147 0.15333505 -0.22348863 -0.09103914 -0.07113574 -0.15152016 -0.04351823 0.18702213 -0.16089039 -0.017156765 0.06135181 0.051243845 0.0107546495 0.06072443 -0.09742435 -0.24379568 -0.04120272 -0.06115895 -0.043326758 0.14826113 -0.02496134 0.23231205 -0.3231836 0.04323142 -0.09934302 -0.21195377 -0.046058983 -0.08504961 0.012960067 -0.057835486 0.14376092 -0.17487723 0.10595377 -0.022952527 0.014589242 0.04274605 -0.03790745 0.039944597 -0.08847811 -0.11096664 0.2950972 -0.08024232 -0.02898976 0.02465499 -0.2500755 -0.057398375 -0.024258664 -0.0061532 0.2502406 -0.096540466 0.08531717 0.0540335 0.14281642 -0.00023584133 -0.10721184 -0.0015327034 -0.11949206 0.0734878 0.15267606 -0.09431424 -0.14345136 0.08520185 0.23569392 -0.12356226 0.18321787 0.061291456 0.15797085 -0.1641415 0.07792757 -0.14041482 -0.056987382 -0.06012812 -0.102025345 0.01539122 0.16440439 0.053282507 0.030923583 0.19135761 0.085991636
197 0.021472575 0.03553925 -0.10164002 0.027594326 0.012244634 -0.069492124 0.045321472 0.16877289 0.11401029 -0.1767208 -0.1431553 -0.18801636 0.06764369 -0.012770906 -0.18266617 -0.077150494 0.11143032 -0.063600786 0.2213545 -0.047567 -0.0065688775 0.17303675 0.070917 -0.07932928 -0.08624591 -0.079962134 -0.04622947 0.021620937 0.11913936 0.14554821 -0.19790147 0.041100547 -0.2087997 0.19200815 -0.07522346 0.07484309 0.15540513 -0.16443963 -0.15816362 0.10267174 -0.104956456 0.081888884 0.07407906 -0.17305349 0.30887023 0.030891413 0.17467882 -0.3760462 -0.0026407617 -0.16934988 0.19091778 -0.23315866 -0.05500363 0.009083587 -0.12337268 -0.02115568 0.3011145 -0.15183325 0.14980555 0.0738073 -0.036850933 0.030057264 0.031588327 -0.17081703 -0.06766554 -0.053806033 0.06701861 -0.12691484 0.061673965 -0.121670164 0.06370545 -0.20248619 0.054233983 -0.122315705 -0.17101045 -0.11418491 -0.098657295 0.06848453 0.058019683 0.030334407 -0.25796032 0.08044508 -0.045987748 -0.004125034 -0.015034237 -0.041974816 0.18427165 -0.043755043 -0.12728024 0.27824602 -0.08516524 -0.2158287 0.055863883 -0.24552657 0.039601408 -0.07092889 0.13670543 0.051613975 -0.11296291 0.07997495 -0.11284462 0.14200445 0.12757087 0.023868324 -0.13985692 0.007129249 0.007944516 0.1865487 0.007069597 0.014614061 0.06879229 0.2623657 -0.18475538 0.117179446 0.07998939 0.24834779 -0.1108766 0.0084306775 -0.11824716 -0.019592626 -0.062310636 -0.14199835 -0.17232177 0.12623948 0.084807485 -0.07773759 0.21460618 -0.0055779554
361 0.02024859 0.059013598 -0.17566025 -0.103900954 0.056867138 0.06726856 -0.100614525 -0.07648465 -0.031175142 -0.21520315 -0.19463444 0.030628683 0.17214109 -0.046574216 -0.18703172 0.054327745 0.045199707 -0.16556 0.24658029 -0.030038692 -0.077668644 0.21932077 0.22582684 -0.09960087 -0.070571415 -0.1891423 0.013783537 0.012139762 -0.035382308 0.06482651 -0.044010106 -0.035617005 -0.06382505 -0.012702274 -0.15185702 0.11462853 0.086966515 -0.05453541 -0.04478952 0.015722878 -0.09249947 0.14022578 -0.1656305 -0.19750652 0.3656757 0.0231667 0.177837 -0.25671396 -0.011343292 -0.06546185 0.16941917 -0.25196758 -0.1559706 -0.08047018 -0.22699797 0.043848716 0.11429597 -0.0913598 0.059579857 0.04152972 0.0053655114 0.023117224 0.058817912 -0.09927113 -0.1540777 -0.025598288 0.12023048 -0.10466931 0.11741893 -0.042181425 0.004993515 -0.17086828 0.005069739 0.006990293 -0.1550809 -0.010617808 -0.045586903 -0.20190501 0.020528408 0.04298648 -0.21795574 -0.020477157 -0.106087744 -0.19638821 0.094074 0.020098671 0.04238177 -0.19562353 -0.11291267 0.18130274 -0.028521163 -0.14417574 0.003782975 -0.31702 -0.27936447 -0.029128546 0.004710152 0.19082199 0.009969519 0.10336338 0.010230457 0.21664838 0.08568488 -0.056289863 -0.00049832877 -0.14960073 -0.02797627 0.03280263 -0.09569146 0.0827752 -0.019787934 0.19297919 -0.14164716 0.08617287 -0.023029137 0.057725802 0.070780486 0.21776791 -0.036031447 0.08069729 -0.049594764 -0.113308705 0.041497048 0.10536568 0.12035211 0.07154519 0.2845611 0.09167846
82 0.16015548 0.011831254 -0.15603793 0.029552942 0.04725562 0.011969299 0.115598835 -0.016036006 -0.013143472 -0.09759052 -0.1544638 -0.10071624 0.08338196 -0.037715305 -0.06730892 0.01505516 -0.04633625 0.06120387 0.07570191 -0.0066490164 -0.011710504 0.18424858 0.25279048 0.007723862 -0.16190742 -0.022161797 0.06211481 0.023886597 0.06577426 0.04392108 0.07747176 0.045775246 0.090078175 -0.16248055 -0.102859385 0.19820009 0.020659165 -0.052763175 -0.28854573 0.10931633 -0.038290452 0.11872303 -0.13284309 -0.010846677 0.24860483 -0.098949395 0.007616248 -0.11616099 -0.08747555 -0.048477847 0.1507157 -0.15330899 -0.051040713 -0.17935209 -0.10896598 -0.08696311 0.21254556 -0.15165223 0.083368145 0.2052555 0.07564318 0.10803303 -0.056816053 -0.12756391 -0.27076846 -0.0506609 -0.03576116 -0.04290956 0.009206831 0.05162206 -0.06388478 -0.36558548 0.12966615 0.020805093 -0.07963563 -0.15805419 -0.0729391 -0.014132058 -0.20948315 0.23547608 -0.15080467 -0.09097799 -0.06209147 0.05011732 0.099351466 0.12838449 0.1330457 -0.11581968 0.041663647 0.163643 -0.11006405 -0.11975267 2.1248703e-05 -0.33353657 -0.103210256 0.061178017 0.108568236 0.15222521 0.02226084 0.11323493 0.0124886595 0.05742732 -0.108126916 -0.039297774 -0.007492066 -0.068828896 0.030419182 0.1012866 -0.1305566 -0.04505681 0.0027651927 0.24471283 -0.18952516 0.3315101 0.18172742 0.13830145 -0.21103156 0.045807976 -0.20092796 -0.04840767 -0.024813607 -0.2084675 0.07335998 0.23295136 0.039461404 -0.038595855 0.28197402 0.07753201
242 0.1819712 0.0045742635 0.036159102 0.07024751 -0.033679064 -0.03507087 -0.1431822 -0.06667854 0.026052859 -0.1564462 0.11307598 0.02339311 -0.051824786 0.040812965 -0.088369705 -0.030485984 -0.13357216 0.13499916 0.07099194 -0.10723564 0.025676688 0.12395736 0.14067832 -0.15813537 -0.2713425 -0.12570186 0.1475244 0.019778125 -0.0016053966 0.06830596 0.05275489 -0.0732641 -0.15746245 -0.08872015 -0.23598151 0.2418345 0.026080977 0.08860018 -0.076381825 0.07999785 -0.13115856 0.14739396 -0.09118517 -0.03821263 0.40227407 -0.08468819 -0.0698906 0.03513444 -0.08908796 -0.16563618 0.14239417 -0.19949591 -0.03862718 0.05264198 -0.22149797 -0.11170471 0.26162007 -0.06971734 0.05376115 0.11131902 -0.0062992256 0.031730544 -0.037594467 -0.1650258 -0.22197926 -0.1370568 0.05074254 -0.186713 0.27134803 0.019611303 -0.01197138 -0.3906205 0.00650417 0.15245838 -0.13709885 -0.16279367 -0.033425253 -0.009973804 -0.08609929 0.22324893 -0.15930715 -0.03488567 -0.05142386 -0.07288516 0.11464665 0.0058580553 -0.036822207 -0.06790298 -0.23408565 0.14402941 -0.13710275 -0.20203808 0.07197842 -0.39514413 -0.2554977 0.08818748 0.10990258 0.22117689 -0.042680353 0.121399574 0.07857257 0.07748375 -0.009117199 -0.012804984 0.04291538 -0.17243798 0.061705608 -0.008905744 -0.20154202 -0.25859216 -0.010722156 0.19887647 -0.13687441 0.14235432 0.19076267 0.08289497 -0.010797944 0.24191213 -0.11371717 -0.09196113 -0.0781854 -0.07907759 0.20366533 0.23789315 0.21506853 0.09080186 0.43547657 0.0418007
19 0.05633547 0.08963342 -0.2798199 -0.035090696 -0.012029851 0.00096191774 0.086257346 0.046197828 0.17911576 -0.13952312 -0.27749693 -0.12686308 0.1318996 -0.048919108 -0.14651637 -0.012105998 0.0941212 -0.052770834 0.18723652 -0.028846696 -0.05183508 0.09003227 0.16902144 0.08061134 -0.112572394 -0.11265988 0.15732424 -0.019225461 0.14740019 0.2348526 -0.08516818 0.057663813 -0.0060214046 0.0913777 -0.013153262 -0.024755273 0.1097651 -0.22256911 -0.18295404 0.08872175 0.048288945 0.21141876 -0.087246396 -0.06758263 0.3741187 0.078596644 0.22459196 -0.3534678 0.060134824 -0.21394005 0.22287203 -0.17379314 0.033648077 -0.06468239 -0.04218308 0.05256144 0.3987197 -0.055701 0.059577286 0.16559055 -0.029089967 -0.021571122 0.020940475 -0.06849057 -0.11746425 0.10926837 -0.11015625 -0.028443297 0.07274181 0.08950301 -0.0660183 -0.073441714 0.07211228 -0.090879425 0.118485115 -0.07575906 -0.09409416 0.13723585 -0.07120981 0.044700474 -0.14971048 0.011732083 0.060593743 0.16366586 0.06732181 -0.045199975 0.06403771 -0.049066503 -0.19399357 0.34562224 -0.11974956 -0.2070757 0.036819562 -0.27442813 0.004156098 -0.17513 -0.0766409 0.041154753 -0.14650077 0.082518086 -0.063559614 0.103655085 0.024235673 0.07210976 -0.03706316 -0.07251563 0.11685543 0.100824356 -0.0034196887 -0.16226144 -0.08051437 0.20724088 -0.2429121 0.028051877 0.034501966 0.06671212 -0.19796711 -0.062193133 -0.11323299 0.21466678 -0.040303465 -0.10144466 -0.10152681 0.15553191 0.14651951 -0.06531243 0.14464964 0.13280259
717 -0.027073603 -0.07342097 -0.18794377 -0.095898055 0.24214461 0.12905493 -0.046116102 -0.09852738 -0.16572355 -0.14089972 -0.29190394 -0.09203547 0.3547492 -0.27058172 -0.246731 -0.12659734 0.031667177 -0.11597801 0.24393272 -0.027445534 -0.037801914 0.22284317 0.09569434 -0.0027480372 -0.13993602 -0.21934363 0.030083895 -0.072451055 0.03166111 0.02443474 -0.040254127 -0.034021538 0.06659391 0.10505843 -0.049337123 -0.00042315823 0.1343577 -0.14780731 -0.2215408 0.038399495 0.05680314 0.049228594 -0.19197784 -0.16020553 0.22247534 0.013861274 0.28984916 -0.18852447 0.048642207 0.043902922 0.23545207 -0.25600728 -0.13674818 -0.07563118 -0.14622234 0.06598421 0.19014075 -0.19943857 -0.013986419 0.07031369 0.009876227 0.122499906 0.082659304 -0.073233545 -0.25977513 0.023984488 -0.03914946 -0.111483745 0.16577421 0.049977932 0.18184824 -0.25748837 0.004754323 -0.114244394 -0.16788766 -0.12341668 -0.076032005 -0.123722166 0.114423245 0.1087369 -0.114743024 -0.042447593 -0.06818211 -0.06349794 0.068365455 -0.014500001 0.029558735 -0.20033482 -0.12889391 0.27721903 -0.07733963 -0.011832898 0.02279451 -0.1949365 -0.18077038 -0.063661925 -0.07323251 0.17110378 0.048271496 -0.07504401 -0.0591557 0.21386373 0.011180726 -0.035964232 -0.007882412 -0.13074377 -0.00087538146 0.06723629 -0.101709165 -0.2021409 0.0197576 0.2045562 -0.14887396 0.06294594 -0.029385991 0.024995644 -0.0463601 0.13847883 0.0017796555 -0.026602086 0.023217333 -0.069917716 0.081273355 -0.053552262 0.07221683 0.020226995 0.118500985 0.06442768
198 0.014252397 0.0064495415 -0.112198144 -0.049090352 -0.061084192 0.014885049 0.03973953 0.14838639 0.120717786 -0.16100082 -0.15194865 -0.04750873 -0.055297576 0.005256635 -0.19802669 0.021331208 0.16426969 -0.1398943 0.27236095 -0.03923144 -0.07730722 0.1751027 0.08575158 -0.04311348 -0.05206139 -0.09765938 -0.008042971 -0.050823774 0.10428326 0.23215646 -0.1529437 0.06053636 -0.15580812 0.25502005 -0.087272204 0.081255645 0.10839837 -0.17640077 -0.083982736 0.08986218 -0.015412133 0.1107817 0.032093298 -0.10847299 0.3081438 -0.021634016 0.14760542 -0.30403972 -0.030718187 -0.13746868 0.122520685 -0.31431434 -0.08005575 -0.060134035 -0.114870176 -0.0067938734 0.3231872 -0.12853573 0.14137779 0.1178854 -0.08078879 -0.0019066351 0.069938965 -0.16605635 -0.12323901 0.013197951 0.08274901 -0.06337066 0.032779716 -0.0059320726 0.09583158 -0.31003436 0.07005486 -0.09300019 -0.121279635 -0.106223404 -0.12446706 0.09555718 -0.0026275713 0.082367435 -0.16906688 0.03071298 0.07214847 0.019882485 0.05116805 -0.045689713 0.16167098 -0.051775437 -0.20537102 0.27679044 -0.10616977 -0.21336414 0.08933352 -0.20976858 0.058575455 -0.045156643 0.09120295 0.05848477 -0.030750852 0.069532275 -0.054893192 0.1691366 0.15772629 -0.057253085 -0.071658604 -0.039344944 -0.032268662 0.17811206 0.00708839 -0.09717093 0.15965615 0.21853763 -0.17287815 -0.0016219171 0.06565937 0.15570168 -0.1240139 0.027995024 -0.1581778 0.030459285 -0.08397593 -0.17401296 -0.1367978 0.09588428 0.093808025 -0.062245093 0.22644748 -0.041710634
284 0.068028405 -0.028531298 -0.050857402 0.04284333 0.028873216 -0.00752225 0.09042539 0.18947034 0.20404111 -0.1233532 -0.21707202 -0.19107147 0.030450333 -0.07512773 -0.1785195 0.015487144 0.10995688 -0.13153325 0.24456513 -0.09923838 -0.040441066 0.08923244 -0.062333353 -0.017607834 -0.113691635 -0.021871869 -0.021736037 -0.05193747 0.17540951 0.108876854 -0.09089927 0.04662181 -0.12189367 0.24801233 0.03536278 0.051617045 0.112674415 -0.27368003 -0.238762 0.15344328 -0.06325239 0.07245452 0.0879507 -0.08008983 0.4204921 0.038264472 0.12104708 -0.4116987 0.004094848 -0.24706173 0.111142874 -0.23559798 -0.08782911 0.016017662 -0.086237945 -0.058029246 0.28497404 -0.13544747 0.102993615 0.04546434 0.057867523 0.026857596 0.023021523 -0.12066084 -0.20974262 -0.024534198 -0.025958227 -0.06909969 0.07455786 -0.008686966 0.20915668 -0.29020372 0.028813275 -0.14608462 -0.09057483 -0.15241656 -0.1613734 0.08815376 0.15028708 0.10124156 -0.19275396 0.061334677 0.07430537 0.0009718018 0.058755796 -0.0119044045 0.15903704 -0.009322163 -0.13325712 0.22887865 -0.0713308 -0.20993964 0.08260827 -0.22465396 0.073477164 -0.043772236 0.120679565 0.0052734986 -0.10301078 0.094805084 -0.04998957 0.07890499 0.15810613 -0.11031919 -0.0008841733 -0.053719047 -0.023137446 0.14390746 0.06145716 -0.13642485 0.11627426 0.2868435 -0.19034967 0.07398083 0.1180018 0.22285685 -0.067469746 -0.0038493501 -0.18094932 -0.027817436 0.019443797 -0.15748182 -0.06725772 0.1856824 0.15705125 -0.015364618 0.21732196 -0.027900849
286 0.08142765 -0.047252275 -0.029334724 -0.005915213 0.03301998 0.0017448278 0.11793571 0.1458149 0.18593334 -0.17163625 -0.21371426 -0.1835551 0.0136075895 -0.038947914 -0.20612487 0.046147704 0.13931356 -0.14021467 0.17938262 -0.012734462 -0.033195604 0.080779016 -0.021707246 -0.020378703 -0.09082847 -0.030194163 -0.032428592 -0.0008826018 0.11395908 0.17385119 -0.12939253 0.08915284 -0.15831429 0.24483478 -0.0047239615 0.020568455 0.15847623 -0.27579013 -0.16828702 0.14623135 0.021505581 0.103249945 0.0054202387 -0.1510704 0.35587004 0.0141193215 0.15204066 -0.3298411 0.055619657 -0.20039919 0.15209746 -0.2365278 0.0009892911 -0.074947 -0.11876768 -0.057159748 0.3522438 -0.19205125 0.09555689 0.16577579 -0.020363715 0.04202626 0.07222859 -0.1492435 -0.13904797 0.0024893975 -0.0018489113 -0.06446109 0.12161662 0.008881389 0.14746523 -0.28773826 -0.009709103 -0.13255635 -0.13927539 -0.107628025 -0.09646283 0.08985164 0.08349449 0.103064485 -0.18761703 0.0032036654 0.086482234 -0.07133593 0.025778206 -0.02706229 0.16023903 -0.07177825 -0.13465934 0.23767334 -0.11957249 -0.112010725 0.07671019 -0.1997563 0.04772264 -0.035618227 0.060986247 0.063474216 -0.020537931 0.13874835 -0.09175626 0.07159062 0.19036844 -0.10667693 -0.026034066 -0.0017884545 0.05281898 0.15128647 0.01802947 -0.085201524 0.17199567 0.24710733 -0.110058576 0.092353016 0.13280424 0.2249227 -0.123495735 -0.012679284 -0.061123013 -0.00037622623 -0.01237431 -0.13899255 -0.1183335 0.14939141 0.15499212 -0.006729141 0.23576897 0.00598017
285 0.112764835 -0.015867306 -0.0772321 0.019799544 0.030386101 -0.081881024 0.14256862 0.20595483 0.12870783 -0.19320655 -0.24795811 -0.22331126 0.08299886 -0.09882781 -0.16077822 -0.031943515 0.107574694 -0.15878755 0.20376165 -0.09924726 -0.02871188 0.11189385 -0.054603234 -0.061159216 -0.063159086 0.009612097 -0.06775001 -0.027352491 0.19735342 0.10971569 -0.13305464 0.09662264 -0.12970382 0.2284852 -0.037237957 0.06792809 0.16966318 -0.18624619 -0.16581684 0.13227011 0.024673976 0.050104335 0.022385495 -0.16867177 0.3995226 0.03164035 0.11526251 -0.36172047 0.021198194 -0.2072818 0.18255903 -0.26866594 -0.016641898 -0.056511786 -0.112890296 -0.041656528 0.31993595 -0.15569447 0.1143534 0.16305423 0.008967822 0.10029867 0.032211646 -0.21901858 -0.12339867 0.022122752 0.046001617 -0.079558924 0.068412006 -0.06224427 0.10094662 -0.30656534 0.014162408 -0.17995569 -0.12373583 -0.15219449 -0.054949977 0.1104348 0.050528932 0.09480635 -0.20549321 -0.028894205 0.06655938 -0.016329054 0.022995593 -0.045262057 0.17394425 -0.08230278 -0.1568074 0.18054876 -0.08846243 -0.16394421 0.11849017 -0.19476482 0.022699831 -0.049653877 0.09543554 0.057741363 -0.020724801 0.104808524 -0.061281893 0.067661375 0.12156221 -0.11417035 0.0002461725 0.048550993 0.001598231 0.1566693 0.031500388 -0.09560112 0.14077675 0.24733727 -0.16781025 0.09034134 0.13694993 0.22126207 -0.11749916 -0.015727678 -0.10282749 -0.029270215 -0.0034106066 -0.17519554 -0.086067416 0.16656376 0.1834691 -0.054400604 0.2883888 -0.0140404375
204 0.20254222 -0.034150653 -0.19655845 -0.07637405 0.0641905 0.14436643 -0.17107102 -0.17083897 -0.036810193 -0.022114163 -0.0951409 0.042147044 0.15986349 -0.12074821 -0.25398937 -0.057866614 -0.15101549 -0.007845097 0.18278624 -0.06575805 -0.09685277 0.18868598 0.32885274 -0.015489569 -0.1029425 -0.08033896 -0.074989155 -0.07879734 0.08440348 0.1975831 -0.12661523 0.014908052 -0.11967056 -0.07592265 0.048404653 0.050892513 -0.08849298 -0.15591201 -0.052002594 0.074361585 -0.21668379 0.13069484 -0.07443701 -0.14628977 0.20098734 -0.034637645 0.24802656 -0.2218222 0.015021254 -0.11457849 0.104460284 -0.26461035 -0.06811183 -0.12517464 -0.22190809 -0.0068225143 0.19733565 0.017252488 0.11039045 0.16469593 -0.012943326 -0.07171125 -0.010477069 -0.08801491 -0.22288263 0.034114767 0.0100518335 -0.07357163 0.20994943 0.08538672 0.07940064 -0.20927556 -0.14753157 -0.054759715 -0.2766942 0.025230542 0.009450892 -0.21920548 0.0866339 0.18738285 -0.09283425 -0.04059735 -0.038054064 -0.25598183 -0.08450545 0.03537913 -0.028110081 -0.24422851 -0.09122598 0.19612655 -0.18194626 -0.092423156 0.03368718 -0.39190573 -0.22394572 -0.0649017 -0.11976654 0.2088155 -0.06173901 0.18610272 -0.10047861 0.01948248 -0.023659747 -0.13166472 -0.003541108 -0.050025363 0.042981602 0.12038837 -0.08143752 0.20082591 0.04263951 0.10935334 -0.040876374 0.11614826 0.13067712 0.091368236 0.042306043 0.09574844 0.087425575 0.11570816 0.14692013 -0.105482705 0.08636682 0.13523415 0.07508588 -0.049523134 0.055119846 0.04135357
18 0.11654623 0.080749184 -0.19383882 0.038678747 0.06299328 -0.011201619 0.09436134 0.044246934 0.13755845 -0.18330373 -0.2699895 -0.19318962 0.1450775 -0.002285021 -0.17517972 0.027612653 0.0612054 -0.009518031 0.07998557 -0.08558247 -0.112583645 0.13024276 0.22401114 -0.0686923 -0.14574607 -0.17190461 0.05031584 -0.031037284 0.13632184 0.15045503 -0.097972594 -0.034298077 -0.023798823 0.119173385 -0.035174556 0.07353676 -0.0070041087 -0.17156482 -0.20933342 0.045789756 -0.051152784 0.20026357 -0.0076608355 -0.052956525 0.4216716 0.0707785 0.11790765 -0.21025386 -0.03268133 -0.30726424 0.07916923 -0.22789758 0.07113575 -0.043175917 -0.07928329 0.027677484 0.39010537 -0.01679784 0.105654754 0.28885704 0.019806227 -0.07575826 -0.0031623277 -0.13260704 -0.06580708 0.028921468 0.033501826 -0.10370508 0.027498819 0.00013003191 -0.0051091095 -0.101710595 0.15863298 -0.016796743 0.020574784 -0.055706147 -0.13913399 -0.005524926 -0.09352033 0.15739559 -0.15763536 -0.04707696 0.028011909 0.052260306 0.0271373 -0.066953056 0.1434433 -0.058607686 -0.29102978 0.34003848 -0.10547162 -0.25299904 0.027620075 -0.33443573 -0.11988906 -0.15748408 -0.025618387 -0.0069269747 -0.16737175 0.111128144 -0.106736876 0.08134648 0.08678843 -0.013473849 -0.024243807 0.04480701 0.06473113 0.18273124 0.006366736 -0.21186951 -0.07813039 0.27579442 -0.2205099 0.059069365 0.069338694 0.060671568 -0.09187115 0.01699276 -0.1157596 0.09596999 -0.028113592 -0.05820641 -0.14561117 0.12609896 0.19499664 0.023349361 0.14619343 0.04843862
276 0.1350084 -0.08019848 -0.11182987 -0.011387039 0.06910849 0.094862506 -0.046587497 0.00997603 -0.09200717 -0.14071228 -0.09532177 0.10099288 0.13732685 -0.07570752 -0.251169 -0.08156757 -0.025665466 0.026503088 0.17205632 0.00948113 -0.055791043 0.08511538 0.3381474 0.05362175 -0.079968296 -0.07113256 -0.002827159 -0.03679515 0.060212143 0.14440596 -0.045913886 -0.026363378 -0.042896573 -0.048354182 -0.079836234 0.21855246 0.14079773 -0.1224681 -0.17386998 0.09628838 -0.06399418 0.11497527 -0.10694737 -0.18562025 0.36529043 0.002381114 0.16777702 -0.20139775 -0.009195474 0.00952626 0.17619613 -0.19849113 -0.1520248 -0.04357068 -0.1771755 0.080258034 0.18039958 -0.074943446 -0.028046804 0.042392522 -0.061045837 0.029789986 0.024587665 -0.015082038 -0.32890517 0.022212833 0.022630805 -0.058533166 0.16773152 -0.01995539 0.019950014 -0.2758839 -0.023427622 -0.010925244 -0.16343226 -0.044229288 -0.11264565 -0.14054981 0.017684374 0.1306007 0.01916547 0.0084550055 -0.06912268 -0.043858066 0.10425879 -0.007125928 -0.016753616 -0.26384413 -0.18366541 0.20600557 -0.09480366 -0.12662643 0.04604336 -0.23841067 -0.21642534 0.0339868 -0.119315155 0.31023934 0.004504104 0.22902371 -0.04589948 0.06596764 0.082608216 -0.16174623 0.06696195 -0.16519965 -0.1261433 0.03481368 -0.16981618 0.056988973 0.055285756 0.018460825 -0.07557233 0.15520588 0.030616993 0.18499687 -0.04267543 0.08373921 -0.07073574 0.09162367 0.021073816 -0.029229853 0.1139276 0.121919304 0.07001072 -0.08351787 0.21310145 0.18981153
587 -0.0117704095 0.07021577 -0.20119208 -0.04514181 0.0795236 -0.026113583 0.036357254 0.054722637 0.005533437 -0.14125681 -0.26564288 -0.11958943 0.14726374 -0.13719818 -0.1669144 -0.04886372 0.17455159 -0.14163646 0.27290457 -0.08896872 -0.0348646 0.20950162 -0.024126548 -0.037123658 -0.14935258 -0.1520388 0.030375693 -0.14345224 0.16923445 0.113518454 -0.099066965 0.032716542 -0.04689171 0.25710425 -0.049654365 -0.043740854 0.14943163 -0.20848387 -0.14770013 -0.0110121695 0.15456714 0.06999941 0.0019356224 -0.11593011 0.2626486 0.04261844 0.27785802 -0.23485573 0.05475271 -0.06275959 0.15143748 -0.337148 0.023686843 -0.0718364 -0.13077869 0.037286974 0.29905534 -0.10463143 0.06459406 0.11663551 0.020710452 0.017211463 -0.0023484768 -0.11251156 -0.1335653 0.06022061 -0.06577255 -0.08184026 0.07837819 -0.01659958 0.1319255 -0.27815986 0.0743443 -0.13461265 -0.022683062 -0.099254124 -0.04798307 0.18754844 0.03402387 0.09958804 -0.25174895 -0.0017538384 0.13587777 0.069800176 0.073892 -0.103317276 0.13259108 -0.066163935 -0.21077204 0.31489724 -0.094411485 -0.1617058 0.023007795 -0.22944939 0.06920404 -0.16037032 -0.005170551 0.06676468 -0.09592457 0.01927648 -0.04096489 0.2243478 0.046231657 -0.053820055 -0.043801382 0.00016388984 0.0855972 0.14218025 0.124444924 -0.26703852 0.037499208 0.31922245 -0.19673738 0.0067619327 0.09765232 0.015221284 -0.12794153 0.01518275 -0.08523484 0.00972827 -0.090286635 -0.119922064 -0.07437645 0.04975 0.14568266 -0.021105759 0.221504 -0.009888132
131 0.07614758 0.011189481 -0.19550323 -0.06814844 0.13168882 0.101475336 0.004863848 -0.1634268 -0.012326586 0.020660844 -0.08426183 -0.11766423 0.038322665 -0.20641515 -0.09361266 -0.055306714 -0.099654295 -0.013404059 0.07038999 0.0227955 -0.086939305 0.1412508 0.2591476 0.007947672 -0.32034144 -0.13792068 0.0917943 -0.14640677 0.2018634 0.048852596 0.18180758 0.042770553 -0.052482117 -0.09792671 0.17260127 0.061703224 -0.021607265 -0.21997564 -0.23990428 0.088821664 -0.02732585 0.147303 -0.117759615 -0.028447242 0.10041009 -0.015961334 0.09883588 -0.2265517 -0.03522022 -0.13703346 0.051809274 -0.26240963 0.1844166 -0.08211076 -0.09440814 -0.045219712 0.27846918 -0.1626803 0.09498728 0.12422945 0.023191532 0.058857262 -0.023121905 -0.07227614 -0.25414154 -0.14036863 -0.20723505 -0.05040787 0.13622126 0.13223116 -0.021646256 -0.28278336 -0.10155893 -0.14404006 -0.1334833 -0.18183224 0.16111453 0.06204961 -0.03449587 0.23730282 -0.39923412 -0.065501235 -0.04296441 -0.17689517 -0.13927236 0.053217318 -0.009344709 -0.11182887 0.11779394 0.10083187 -0.07569836 0.03894789 0.054133836 -0.35801435 -0.14022076 -0.100853965 -0.15022309 0.1328482 -0.12960923 0.2187341 -0.08300751 0.04681973 -0.055332642 -0.014473794 -0.025474356 -0.16724688 0.26545537 0.035758946 -0.21507455 0.021301199 0.13260697 0.2951962 -0.20463121 0.18940505 0.16158296 -0.13411461 -0.029214889 -0.019994194 -0.01992236 -0.002825766 0.01917134 -0.2645949 0.19873384 0.057395257 0.009320533 -0.033599526 0.35534993 -0.07270463
1100 0.17072687 -0.062504135 -0.226438 -0.070541196 0.12377375 0.031915225 -0.02392954 -0.12085238 -0.054433003 -0.1601198 -0.2853746 -0.117405586 0.2762058 -0.13286304 -0.3445759 -0.21305153 0.0050824643 0.045961887 0.24548149 -0.12196975 -0.021860281 0.30563575 0.18707332 0.12069482 -0.14635885 -0.080763586 0.046643984 -0.06717486 -0.003011369 0.091352455 -0.068316475 -0.0080501875 -0.1026878 0.04811548 -0.05385502 0.09334173 0.050695874 -0.061391924 -0.14184849 0.1519666 -0.054718174 0.086893484 0.044823393 -0.110841334 0.19104673 -0.062315192 0.053210728 -0.17479488 -0.040330775 0.013104509 0.24194364 -0.26895446 -0.057616666 -0.05580735 -0.11220656 0.09700763 0.1869309 -0.13244697 0.097023375 0.049260512 -0.059633832 0.032414112 0.072570875 0.06335323 -0.34767643 -0.00010395677 -0.014284074 -0.048109334 0.032042302 0.07453342 -0.09426135 -0.15325469 0.023296028 -0.05765173 0.012437962 -0.15004997 -0.15111117 -0.08403872 0.053801518 0.24013202 -0.089839205 -0.047375225 -0.14845212 0.043053612 0.11745079 -0.05663151 0.1522703 -0.11298663 -0.18573008 0.22605169 -0.13645485 -0.21578582 0.043705903 -0.26650423 -0.05559291 -0.044722024 0.10944138 0.10419232 0.06833434 0.076718144 -0.038179096 0.038502138 0.0093284035 -0.075440824 -0.049833074 -0.02780897 -0.13539357 0.11510143 -0.01995685 -0.041203115 -0.18392502 0.18447998 -0.0129680745 0.06605029 0.09475367 0.18403533 -0.15122187 -0.049755875 -0.1346416 0.030365426 0.032743704 -0.10050152 0.082619235 0.17902344 0.09246766 -0.18823789 0.1921503 0.026404083
973 0.10283014 -0.03796752 -0.21983963 -0.07356686 0.042414136 -0.084100105 0.03907283 -0.1299053 0.04741392 -0.108386345 -0.35183606 -0.0020594064 0.27184397 -0.03872714 -0.22623357 -0.18639444 -0.006840395 -0.0052927677 0.35850346 -0.051256653 0.066445276 0.17176597 0.26079598 0.095678136 -0.09624345 -0.09205024 0.12921019 -0.050128613 -0.09245187 0.13867077 -0.06946643 -0.041396912 -0.046464045 0.055057626 -0.104004525 0.13419428 0.07556726 -0.067478694 -0.20152181 0.11975638 -0.108779386 0.07767385 -0.015307616 -0.088390596 0.30408603 -0.07475345 0.071315154 -0.13367827 -0.085645996 -0.011998041 0.3172946 -0.1470816 -0.16519348 -0.11551723 -0.11364761 0.0016416048 0.16458194 -0.11257403 0.15537456 -0.044679955 -0.013148118 0.09713991 0.11556882 0.08498944 -0.258097 0.033250116 -0.0068334686 -0.028607924 0.11683167 0.1645558 -0.053156324 -0.09307536 0.05424301 0.09678506 0.049989104 -0.1590651 -0.19703288 -0.11561906 0.0021327473 0.034560125 -0.10411801 0.1287169 -0.12669629 0.023013227 0.1749299 0.012846126 0.049652793 -0.04193992 -0.13415909 0.2657069 -0.17859834 -0.18078235 0.050331924 -0.29196817 -0.08971047 -0.04147181 0.15718837 0.13894512 0.012003924 -0.021030823 0.029745353 0.10977424 -0.08043478 0.08985449 -0.0635649 -0.10765722 -6.4478016e-05 -0.0020142957 -0.10840835 -0.065458715 -0.2061778 0.18003969 -0.046973817 0.11915815 0.11332923 0.32885036 -0.17383128 0.061304484 -0.07452069 0.047143232 0.057820972 -0.060449883 0.038348854 0.16854149 0.15669851 -0.028758332 0.17363143 0.19434716
110 0.24386016 0.0539792 -0.07803939 0.13760827 0.042539034 0.020699503 0.1458603 0.15517223 -0.017594352 0.0062500495 -0.09131954 -0.14024383 -0.084877 -0.04262685 0.086797975 -0.15403219 -0.06389005 0.0160857 0.16914664 0.07922708 -0.033946328 -0.00023374872 0.3333982 0.002661168 -0.114005424 -0.13980012 0.024436794 0.16429682 0.26977256 0.21466415 0.025287908 0.10334837 -0.07310676 -0.07173844 -0.07517345 0.05278168 -0.04263931 -0.29551542 -0.47640863 -0.056214422 -0.1669406 0.1385967 0.03543461 -0.051946748 0.5103976 -0.038663458 0.007309502 -0.16123514 -0.0751586 -0.33544508 0.19014454 -0.07837574 0.09392483 -0.124571405 -0.042843252 -0.13584961 0.3163876 -0.06363127 0.15904137 0.32704136 0.019299397 0.21942413 0.05123197 -0.2511466 -0.10784645 0.067770466 0.09869351 -0.13314667 0.1274731 0.06916109 -0.13689366 -0.2645241 0.11363179 0.03529 0.0034919812 -0.064483285 0.036003303 0.039201275 -0.112114236 0.0011432444 -0.18601085 -0.13547254 0.11232056 0.05003391 -0.048993703 0.013272989 0.13575435 -0.047571823 -0.11849518 0.1705243 -0.18223713 -0.2493484 0.06991967 -0.3621581 -0.116623044 -0.1133302 0.04160442 0.19383077 -0.1444216 0.0857897 -0.030149285 0.03448257 -0.0062321965 0.03903533 -0.12685005 -0.022506855 0.2126007 0.11274893 -0.05653503 -0.13352571 -0.0041418197 0.13542914 -0.32340518 0.27489033 0.17122623 0.17652202 0.027214278 0.11524842 -0.037268024 0.009880064 0.07477614 -0.13812561 0.07098363 0.046736367 0.13274546 -0.08316023 0.28130934 0.03550457
144 0.0143267205 -0.0017331984 -0.2203804 -0.15012993 0.13204885 0.05982301 -0.05399505 -0.13787714 -0.11360372 -0.12002476 -0.33867335 -0.14217414 0.2722767 -0.1419591 -0.25187925 -0.024479205 0.03431888 -0.01470724 0.15986647 0.037185833 -0.047929354 0.2559273 0.24247584 0.0267816 -0.11997178 -0.2782807 0.060480416 0.016009828 0.03676224 0.05185804 -0.100289345 0.019838752 0.034269992 0.05723154 -0.078623325 0.05500259 0.023447828 -0.14193718 -0.18935037 0.05863107 -0.038197096 0.1487441 -0.17625877 -0.10546388 0.11406157 0.03125742 0.3039804 -0.23237622 -0.029502288 0.0021220567 0.19000578 -0.2029588 -0.21176316 -0.1251083 -0.18395251 0.046711445 0.26192862 -0.17782593 0.023666754 0.053847514 0.036797002 0.120682396 0.15521859 -0.09415525 -0.2993325 -0.04755031 -0.0039196117 -0.04421881 0.13988227 0.12582357 0.09695028 -0.15827 0.049599674 -0.015988493 -0.14731245 -0.10684822 -0.13356027 -0.13372299 0.13491347 0.12550305 -0.09383893 0.033394568 0.021227373 -0.03951328 0.07626212 0.021257255 0.120691806 -0.09442157 -0.062424835 0.29428303 -0.0753781 -0.10814883 0.019598477 -0.2520423 -0.09128561 -0.0483757 0.0049377047 -0.03229719 -0.040451273 -0.036783174 -0.0155406585 0.17962824 0.038175553 -0.10679535 -0.06271488 -0.1195671 -0.034734424 0.089127906 -0.104638696 -0.073356174 -0.007970679 0.14110617 -0.19058594 0.15396222 -0.024722515 0.07893281 -0.116791844 0.016236162 -0.03166653 -0.010058935 -0.059203036 -0.15840302 -0.019276097 -0.015235703 -0.052098628 0.0475113 0.05166762 0.15272252
205 0.1575371 0.0217728 -0.22801995 -0.09818167 0.055138394 0.031880673 -0.12729548 -0.04093367 -0.030124543 -0.31034458 -0.2617719 -0.12388606 0.26369968 -0.08255239 -0.35745475 0.04480603 -0.0058996663 0.109767206 0.1370748 -0.052038673 -0.14120273 0.3221773 0.32891154 0.03813949 -0.22696768 -0.2519654 0.15179762 -0.10984302 0.07594877 0.053199306 -0.07131801 0.051301274 0.0053191953 -0.020935941 -0.1250866 0.08979293 0.06642865 -0.12903927 -0.047931135 0.14559281 -0.012118367 0.2055201 -0.18679753 -0.066223584 0.15772992 0.059515145 0.1853351 -0.19894828 0.028178487 -0.016312798 0.20247819 -0.32026297 -0.026381657 0.008935479 -0.10950627 0.16202214 0.26965314 -0.07732128 0.057163075 0.15762301 -0.026546549 -0.007276603 0.092211545 -0.008041026 -0.16046652 0.047760334 -0.09274725 -0.08956761 0.10728243 0.11566346 -0.037604023 -0.122258976 0.03740536 -0.03448415 -0.11539034 -0.054824147 -0.1382126 -0.03663276 0.035895567 0.24560744 0.0043254085 -0.07772995 -0.05956058 0.021408724 0.09422997 -0.04354979 0.007461139 -0.12298504 -0.1692902 0.14756535 -0.065618806 -0.17458762 0.052919846 -0.34902647 -0.1480098 -0.052610207 -0.06574589 0.14378044 -0.07650874 0.078852035 -0.04489927 0.07885451 -0.051796522 -0.054074746 -0.07281501 -0.043427076 0.00016924388 0.06948638 -0.12567699 -0.13879573 -0.13686568 0.17885333 -0.0873068 0.032128356 -0.01173706 -0.042928096 -0.14200923 -0.0012603586 -0.038339384 0.17709522 0.02517886 -0.012526576 -0.0064561204 0.1910844 0.13410628 -0.074916326 0.1468983 0.08424906
398 0.07688582 0.0419115 -0.29633352 -0.08898026 0.06660996 0.032297138 0.083838135 -0.14660762 -0.10983216 -0.06897879 -0.18460009 0.022647925 0.12374807 -0.022614855 -0.17669928 0.0032343497 -0.0693297 -0.023613214 0.042904902 -0.06861798 -0.026818702 0.17835712 0.11953985 -0.0020490263 -0.0071636485 -0.068379916 0.02561482 0.009444494 -0.050345767 0.06703442 0.040707834 -0.058746338 0.056803882 -0.13075915 -0.17283826 0.01934604 0.16131935 -0.024196906 -0.06576111 0.05564927 0.0836093 0.20574175 -0.2253049 -0.10236477 0.3127627 -0.025519192 0.32693496 -0.12846318 -0.014735802 -0.014734082 0.18721947 -0.1938164 -0.024581334 -0.13336939 -0.28775972 -0.057184722 0.23577331 -0.09424376 -0.04082377 0.20658831 -0.039407607 -0.12651221 -0.13141169 -0.12488671 -0.1514351 0.00975209 -0.0037657137 -0.06646009 0.11822567 -0.05203309 -0.04992004 -0.024971945 0.044817552 0.0042127185 -0.12536606 -0.024344716 -0.004957613 -0.12598658 -0.24362609 0.066133074 -0.123167835 -0.006298323 -0.09790515 -0.08397666 0.06189988 -0.0020184207 0.056260604 -0.14603086 -0.1631424 0.28988957 -0.11807472 -0.11646708 -0.060640264 -0.21002585 -0.17038132 -0.07902298 -0.062339593 0.18962999 -0.061938442 0.16449593 0.04552624 0.17520474 0.019750327 -0.06019472 0.0411267 -0.07471088 0.109862745 0.21536162 -0.10891771 -0.038001526 -0.11323819 0.2108618 -0.20527923 0.17133382 0.056562457 0.13826245 -0.080442116 0.25350493 -0.2068758 0.13833657 -0.071513556 -0.1634581 0.0034572233 0.1876083 0.18429178 0.0033268014 0.32723656 0.17926079
196 0.11326551 -0.04393947 -0.17916648 0.06477186 0.20039962 0.025477082 0.07298435 -0.0119255725 -0.029029483 0.033979084 -0.124915384 -0.060320165 0.08966834 -0.16174819 -0.14912051 -0.19322939 0.00020180666 -0.09700257 0.33166713 -0.020123387 0.05826197 0.0564357 0.16968754 -0.117241815 -0.064167365 -0.0802574 -0.04449977 0.03772639 0.12790228 0.20520398 -0.15289669 -0.011790296 -0.18919572 0.123804264 -0.020671673 0.02579296 0.11605291 -0.18827146 -0.35920173 0.010607466 -0.22098164 0.049826726 0.077245 -0.24486387 0.480173 0.022522334 0.20423383 -0.30739048 -0.03385451 -0.16774416 0.20380321 -0.15381633 -0.07910127 -0.03602099 -0.17888992 -0.04779141 0.25889087 -0.12923974 0.12773553 0.05974889 -0.0070482534 0.122322924 0.089798875 -0.20408423 -0.29540777 -0.0025609778 0.19006509 -0.034290045 0.22776064 -0.042743593 0.07685243 -0.34638596 -0.013691482 -0.03239322 -0.058773253 -0.16311195 0.026929896 -0.071114786 0.16070738 -0.02830627 -0.13128735 0.10202958 0.07080013 -0.19245608 -0.0026848018 0.020145107 0.14793624 -0.02760722 -0.11095779 0.19129544 -0.11542504 -0.196043 0.08070432 -0.20672755 -0.08191253 -0.09224374 0.11148802 0.12981847 -0.12591702 0.045375682 -0.0955955 0.07187733 0.10353906 -0.042581916 -0.10262541 -0.069353364 -0.046048954 0.060836118 -0.054666672 -0.018994585 0.08842495 0.06843577 -0.15450269 0.105101734 0.046191897 0.24402124 0.19831197 0.08830308 0.06265767 -0.1270362 0.097036235 -0.12775876 0.09997466 -0.13077955 0.03793086 -0.04765229 0.2051348 -0.014910373
