34 128
34 0.008887242 0.12632243 0.03377184 0.22399074 -0.03774536 0.0672644 -0.14406586 -0.13687983 -0.083623186 0.12742542 -0.014669517 0.058710735 -0.0288085 0.09442301 -0.027549544 0.06471037 -0.022342784 0.04240762 -0.045545187 0.08510947 0.011779067 -0.1404646 0.1414446 0.0060553933 -0.15300012 0.061338935 -0.11814448 0.035469852 0.17250705 -0.022301015 -0.037467625 -0.12602942 0.028069042 0.025110725 0.101459935 -0.25665733 -0.06119716 0.10038897 0.005157784 0.23889653 -0.10811722 -0.110188864 0.26623958 0.16274168 -0.021128895 -0.028924106 0.025945954 -0.035634268 -0.14870332 -0.08931846 0.073163874 -0.14554584 0.055872858 -0.14730236 -0.078492105 0.038955834 -0.11935737 0.047575798 -0.053216413 -0.041613508 0.03539743 -0.10731844 0.11907346 0.10825161 0.23824783 -0.05550201 0.005472723 -0.09546939 -0.0007681643 -0.03286252 -0.28562543 0.05752088 -0.013586831 -0.25748804 0.06933512 -0.1258179 -0.01999319 -0.025508678 -0.10150649 -0.16370374 0.0063965693 -0.046912406 0.10359347 0.05628985 -0.04942077 -0.046245348 0.030140711 -0.05761639 -0.03145925 -0.039190732 -0.09372451 -0.040045444 -0.023989838 -0.11221395 0.114866644 0.032997895 -0.049607176 -0.12826067 -0.11463904 0.09728282 -0.17366764 -0.04034335 -0.012251356 -0.053483438 0.040590458 0.16678543 -0.051325478 -0.11612648 0.17562947 0.042846248 -0.17018247 -0.017109208 0.024209363 0.09936185 -0.09842161 0.15969814 0.0275922 0.07246951 0.029722003 0.10259951 0.07079018 0.19696961 -0.07855166 0.12594464 -0.33814478 -0.15404727 -0.030068789 0.025319165
1 -0.020414306 0.06160569 0.02103871 0.19516712 -0.018654631 0.010103398 -0.038904104 -0.15698369 -0.10730029 0.10275721 -0.06933898 0.009471359 -0.053850442 0.109602824 -0.0017507635 0.052977175 -0.009579135 0.059018284 0.0022432832 0.07416245 0.04190694 -0.0893919 0.10507304 -0.026707405 -0.18154657 0.050531253 -0.08412083 0.016472427 0.12986799 -0.04370786 -0.07629077 -0.08670433 0.07197871 0.008319507 0.08557792 -0.14645775 -0.031967275 0.04901158 0.06738927 0.21270745 -0.06295554 -0.11441089 0.3129065 0.068832055 0.027361961 0.0076487632 0.09403517 -0.055739854 -0.12890999 -0.020606076 -0.006608632 -0.06182321 0.047078058 -0.11888252 -0.037353367 0.0044289837 -0.14993362 0.047890168 -0.021534957 0.013270667 0.06996473 -0.19007742 0.08573767 0.057915606 0.17419879 -0.049887877 -0.12554929 -0.12169663 0.042218115 -0.044196066 -0.28385633 0.01842146 -0.06578783 -0.2338886 0.070556454 -0.17163481 -0.047620054 -0.0917001 -0.10166447 -0.18542396 -0.06845239 0.0085688345 0.18389444 -0.036001455 -0.104481675 -0.058722794 0.010923935 -0.06824759 -0.011082057 0.047365613 -0.096645564 -0.19457884 0.01057703 -0.13291152 0.032729913 0.043731842 -0.016578112 -0.13855594 -0.22366261 0.13334195 -0.11960818 -0.08280865 -0.06498292 0.0056720637 0.121541396 0.15353358 0.00973062 -0.08206123 0.17292504 0.052737582 -0.12269754 -0.0025348715 0.022556083 0.06319842 -0.15425484 0.12917684 -0.030822402 0.036526985 -0.015370245 0.037125904 0.17024426 0.3042264 -0.13661826 0.10126954 -0.3745365 -0.09895298 -0.08907425 0.047843337
33 0.010022145 0.11933871 0.037807733 0.21642612 -0.03768581 0.07280391 -0.15349753 -0.13236609 -0.07698473 0.13814685 -0.00016007575 0.06526696 -0.02847437 0.08749031 -0.025432281 0.070604354 -0.0195289 0.035895698 -0.05200165 0.083954096 0.010141432 -0.14114074 0.14997214 0.011874325 -0.14294143 0.05977628 -0.1220471 0.04352763 0.1819567 -0.024969803 -0.04012869 -0.13441476 0.030251743 0.030774374 0.097283125 -0.26699403 -0.06313956 0.09575689 -0.006207108 0.23628457 -0.10828963 -0.109387785 0.25888857 0.17299029 -0.026560212 -0.033883486 0.023242693 -0.027612576 -0.13964412 -0.09670956 0.08407299 -0.15575247 0.056613233 -0.15220502 -0.08226049 0.03273344 -0.10848828 0.049142342 -0.054244343 -0.045973852 0.032284975 -0.09552451 0.1147639 0.1128043 0.23406982 -0.049458828 0.019650076 -0.089502394 -0.005395814 -0.031446505 -0.27192536 0.061929416 -0.0040108752 -0.24967349 0.0666238 -0.12143325 -0.0147304945 -0.021259442 -0.10089417 -0.15328021 0.013549386 -0.054722674 0.09964761 0.057631496 -0.042489465 -0.049116373 0.025322735 -0.055253074 -0.031973645 -0.043083146 -0.08696456 -0.022543656 -0.027547508 -0.106068276 0.119687386 0.030392515 -0.052636113 -0.12069736 -0.10484703 0.09341299 -0.17357254 -0.031454645 -0.0076112617 -0.05966012 0.030919176 0.16907208 -0.05910776 -0.117948174 0.17249958 0.03493279 -0.17276952 -0.020173214 0.023914233 0.100228935 -0.100960135 0.16539983 0.03061384 0.07478091 0.032684043 0.110818036 0.06377004 0.18823475 -0.074144796 0.13218026 -0.33635926 -0.15687492 -0.02924217 0.016347239
3 -0.004305291 0.09721782 0.027381957 0.2107141 -0.031304996 0.0448607 -0.09461807 -0.14402597 -0.09438201 0.12102019 -0.04191524 0.03640777 -0.040765412 0.106027074 -0.014004748 0.06291806 -0.013631891 0.05060757 -0.028050931 0.07706255 0.028695041 -0.12337688 0.13127635 -0.012865933 -0.16626355 0.058576293 -0.100973114 0.03277588 0.15113346 -0.035072967 -0.055875324 -0.11076397 0.05477725 0.017208098 0.093235195 -0.21144307 -0.044644613 0.08087073 0.035367362 0.22577535 -0.08765322 -0.108039066 0.28368458 0.12662537 -0.000739343 -0.010312079 0.05789247 -0.045724943 -0.13725714 -0.06198808 0.035176694 -0.105858825 0.054520473 -0.12973604 -0.054672897 0.025112906 -0.12766565 0.04751975 -0.037338518 -0.017681884 0.053330954 -0.14128008 0.10097233 0.078371204 0.20722799 -0.043063443 -0.050077762 -0.10669826 0.02528465 -0.031785075 -0.280082 0.045868155 -0.040996667 -0.23428899 0.06797837 -0.14718989 -0.03006481 -0.059099995 -0.099457406 -0.16990605 -0.02879738 -0.026698219 0.1407999 0.011959409 -0.077044874 -0.04725806 0.018002653 -0.055999935 -0.022320474 0.006598214 -0.09824337 -0.10459015 -0.015605847 -0.112769805 0.080171645 0.03744564 -0.031431742 -0.13095526 -0.158218 0.10681147 -0.14629474 -0.056634884 -0.038692206 -0.027149528 0.07998818 0.15623938 -0.02846212 -0.100148685 0.17338747 0.04042326 -0.14552005 -0.01715475 0.02060645 0.08311451 -0.115471974 0.14834747 0.004996859 0.054015003 0.011544742 0.072116785 0.11976054 0.25240877 -0.10393449 0.11522401 -0.3604974 -0.12388857 -0.062015984 0.03151845
2 -0.006091293 0.08589341 0.023126341 0.19468106 -0.022901436 0.034110162 -0.0835985 -0.1442886 -0.0953086 0.121236496 -0.044466168 0.03187488 -0.046307344 0.10434928 -0.021212768 0.06138283 -0.011604067 0.051725097 -0.0236153 0.076101586 0.033819884 -0.12251881 0.126946 -0.011561644 -0.16369572 0.060438227 -0.09700629 0.03438111 0.14971188 -0.035725478 -0.06027816 -0.09904193 0.05204707 0.017655957 0.090983674 -0.20342772 -0.04327713 0.0774257 0.038688187 0.22062773 -0.094943546 -0.10380653 0.28991202 0.119189024 0.0030288128 -0.004610574 0.060897447 -0.05070265 -0.1411897 -0.055611487 0.031918045 -0.100870535 0.055217266 -0.12425924 -0.051690534 0.022889206 -0.13091461 0.04649741 -0.03843455 -0.01787294 0.065529756 -0.14558926 0.105695434 0.08094978 0.21476543 -0.04227515 -0.057022102 -0.11287123 0.028313326 -0.03904812 -0.28793284 0.04045223 -0.03787788 -0.22491321 0.06386947 -0.1484596 -0.03740812 -0.067813836 -0.1004633 -0.17412476 -0.023892323 -0.02408919 0.14752905 0.007060207 -0.077318124 -0.043304414 0.022672297 -0.058055464 -0.01942911 0.012533539 -0.08715739 -0.10818184 -0.013472602 -0.106947616 0.07661486 0.032334685 -0.034008298 -0.12537298 -0.17341003 0.11139971 -0.1432218 -0.06356613 -0.036966044 -0.029274674 0.08952662 0.1558042 -0.028435994 -0.09422666 0.18314388 0.044001333 -0.1443617 -0.015333644 0.023818113 0.0801092 -0.12458271 0.15029462 -0.003786408 0.055133775 0.011655344 0.07108969 0.12623616 0.2658555 -0.109120116 0.11729033 -0.3709823 -0.12665413 -0.06699863 0.028737135
32 0.0039752237 0.11036187 0.02857435 0.19769967 -0.0299044 0.05999143 -0.12818228 -0.12893517 -0.082926355 0.12255951 -0.022648012 0.046123937 -0.02680265 0.0950061 -0.024569679 0.059968796 -0.021461835 0.046666913 -0.034493975 0.07741085 0.019585066 -0.13222396 0.12813812 0.0026936699 -0.14255294 0.05118374 -0.10780663 0.038230248 0.15393053 -0.01989019 -0.041418366 -0.11061533 0.036032435 0.022570416 0.086228214 -0.23613068 -0.058438282 0.09070387 0.013501058 0.2167826 -0.099710174 -0.103045695 0.25216496 0.13905177 -0.012764157 -0.022570437 0.028334033 -0.036227252 -0.13862285 -0.0769829 0.05876979 -0.13010032 0.050004166 -0.12913679 -0.0625378 0.033601332 -0.11863871 0.04415502 -0.051100116 -0.026573298 0.04259918 -0.11395249 0.1118801 0.087096624 0.21853012 -0.046983268 -0.014325301 -0.091307044 0.011226606 -0.027937986 -0.26304194 0.0541744 -0.023583308 -0.23644333 0.05995606 -0.12334386 -0.026337473 -0.039205045 -0.094607405 -0.15716204 0.0026377693 -0.0329575 0.10719952 0.04392665 -0.055673804 -0.042578146 0.02528466 -0.055242077 -0.025860317 -0.0262141 -0.08956556 -0.053384352 -0.025486153 -0.10819481 0.102337256 0.03188381 -0.038593233 -0.12275324 -0.11742042 0.09225954 -0.16287532 -0.044987023 -0.013552362 -0.049451597 0.0439112 0.15146337 -0.045586757 -0.10594575 0.16459516 0.04287421 -0.15684111 -0.01503391 0.02480867 0.09424104 -0.103890084 0.1449084 0.017114202 0.064805485 0.02346792 0.088411845 0.07600394 0.20058998 -0.08318289 0.12159505 -0.33433035 -0.13818319 -0.032410968 0.025228448
4 -0.010646437 0.0867662 0.027575511 0.20498344 -0.029545061 0.02688265 -0.07444061 -0.15639484 -0.10449509 0.11556211 -0.058014624 0.030413652 -0.053413134 0.11804657 -0.010541831 0.05877253 -0.019325495 0.058761537 -0.012594136 0.081140526 0.037210457 -0.12018356 0.13177021 -0.019810185 -0.17993797 0.05866026 -0.10109161 0.028303089 0.15079619 -0.037258755 -0.07006721 -0.101927936 0.06599638 0.01676044 0.096031114 -0.1961223 -0.035233967 0.069459684 0.055146985 0.23643462 -0.085311465 -0.11536439 0.31830466 0.113662496 0.009356025 -0.007086008 0.0721696 -0.055257954 -0.14442806 -0.04575711 0.025492793 -0.096258216 0.05084441 -0.13031255 -0.054862916 0.022769326 -0.15125678 0.049288936 -0.042589784 -0.013158239 0.06711989 -0.16940027 0.105758965 0.07154753 0.21363518 -0.04290017 -0.07635304 -0.12085649 0.03208579 -0.035081718 -0.29728046 0.04196447 -0.050798573 -0.23242976 0.06686813 -0.16196896 -0.035431165 -0.06996821 -0.09531151 -0.18106268 -0.039655276 -0.014400921 0.15818112 -5.9686026e-06 -0.08770313 -0.04402861 0.010557565 -0.063909195 -0.017532913 0.027157709 -0.10041195 -0.14010757 -0.008251948 -0.1092731 0.060062423 0.040278003 -0.02572447 -0.13127474 -0.18550383 0.11467489 -0.13647695 -0.07370573 -0.049258053 -0.018883996 0.1035065 0.15617877 -0.017550103 -0.09509197 0.18115921 0.046038505 -0.12712058 -0.011650861 0.024412857 0.0788706 -0.12599988 0.13708545 -0.007361004 0.054661904 0.0006067868 0.066300616 0.13978717 0.2766491 -0.11771342 0.11321222 -0.37338862 -0.11440696 -0.07392728 0.035021443
14 -0.007523464 0.08936445 0.023792008 0.20579055 -0.02818018 0.035840455 -0.08521382 -0.1485225 -0.096539564 0.11669316 -0.042591445 0.031101085 -0.046135977 0.108505584 -0.016497238 0.055992063 -0.017706225 0.053591892 -0.017410617 0.075008385 0.03238547 -0.11816457 0.12780733 -0.009540333 -0.16810213 0.056824457 -0.10050999 0.03309939 0.14937064 -0.034643076 -0.06624303 -0.10219843 0.055493042 0.017272105 0.09340709 -0.20436795 -0.042953514 0.07435539 0.043717183 0.22824025 -0.08101847 -0.1149565 0.29590237 0.11014366 0.010999348 -0.013351533 0.0629272 -0.045155533 -0.13757293 -0.052652612 0.026558226 -0.10428379 0.048825264 -0.13107602 -0.05590515 0.019287258 -0.13588348 0.052869093 -0.03898409 -0.015205443 0.06021434 -0.15782277 0.09709247 0.08077376 0.20578046 -0.048909824 -0.06809318 -0.111940995 0.029439582 -0.034514997 -0.2904519 0.03926584 -0.048795063 -0.24254654 0.06777098 -0.15485904 -0.031933542 -0.06599219 -0.09956063 -0.17622036 -0.031683654 -0.016484525 0.15239717 0.007378064 -0.07769185 -0.052309018 0.016661054 -0.060281485 -0.015088543 0.008989468 -0.09445513 -0.12283017 -0.0045214584 -0.11592276 0.069091275 0.040434286 -0.0325063 -0.1303996 -0.17436627 0.11200333 -0.14002892 -0.067661904 -0.0416559 -0.019852225 0.08898861 0.15907572 -0.023136664 -0.098912805 0.17659655 0.04248525 -0.13838728 -0.015499653 0.020486915 0.07697297 -0.12715523 0.14073914 -0.0067823124 0.056758728 0.009057232 0.06487799 0.1268791 0.26279885 -0.10986845 0.11696945 -0.36761636 -0.1209705 -0.06461913 0.033915468
24 0.010958441 0.11646466 0.04078659 0.21393576 -0.038087517 0.06444707 -0.14888167 -0.12659283 -0.0826794 0.1323792 -0.0038524268 0.054721635 -0.029127449 0.09183718 -0.031613864 0.06262346 -0.012882229 0.04187585 -0.052135266 0.0785547 0.0067233145 -0.14158645 0.13934804 0.010855973 -0.15411465 0.055521797 -0.12454093 0.039065897 0.1760423 -0.02223974 -0.033176187 -0.12969092 0.028930023 0.02699535 0.10191047 -0.2656637 -0.07023456 0.097993545 -0.0021171365 0.2360914 -0.111382075 -0.11313877 0.26315108 0.16807775 -0.023175478 -0.02790981 0.025050668 -0.03503093 -0.14227363 -0.091739 0.0783762 -0.15392977 0.05689677 -0.1503736 -0.073281325 0.039528575 -0.11134679 0.05418676 -0.046364475 -0.03675155 0.034225915 -0.10305453 0.11808771 0.11388739 0.23898989 -0.057500165 0.012552804 -0.094383545 -0.0014816506 -0.028040832 -0.28114417 0.059633296 -0.0075753448 -0.2572362 0.07275851 -0.12503777 -0.022728834 -0.026355466 -0.10926919 -0.16021048 0.009621098 -0.04372557 0.10740406 0.05909382 -0.04805301 -0.04460321 0.030952793 -0.05186809 -0.0353137 -0.043917082 -0.09087937 -0.03958873 -0.024250034 -0.11825467 0.12115262 0.035285912 -0.051740803 -0.1280874 -0.11331093 0.104504436 -0.18267371 -0.03668257 -0.0051138294 -0.05759978 0.034109477 0.17345035 -0.06257646 -0.12201353 0.18130913 0.045831963 -0.18502046 -0.019457422 0.029238623 0.1044484 -0.108577564 0.1720544 0.036113355 0.07308079 0.030851422 0.10748979 0.06796495 0.2033407 -0.080707796 0.14284314 -0.36038864 -0.1602986 -0.029539134 0.026107842
7 -0.01904547 0.050500467 0.009771628 0.18385991 -0.016624305 0.0136346165 -0.020718345 -0.15321925 -0.10848838 0.10783297 -0.0750942 0.010094598 -0.059910085 0.11965291 -0.0011938087 0.0465461 -0.01266092 0.061145894 0.01015987 0.07236572 0.038351197 -0.077336386 0.10823637 -0.038086668 -0.18432663 0.042764634 -0.07495202 0.0117681585 0.1203974 -0.04221173 -0.08682792 -0.09120821 0.07427229 -0.0007792689 0.081918225 -0.13038713 -0.029857025 0.033543218 0.083112136 0.20860325 -0.038135346 -0.11990701 0.31394264 0.051322244 0.03968467 0.006919427 0.10406855 -0.05512864 -0.12103607 -0.0024681627 -0.027815282 -0.048662107 0.041664824 -0.11405197 -0.03329716 0.0029927455 -0.15322478 0.05486897 -0.022683939 0.017449506 0.06688835 -0.20617877 0.07009281 0.040940315 0.15410334 -0.043021884 -0.13929199 -0.11545222 0.059029277 -0.04198266 -0.27186346 0.01647416 -0.08595394 -0.23517928 0.06843436 -0.17842795 -0.042369135 -0.091063485 -0.096271 -0.17754222 -0.08381329 0.022946859 0.1899885 -0.051552493 -0.11154237 -0.067373425 -0.0071151103 -0.06674587 -0.0025460455 0.05318386 -0.110694766 -0.22160834 0.015703417 -0.14541109 0.015268989 0.049540717 -0.017516209 -0.13346975 -0.23482475 0.14229228 -0.10488012 -0.093426734 -0.07855216 0.02554905 0.12850824 0.15448682 0.013712965 -0.078871846 0.15488802 0.050040223 -0.11857383 0.0035591268 0.015107642 0.051980484 -0.16092597 0.1211473 -0.04328456 0.024094488 -0.018090582 0.030369043 0.19875209 0.3106751 -0.1421549 0.09647914 -0.3765025 -0.08653071 -0.09600635 0.052552763
30 0.013509135 0.12748186 0.03618835 0.21824409 -0.03871408 0.07734929 -0.15730938 -0.13289759 -0.07651113 0.1385795 -0.001118436 0.06758292 -0.023403488 0.08736322 -0.027874108 0.06926178 -0.023171503 0.035898082 -0.05965206 0.08834321 0.01014848 -0.14660096 0.1495217 0.008749889 -0.14603281 0.05839462 -0.11890238 0.040190563 0.17740098 -0.025586426 -0.034961358 -0.12858452 0.02957525 0.03592301 0.09250921 -0.27059662 -0.06590935 0.10233069 -0.00797775 0.2287585 -0.1024539 -0.103199504 0.25120583 0.17229958 -0.03074609 -0.037232865 0.020385304 -0.025471853 -0.14499412 -0.097053744 0.07944846 -0.1526373 0.057608493 -0.1514638 -0.08101636 0.031915687 -0.104221456 0.054627392 -0.057092566 -0.041359138 0.032651983 -0.09711847 0.1108627 0.1104454 0.2288867 -0.052867975 0.018113613 -0.07914745 0.0022250859 -0.031117015 -0.27355534 0.06153045 -0.0071732313 -0.26441336 0.074544735 -0.11878983 -0.022332411 -0.016875666 -0.101709 -0.15823911 0.010341516 -0.058547914 0.101669736 0.05810827 -0.048752762 -0.049787857 0.026484687 -0.058500018 -0.035873543 -0.052062128 -0.0891566 -0.021475531 -0.027301308 -0.11275681 0.1196327 0.027203485 -0.05391696 -0.120256074 -0.10806228 0.10042213 -0.18532452 -0.031698357 -0.008747458 -0.06085951 0.023279633 0.1716305 -0.06522834 -0.12052262 0.17435366 0.037097856 -0.18432897 -0.015759477 0.021267354 0.11031544 -0.10802839 0.17141692 0.031645734 0.07294947 0.036288988 0.11893183 0.066307314 0.18754502 -0.07414409 0.14177848 -0.350776 -0.15853143 -0.023189044 0.018112559
9 -0.005458105 0.097044505 0.02919232 0.20700033 -0.030910313 0.038690116 -0.09735841 -0.14853245 -0.097633675 0.12348095 -0.04039224 0.03942376 -0.03874046 0.10747122 -0.014120785 0.0635497 -0.019592261 0.049959213 -0.023950716 0.07400742 0.024570884 -0.12514302 0.1310442 -0.009791527 -0.16609254 0.058529954 -0.10315022 0.030699868 0.15324655 -0.03567178 -0.0626619 -0.10850951 0.049113594 0.020523507 0.09537559 -0.21741605 -0.04486945 0.07784817 0.033059783 0.23043795 -0.086677864 -0.106691256 0.28857115 0.12594043 0.006198384 -0.016847983 0.058994316 -0.04825548 -0.1382188 -0.05814382 0.032133978 -0.11061991 0.05374702 -0.13382709 -0.05841226 0.02659437 -0.13174734 0.047751095 -0.038272105 -0.019075783 0.058345936 -0.14669867 0.09907136 0.0826644 0.2088112 -0.04286042 -0.05067297 -0.10420792 0.020332538 -0.03768028 -0.27876568 0.042411845 -0.04038511 -0.23517108 0.0708364 -0.14832734 -0.028915634 -0.056263346 -0.09749025 -0.1703964 -0.031318285 -0.020921558 0.13899216 0.012170372 -0.075552225 -0.052634165 0.01814294 -0.055142045 -0.024483362 0.0055703237 -0.096000805 -0.106409654 -0.009549297 -0.116955556 0.07931599 0.03843384 -0.034576755 -0.1301111 -0.16564697 0.106950074 -0.14330134 -0.06339666 -0.037451793 -0.026414469 0.08247392 0.1625 -0.02722767 -0.103808984 0.17039478 0.04247591 -0.14678149 -0.017220577 0.02020678 0.08596152 -0.12629543 0.14915854 -0.0031860906 0.059387214 0.011129811 0.072828405 0.12071685 0.2509928 -0.10395743 0.115265094 -0.35847476 -0.12548316 -0.06075587 0.02861118
6 -0.024948217 0.043409966 0.010257973 0.17612357 -0.018256798 0.0100536235 -0.0154189905 -0.14757314 -0.1095921 0.10052996 -0.07413002 0.0038996236 -0.052857187 0.123448804 0.0049445983 0.046281975 -0.01047036 0.06249277 0.012486429 0.06289504 0.03951996 -0.07561853 0.10019007 -0.041371103 -0.18356624 0.04246564 -0.07626977 0.01832313 0.11870529 -0.03898079 -0.083276145 -0.08558598 0.07326188 -0.0024914232 0.07630968 -0.1254112 -0.031533293 0.031292778 0.08988223 0.20566137 -0.037179176 -0.12019762 0.3140406 0.046833225 0.044740427 0.006590047 0.10746773 -0.061668403 -0.119316906 -0.0033914405 -0.030451858 -0.052373737 0.044137698 -0.120298326 -0.030530307 0.0071876473 -0.15318395 0.05223322 -0.020358996 0.02243318 0.06495401 -0.2087684 0.074214116 0.039870773 0.14470641 -0.04265328 -0.14725251 -0.120499976 0.06105472 -0.038926505 -0.26458168 0.009539961 -0.08576968 -0.23099664 0.066307165 -0.17888835 -0.04839554 -0.09192568 -0.097093835 -0.1814542 -0.08939436 0.025612019 0.19000334 -0.057938773 -0.11722256 -0.05947965 -0.005267799 -0.06575738 0.0014133592 0.059914187 -0.10271801 -0.22900178 0.017487615 -0.14449506 0.01243112 0.0471927 -0.017874006 -0.13571776 -0.23726265 0.14127044 -0.09835669 -0.09710325 -0.07963073 0.030410625 0.13638851 0.15654853 0.011640045 -0.07308375 0.15056576 0.04510607 -0.10903336 -0.0028870278 0.015497677 0.04739922 -0.16110799 0.11411994 -0.044332284 0.028278973 -0.021315059 0.021615895 0.20302708 0.31772426 -0.14761308 0.09592933 -0.36878467 -0.07735553 -0.101125665 0.055198796
28 0.004241027 0.10669331 0.027471755 0.19816439 -0.027716702 0.05640509 -0.1238343 -0.12450645 -0.08803583 0.12160722 -0.018542426 0.045618787 -0.025252335 0.10078469 -0.02686701 0.060448006 -0.015992964 0.052212153 -0.03845875 0.0753788 0.0126642855 -0.1262937 0.12806882 0.0003948621 -0.15390074 0.05015007 -0.10951943 0.033172175 0.15168479 -0.019577036 -0.041442357 -0.10755237 0.031382196 0.022908704 0.08924093 -0.23101811 -0.06126519 0.08696745 0.016877443 0.22399034 -0.098440476 -0.10735755 0.26378855 0.13672738 -0.01455864 -0.020196654 0.033627033 -0.03920666 -0.14041293 -0.06849916 0.05910672 -0.13174616 0.05605013 -0.13556974 -0.06522981 0.03405115 -0.12120822 0.05270474 -0.04759434 -0.027828366 0.047576733 -0.1221628 0.113920316 0.08882764 0.2130747 -0.046675097 -0.018355424 -0.09541905 0.015442374 -0.024178104 -0.26422602 0.049175266 -0.025755804 -0.23692226 0.068069234 -0.124567 -0.026440427 -0.038110197 -0.09932441 -0.15806685 -0.003994585 -0.030490011 0.114725515 0.036499858 -0.056574997 -0.03883099 0.02829529 -0.053008478 -0.02791145 -0.026077723 -0.09042088 -0.065490775 -0.023749968 -0.11450809 0.09198659 0.030746171 -0.0411946 -0.12743568 -0.12856394 0.09689647 -0.16304922 -0.047528833 -0.018100057 -0.03884349 0.052465804 0.16332534 -0.04950038 -0.10187184 0.1675406 0.03876142 -0.15945274 -0.013582597 0.024496658 0.095940724 -0.11431011 0.14468536 0.020503754 0.057419557 0.025015056 0.08687925 0.08639568 0.20585361 -0.08101033 0.12562145 -0.34229416 -0.13573436 -0.04027845 0.032533787
8 -0.007840531 0.08757797 0.026615173 0.19676529 -0.024599712 0.026693903 -0.071361266 -0.13934371 -0.091119185 0.09981104 -0.04756673 0.024247477 -0.047766972 0.0982218 -0.010896587 0.0582991 -0.017094396 0.04614789 -0.011784616 0.073635004 0.028423402 -0.10504481 0.11146397 -0.00775246 -0.15458371 0.04968166 -0.089970216 0.02233336 0.13617757 -0.038227826 -0.059284445 -0.0893709 0.05582823 0.015292249 0.08203894 -0.18374383 -0.033204567 0.069267765 0.039506093 0.20986629 -0.08071382 -0.09949803 0.27670512 0.10481954 0.0067204274 -0.0024691666 0.059974566 -0.048930917 -0.12921311 -0.042701855 0.023523867 -0.08823245 0.0478939 -0.11392719 -0.052366775 0.017586438 -0.13023287 0.043907363 -0.033179857 -0.0074469657 0.061417658 -0.14565918 0.08566464 0.06846295 0.19200571 -0.046451315 -0.06327799 -0.1104493 0.020058503 -0.033817723 -0.267184 0.040132225 -0.046654668 -0.2093322 0.06501694 -0.14176692 -0.036048707 -0.06561467 -0.09140147 -0.15797132 -0.03223484 -0.010209867 0.1410613 0.0036284637 -0.06970565 -0.045820974 0.017575623 -0.055016488 -0.018204238 0.018376287 -0.089876436 -0.11704544 -0.0015236035 -0.100664 0.061938796 0.036727853 -0.027923934 -0.120930806 -0.16692756 0.10295071 -0.12501238 -0.06394693 -0.038578324 -0.019324617 0.087721586 0.13701278 -0.014188673 -0.083807744 0.16556641 0.03958632 -0.11923562 -0.012104624 0.0168006 0.07365684 -0.11023734 0.12896986 -0.009595297 0.052695442 0.0076448093 0.059778906 0.118232764 0.2453477 -0.10245541 0.098039106 -0.33221644 -0.11047756 -0.060324937 0.032221373
29 0.0029982757 0.10003448 0.032790016 0.19414188 -0.03422965 0.053256713 -0.122062385 -0.12143064 -0.0792406 0.12014642 -0.013961971 0.04803254 -0.030441195 0.08580933 -0.025605854 0.05513869 -0.01858091 0.03829262 -0.041119426 0.0710738 0.014996239 -0.1252766 0.121957734 0.004509099 -0.13960665 0.05265995 -0.10522932 0.035615377 0.1555534 -0.0246482 -0.04103821 -0.1101151 0.03201572 0.02524171 0.09009132 -0.22204497 -0.057136256 0.08341719 0.011025061 0.21061517 -0.095424265 -0.10070574 0.24271874 0.13510947 -0.015353377 -0.02672695 0.033788864 -0.030999191 -0.12710303 -0.07633161 0.060991023 -0.12615699 0.05239543 -0.127517 -0.06096036 0.030165125 -0.10918528 0.045201123 -0.047984216 -0.027755067 0.037443634 -0.10485688 0.10353372 0.09289377 0.20790213 -0.050181042 -0.008708954 -0.09187452 0.006921882 -0.032083094 -0.25458658 0.052034408 -0.014846622 -0.23116104 0.06477617 -0.11926527 -0.019190157 -0.03324148 -0.09788103 -0.14853641 0.0036305836 -0.03585125 0.10358562 0.044060275 -0.049986213 -0.04217672 0.02663058 -0.050760616 -0.024813458 -0.025788225 -0.08755421 -0.049852956 -0.017862985 -0.10088505 0.099093154 0.027249588 -0.044324186 -0.117614664 -0.113312304 0.09136847 -0.15388192 -0.044419892 -0.011588916 -0.046557955 0.0438677 0.15089959 -0.042562403 -0.102968834 0.16048968 0.038689118 -0.15169671 -0.014601476 0.025415603 0.09205147 -0.098842345 0.14587238 0.02210542 0.06359265 0.02267171 0.088796295 0.074223965 0.19556072 -0.076142065 0.11599647 -0.3166559 -0.135424 -0.030776834 0.028044771
5 -0.01851388 0.052274697 0.014031946 0.18091181 -0.02090552 0.008118999 -0.024838392 -0.15409839 -0.1065242 0.10363043 -0.06964039 0.007836041 -0.05745775 0.11808693 -0.001512177 0.044541545 -0.01099466 0.05624214 0.00884767 0.06863281 0.043613665 -0.083778314 0.10004238 -0.030167637 -0.17787747 0.041940026 -0.07897535 0.014719406 0.11711946 -0.041518927 -0.0824523 -0.08654508 0.076205425 0.0050430535 0.07898314 -0.13618095 -0.02872327 0.041504923 0.08332313 0.20552306 -0.042343233 -0.11887828 0.30403107 0.056975186 0.042653177 0.009789984 0.09923104 -0.057475124 -0.12118215 -0.0082496945 -0.020000424 -0.04734847 0.041181125 -0.115386955 -0.031542547 0.0008083262 -0.15336408 0.05052921 -0.022667438 0.021899778 0.066277154 -0.19965065 0.072975606 0.042090382 0.15899931 -0.041585997 -0.13997358 -0.121845424 0.056917623 -0.035699394 -0.26963916 0.012841078 -0.080477186 -0.23145479 0.06832139 -0.17906672 -0.04827072 -0.093684465 -0.09733815 -0.18531594 -0.0846855 0.017954655 0.18887109 -0.049302317 -0.110821754 -0.063853316 -0.0024925019 -0.065414004 -0.007824099 0.048146468 -0.10233205 -0.21743098 0.011108238 -0.13880892 0.024359219 0.050036266 -0.018051604 -0.13476591 -0.22775245 0.13813487 -0.10521108 -0.0902666 -0.07599529 0.01603738 0.12850656 0.15181465 0.0178555 -0.08434534 0.15784128 0.04621285 -0.11732429 0.0020940113 0.016124511 0.055856515 -0.16084762 0.12332181 -0.04170318 0.026609924 -0.018157946 0.03367536 0.19351359 0.31376985 -0.14724831 0.09906081 -0.37846017 -0.085927226 -0.091903806 0.048248824
11 -0.018035872 0.04987527 0.018691007 0.18477981 -0.018287908 0.0052977027 -0.02356025 -0.14967537 -0.10439183 0.098919876 -0.07035408 0.005149899 -0.05940491 0.11407834 -0.0006172668 0.04436273 -0.009113621 0.055905364 0.009459897 0.06752119 0.044301428 -0.08225782 0.10259278 -0.031949744 -0.17461354 0.05035075 -0.08339241 0.013355784 0.12344997 -0.04573305 -0.083999515 -0.09117943 0.07098773 0.005709098 0.0843531 -0.14307651 -0.029523496 0.03640675 0.07731993 0.20410936 -0.043360263 -0.11880705 0.3093086 0.05743112 0.041774444 0.0021681786 0.095806286 -0.05190841 -0.11684899 -0.0109095685 -0.016262323 -0.052546326 0.03835582 -0.12052809 -0.031457216 0.003231701 -0.15311654 0.050582193 -0.020378832 0.01603874 0.06890209 -0.19747089 0.07407551 0.04920524 0.15801308 -0.046134163 -0.13530406 -0.11733791 0.052835774 -0.037975907 -0.2711638 0.016063971 -0.077062905 -0.22306584 0.06928119 -0.17336534 -0.041801535 -0.09012782 -0.09621916 -0.17987923 -0.08175511 0.019296898 0.1825792 -0.043210555 -0.10394874 -0.062229104 -0.00014654087 -0.06241735 -0.008158639 0.04608729 -0.100703545 -0.21103886 0.015463375 -0.13896763 0.022261228 0.05132421 -0.013702748 -0.13237868 -0.22090508 0.13793494 -0.106798775 -0.088810526 -0.068723775 0.020436933 0.12033153 0.15081589 0.015372416 -0.08212416 0.15355973 0.047186315 -0.11003694 -0.00338066 0.013910597 0.05445387 -0.15446709 0.12095687 -0.03417675 0.028430706 -0.017075004 0.027874349 0.1783074 0.30121812 -0.13921995 0.09489 -0.35963243 -0.080890425 -0.08927508 0.050914753
25 0.005504129 0.109838866 0.0304975 0.19994354 -0.033403195 0.055813804 -0.12903535 -0.12645431 -0.089090414 0.12267472 -0.023997841 0.044960633 -0.025598474 0.10510796 -0.026909608 0.05704522 -0.01961932 0.053317185 -0.03714743 0.080633745 0.012127601 -0.13341331 0.12910064 -0.0011493926 -0.16029495 0.051725816 -0.11416485 0.030035567 0.15472035 -0.02151299 -0.043632314 -0.116428055 0.032468867 0.017537361 0.0950528 -0.24289662 -0.06380792 0.09243606 0.017993307 0.22793686 -0.092008926 -0.106021576 0.2670777 0.14582314 -0.008849588 -0.02577449 0.038065493 -0.039286617 -0.13997142 -0.07417923 0.055210754 -0.1331066 0.055030286 -0.13516356 -0.06408004 0.03770396 -0.12201335 0.053335104 -0.044835355 -0.027728653 0.03964169 -0.12551092 0.11274751 0.092802554 0.22456035 -0.046188373 -0.014342876 -0.09881601 0.0105062425 -0.023410276 -0.27362335 0.049864773 -0.030121813 -0.24428529 0.0646458 -0.12300887 -0.020032618 -0.035249043 -0.10210977 -0.16328351 -0.001507991 -0.032463074 0.11284662 0.04393372 -0.057877537 -0.040619206 0.025547735 -0.055776436 -0.031697784 -0.025697742 -0.09522641 -0.07172307 -0.019114729 -0.1221243 0.098731406 0.033114694 -0.03885196 -0.12937549 -0.1259476 0.099403754 -0.16875719 -0.05315701 -0.01602098 -0.04518572 0.050364867 0.15939616 -0.046260845 -0.105294 0.16320266 0.04022915 -0.16185504 -0.0106887035 0.025840325 0.09342276 -0.1163375 0.1458832 0.024261916 0.057240244 0.026635488 0.09286281 0.08190498 0.20699947 -0.08310149 0.12393279 -0.3364337 -0.13794868 -0.03257302 0.030463303
20 -0.009557911 0.08014348 0.023813684 0.18550296 -0.029204017 0.038894247 -0.07795322 -0.13218987 -0.081118055 0.10772865 -0.033186372 0.031036263 -0.04032921 0.09201169 -0.013777707 0.05475783 -0.01092755 0.04183283 -0.023719177 0.068248 0.020997904 -0.10478992 0.10945955 -0.0075855954 -0.14730701 0.04628961 -0.08810977 0.026305541 0.13723426 -0.03498143 -0.05240509 -0.09592117 0.047237776 0.012948702 0.07899304 -0.18444408 -0.039565988 0.067148946 0.030094376 0.20158662 -0.07649939 -0.09421436 0.25471237 0.10570314 0.0063945297 -0.011512622 0.05473223 -0.04055463 -0.12606904 -0.05066575 0.027927052 -0.094805405 0.05066591 -0.118516326 -0.0462477 0.021239413 -0.11923066 0.04687168 -0.038343746 -0.0160087 0.053189915 -0.1366476 0.08648879 0.07174501 0.18624634 -0.043779798 -0.05126453 -0.09714058 0.025965275 -0.03554301 -0.25490203 0.039939135 -0.03852288 -0.21795245 0.06216416 -0.13270254 -0.02790536 -0.056797657 -0.094515376 -0.15569386 -0.028534338 -0.017593855 0.13355827 0.011395575 -0.072738625 -0.046650093 0.012859404 -0.054218765 -0.020753754 0.0041773818 -0.08690347 -0.10455248 -0.009924954 -0.10668477 0.06692373 0.031858213 -0.028046036 -0.11826837 -0.15708931 0.10668468 -0.13536273 -0.062755674 -0.034568146 -0.01861272 0.07147194 0.14856796 -0.022311335 -0.09418661 0.16254586 0.04464749 -0.13543357 -0.013401764 0.015330366 0.07783806 -0.120160386 0.13616024 -0.0010536457 0.048036825 0.010331047 0.06383755 0.119952835 0.23932545 -0.095972195 0.108313456 -0.34553748 -0.117427915 -0.055740602 0.033967026
31 0.0021095946 0.10848591 0.026535647 0.19801189 -0.033093546 0.059732348 -0.129776 -0.12562387 -0.07546845 0.12156733 -0.011413114 0.055236872 -0.026533503 0.08836987 -0.027032487 0.06184416 -0.017287461 0.04346906 -0.04455357 0.07608439 0.0112453485 -0.12788484 0.13120274 0.002669693 -0.13947424 0.051512912 -0.103074506 0.036166955 0.15967345 -0.024821118 -0.041698884 -0.113005064 0.02968001 0.020808859 0.08497583 -0.23592119 -0.05397101 0.08585136 0.007182437 0.2185496 -0.0988798 -0.09991124 0.24988696 0.14449368 -0.019489802 -0.024237169 0.029773954 -0.035157356 -0.134355 -0.07871429 0.06490038 -0.13106227 0.053375755 -0.12924765 -0.067835726 0.032200273 -0.110625535 0.04269613 -0.04877052 -0.03795594 0.039982595 -0.10167353 0.10550135 0.09414768 0.2133366 -0.046439555 -0.0019083027 -0.08869867 0.0033972326 -0.0269692 -0.25847992 0.04801648 -0.012256642 -0.2368576 0.06193534 -0.12203401 -0.022946255 -0.028996745 -0.09432732 -0.15195769 0.0018269819 -0.039244566 0.1044862 0.04435875 -0.046903543 -0.041252576 0.024111874 -0.051545642 -0.030904604 -0.027979244 -0.08123099 -0.046116453 -0.025652714 -0.102229014 0.10242956 0.027036352 -0.045512136 -0.116213225 -0.11846986 0.091149695 -0.16274348 -0.04495192 -0.017777761 -0.04568672 0.040383905 0.15956123 -0.049646117 -0.10374525 0.16385457 0.039264724 -0.15899438 -0.016948162 0.020650757 0.09083513 -0.10391445 0.15382364 0.018594652 0.06329503 0.02196708 0.09582482 0.07996479 0.19857568 -0.07423691 0.123860404 -0.32967567 -0.13727313 -0.03875269 0.025288887
26 0.0023277428 0.11084097 0.034128506 0.20286827 -0.03669344 0.05640375 -0.12452188 -0.13645601 -0.09320576 0.12607053 -0.025201717 0.042256694 -0.027883453 0.101277925 -0.030651296 0.05797877 -0.011626718 0.05186723 -0.034504127 0.07610376 0.019780943 -0.13312902 0.12918352 0.003298438 -0.16230488 0.053428456 -0.10734108 0.02748597 0.15480255 -0.023805086 -0.04056704 -0.109094605 0.033793576 0.017310658 0.09755328 -0.23394127 -0.05912094 0.09374635 0.018350823 0.22440168 -0.096303985 -0.103508025 0.27368328 0.14096034 -0.016631903 -0.025031826 0.038339414 -0.04657082 -0.14781569 -0.07235162 0.059878655 -0.12750036 0.059543524 -0.13014089 -0.061341625 0.03786526 -0.131546 0.05378995 -0.045713283 -0.025177633 0.045722518 -0.13436376 0.11648312 0.0922211 0.22704807 -0.05040517 -0.020568294 -0.105132945 0.017197289 -0.030566493 -0.28069592 0.055613976 -0.028590092 -0.24696748 0.065033846 -0.12912169 -0.023790114 -0.047534797 -0.10912609 -0.17228498 -0.004630371 -0.027931998 0.12511165 0.042795 -0.06576011 -0.044708516 0.032175034 -0.061863415 -0.028782371 -0.014971374 -0.0909929 -0.07283129 -0.020766478 -0.12307571 0.09808559 0.037445374 -0.04172253 -0.1371744 -0.13989337 0.1045512 -0.1736602 -0.0564503 -0.022902302 -0.04317135 0.060131993 0.16701436 -0.046799805 -0.10831446 0.17405534 0.04652096 -0.16806233 -0.012728514 0.020882947 0.097982 -0.12046372 0.15232009 0.022741431 0.057347585 0.024868334 0.09128255 0.09254429 0.22397861 -0.0837368 0.12853026 -0.36856544 -0.13556269 -0.04257859 0.033941053
13 -0.012561065 0.07357022 0.021015475 0.18540436 -0.01932502 0.022633713 -0.06139167 -0.13746601 -0.09683462 0.1023296 -0.05210688 0.022964533 -0.042475402 0.10441792 -0.010824481 0.05790158 -0.010416568 0.053050216 -0.012052983 0.06787747 0.029068464 -0.105640694 0.11197655 -0.018520096 -0.16639706 0.049050007 -0.08395527 0.02099177 0.13109083 -0.037649672 -0.06417908 -0.088284604 0.05730555 0.010903202 0.0812073 -0.17355582 -0.035057664 0.05738864 0.05490558 0.20735627 -0.07522131 -0.102423936 0.28686482 0.09567033 0.014585188 -0.005214291 0.07316655 -0.04917871 -0.12871926 -0.034883782 0.01229834 -0.08513602 0.04889043 -0.11665213 -0.045589548 0.019610394 -0.13920252 0.04674922 -0.031297512 -0.0056210496 0.061199732 -0.16376002 0.089081764 0.06652063 0.18511406 -0.042824276 -0.081001505 -0.11190527 0.032190043 -0.036018323 -0.26503646 0.034002792 -0.057333574 -0.22553569 0.06467649 -0.14964402 -0.034533534 -0.07262488 -0.095462255 -0.16848087 -0.04973502 -0.008268714 0.15669066 -0.006294274 -0.08447296 -0.04492442 0.009024109 -0.058067054 -0.01641434 0.026555972 -0.098576434 -0.14281617 -0.006749592 -0.11307827 0.057396244 0.03588357 -0.023572234 -0.124028206 -0.18552047 0.11372056 -0.12851389 -0.0728887 -0.05373281 -0.006452078 0.09848796 0.14789042 -0.012015044 -0.08439166 0.1636388 0.045340907 -0.122308485 -0.012993452 0.019193118 0.07116674 -0.13183607 0.12807429 -0.012935911 0.0428338 0.0037386618 0.057734992 0.14392854 0.26576817 -0.11309747 0.102563746 -0.35391077 -0.10038562 -0.06793507 0.037981983
19 0.005766436 0.122536376 0.030213896 0.21930298 -0.037315417 0.069868326 -0.14025463 -0.14057359 -0.08972209 0.13883516 -0.017780943 0.063730754 -0.030693626 0.09809935 -0.027068373 0.07099381 -0.024529893 0.046515707 -0.045496143 0.084218696 0.013167034 -0.14662199 0.15101981 0.002217352 -0.15269393 0.05765187 -0.11877573 0.043126296 0.17889033 -0.027538808 -0.041769445 -0.12873468 0.035076343 0.032643955 0.09495365 -0.2645211 -0.061965704 0.10025307 0.010064258 0.2422372 -0.104236096 -0.10916982 0.27271003 0.15902978 -0.020921733 -0.03305171 0.0339623 -0.03694789 -0.15091605 -0.08816403 0.073685326 -0.14551044 0.05790614 -0.15098217 -0.07442612 0.0312517 -0.11698159 0.04622493 -0.0512098 -0.04196445 0.041583925 -0.11406471 0.1175309 0.106530935 0.23286185 -0.053967338 -0.0034527073 -0.09444302 0.0077956803 -0.038743928 -0.2824921 0.061131943 -0.014395306 -0.26439127 0.07533698 -0.1327389 -0.027394403 -0.0348633 -0.10375607 -0.16579977 0.0028625412 -0.050338488 0.11358662 0.04544993 -0.05205744 -0.048972875 0.024876975 -0.058061518 -0.035742946 -0.03232044 -0.093520686 -0.042340558 -0.02700177 -0.108626395 0.116514355 0.032770645 -0.04912276 -0.12467988 -0.12512425 0.0978497 -0.17566843 -0.04679659 -0.017588496 -0.051857613 0.045992084 0.17040278 -0.05354971 -0.115021475 0.18789187 0.046082966 -0.16931054 -0.019088022 0.025245078 0.099748634 -0.11142496 0.1703332 0.020104654 0.07646587 0.03045722 0.10614465 0.085195795 0.21227959 -0.08730892 0.13494714 -0.35480958 -0.15595765 -0.040256485 0.026464207
22 -0.010025691 0.09025231 0.024645636 0.20168778 -0.02776007 0.037580464 -0.079938374 -0.1499391 -0.09256104 0.11825709 -0.048329487 0.030097747 -0.04635192 0.107817195 -0.017447624 0.05852147 -0.015599452 0.054936893 -0.023129964 0.07780927 0.027411455 -0.11609572 0.12146687 -0.015224556 -0.16409321 0.054522704 -0.096738115 0.028336186 0.14663416 -0.03699681 -0.06450697 -0.1046031 0.05284524 0.016803373 0.08716444 -0.19977568 -0.044882957 0.072857745 0.046227314 0.2227244 -0.07961573 -0.11267764 0.29209876 0.112025075 0.006040452 -0.009698923 0.064695574 -0.05132395 -0.1376607 -0.050436344 0.029015481 -0.09933493 0.05139805 -0.12895066 -0.055657007 0.017879538 -0.13415824 0.04927468 -0.040489342 -0.010141531 0.0577655 -0.15565266 0.09548002 0.075666286 0.20627311 -0.050939076 -0.07073385 -0.10926216 0.028381977 -0.04035947 -0.2864061 0.037766002 -0.044263832 -0.2487733 0.073797986 -0.16184485 -0.037595645 -0.063394 -0.10634278 -0.182317 -0.04054493 -0.018432295 0.15675035 0.0046613174 -0.08706548 -0.0536406 0.018972293 -0.06377438 -0.021513134 0.014297435 -0.09866955 -0.12943192 -0.011768827 -0.12848297 0.07079176 0.0381113 -0.034893498 -0.13290903 -0.18471237 0.124555446 -0.14851664 -0.06958521 -0.046029642 -0.022350306 0.09133475 0.16758303 -0.019257365 -0.10130308 0.1847582 0.05062817 -0.15014589 -0.010800831 0.023380177 0.08160475 -0.1387757 0.1540143 -0.006867329 0.051746897 0.00531346 0.07505509 0.13468426 0.2740048 -0.11500903 0.119309485 -0.38694388 -0.12843949 -0.07095714 0.036488377
17 -0.009144428 0.07159992 0.018671036 0.20068675 -0.024879858 0.020882739 -0.048585013 -0.14797403 -0.10549502 0.11360833 -0.058968548 0.017382862 -0.04858815 0.115819775 -0.0013430953 0.05003833 -0.014155279 0.0579967 0.00040060305 0.07335859 0.036263876 -0.093230076 0.11894324 -0.026907146 -0.17966264 0.046192296 -0.09172397 0.019026026 0.13538356 -0.043665487 -0.08191597 -0.10210824 0.067790814 0.009960343 0.08790234 -0.16325535 -0.03718867 0.05015113 0.06457921 0.21583423 -0.054764323 -0.116589874 0.3118682 0.077967115 0.03000006 -0.0053430544 0.088123746 -0.054102764 -0.12739834 -0.021378513 -0.005518609 -0.076937936 0.04055886 -0.13029219 -0.04445902 0.0120086195 -0.14881891 0.051329944 -0.028925546 0.0064769704 0.055923406 -0.18602622 0.08320462 0.06305534 0.17358759 -0.04246861 -0.10861831 -0.11623766 0.048173282 -0.038398348 -0.28376967 0.02253707 -0.06694215 -0.24788167 0.074520275 -0.16999438 -0.040664196 -0.07507265 -0.09963403 -0.1777219 -0.067924425 0.00863089 0.17031287 -0.022056218 -0.1016466 -0.06605944 0.00025490805 -0.06509804 -0.0077736736 0.0320234 -0.110876784 -0.18934086 0.0070632 -0.14280775 0.038026623 0.050386418 -0.026617257 -0.13286418 -0.20625322 0.13916889 -0.121724285 -0.08638197 -0.06470996 0.005530115 0.107994564 0.16704345 0.00032798716 -0.09453178 0.16499954 0.044630993 -0.13696365 -0.00071913435 0.022615306 0.06956036 -0.15208077 0.13102797 -0.02760352 0.03605727 -0.00690529 0.04604881 0.17432293 0.29143435 -0.13504119 0.111529365 -0.3763152 -0.10205049 -0.08166375 0.045717042
10 -0.00077278394 0.10504141 0.027498966 0.19629121 -0.02908045 0.054917626 -0.11788985 -0.1312741 -0.08726743 0.123683 -0.02165675 0.050361313 -0.033401165 0.09215544 -0.018232124 0.06603904 -0.020603832 0.04797335 -0.03793872 0.07571124 0.015459265 -0.12907659 0.13179739 -0.001797012 -0.15027525 0.05914643 -0.11028746 0.03681009 0.1617264 -0.026346583 -0.047605276 -0.11466797 0.03976647 0.02139362 0.0920823 -0.22780825 -0.056544296 0.08607445 0.017882802 0.22725292 -0.095460385 -0.104569994 0.26551297 0.13980883 -0.007874519 -0.023656616 0.039041743 -0.037824143 -0.13473888 -0.075268626 0.056810096 -0.12948501 0.053983796 -0.13810371 -0.066425666 0.030403083 -0.11963335 0.047469504 -0.043187134 -0.02964644 0.04750825 -0.12019634 0.108445086 0.09210366 0.21248475 -0.04932839 -0.023265798 -0.096427366 0.012662996 -0.029601425 -0.2691132 0.050466463 -0.02323513 -0.23818079 0.06437701 -0.12932153 -0.025941523 -0.03863678 -0.09438727 -0.1568397 -0.0033218826 -0.03623262 0.11939835 0.031602446 -0.056726646 -0.04776683 0.021339698 -0.0576812 -0.028911125 -0.019024694 -0.086750075 -0.062411387 -0.017452026 -0.109446116 0.09246876 0.027820747 -0.04109328 -0.12290865 -0.13539569 0.09752601 -0.16005103 -0.047638968 -0.021248883 -0.042547517 0.056584425 0.1612345 -0.0446074 -0.10297353 0.17330445 0.043939944 -0.1547968 -0.018170787 0.020847142 0.09419645 -0.10770785 0.15410905 0.017820477 0.0645337 0.021118479 0.09057158 0.09324916 0.22324911 -0.092836134 0.12530652 -0.34802914 -0.13856071 -0.04350982 0.028611299
27 -4.3245527e-06 0.10508538 0.03219839 0.20243375 -0.03545857 0.055676457 -0.12477791 -0.13218845 -0.0827502 0.12501453 -0.02009503 0.05338989 -0.031477768 0.09230929 -0.02410582 0.060768157 -0.016983565 0.04132915 -0.041115724 0.08013293 0.013120713 -0.12880166 0.13979721 0.0006496326 -0.15369375 0.053625118 -0.113637365 0.036590736 0.16799334 -0.02745731 -0.042989112 -0.11950359 0.040508483 0.027068194 0.09335324 -0.24029729 -0.054888442 0.08425684 0.011289566 0.2308202 -0.09395126 -0.10809838 0.2681377 0.14806007 -0.009740189 -0.027617196 0.03947612 -0.038907845 -0.14109218 -0.073791355 0.057111617 -0.13442934 0.051632218 -0.13686055 -0.07155754 0.02665055 -0.11622542 0.05310247 -0.045652505 -0.033082504 0.039221466 -0.114076264 0.10523875 0.10011202 0.22102025 -0.048396856 -0.01484435 -0.09567358 0.010478113 -0.036213778 -0.2718038 0.050283078 -0.023178568 -0.25142637 0.06776508 -0.13169052 -0.024077138 -0.03582945 -0.09912971 -0.15702464 -0.0004892792 -0.038947515 0.119274005 0.041469224 -0.054709017 -0.048830267 0.017978005 -0.05578213 -0.028601581 -0.022963177 -0.09365926 -0.06246219 -0.01591762 -0.10739484 0.10168134 0.03059017 -0.046014927 -0.1240202 -0.12378597 0.10282181 -0.15852433 -0.04231263 -0.016876243 -0.04485911 0.05274618 0.16157345 -0.042782333 -0.11051144 0.16904777 0.03797575 -0.16226853 -0.016105095 0.025085786 0.09008435 -0.10713244 0.15668556 0.019791072 0.06742142 0.01857735 0.09467649 0.08572765 0.2150016 -0.08835073 0.12236517 -0.3413207 -0.14165431 -0.04191805 0.02136505
18 -0.01566975 0.08127407 0.024920698 0.19613019 -0.026114507 0.026052536 -0.06492656 -0.14532888 -0.096171916 0.1134833 -0.053462204 0.023911262 -0.050940294 0.102229394 -0.01408978 0.054981995 -0.010447879 0.053732514 -0.013516734 0.07621673 0.03503151 -0.10785704 0.11695812 -0.019127991 -0.16677342 0.05489683 -0.09068124 0.022892736 0.13862105 -0.037085813 -0.062469706 -0.095900744 0.06305945 0.011198203 0.08034342 -0.17783104 -0.032816272 0.061089046 0.053238288 0.21713328 -0.07951763 -0.10321221 0.29558164 0.0935964 0.013455848 0.0016979116 0.069868684 -0.049710523 -0.13154769 -0.037476204 0.018463923 -0.08474868 0.052745543 -0.120800085 -0.043279372 0.01459511 -0.13964097 0.046032637 -0.031813696 -0.0068106353 0.06795153 -0.15890418 0.09440702 0.070572816 0.19464174 -0.041646168 -0.084803455 -0.11713402 0.03520684 -0.0413329 -0.27506047 0.030302322 -0.049256407 -0.22844869 0.06287651 -0.16028881 -0.0426708 -0.074856035 -0.09829172 -0.17376179 -0.046210274 -0.01000119 0.16109756 -0.012280742 -0.09046453 -0.04597793 0.018368999 -0.060962576 -0.015775263 0.029648358 -0.09328103 -0.14481077 -0.005936645 -0.1152783 0.053743526 0.039509084 -0.02580134 -0.12651975 -0.19171685 0.12092725 -0.13407388 -0.06786277 -0.051153697 -0.010659506 0.095922366 0.15314603 -0.013375961 -0.08724015 0.17317112 0.04295157 -0.12369547 -0.013460085 0.018101845 0.07487182 -0.12802795 0.13755828 -0.013534889 0.043337155 0.0006983525 0.058562912 0.1389337 0.27585384 -0.11333446 0.108232185 -0.368188 -0.11451256 -0.07524751 0.03434125
23 0.003216792 0.106277354 0.03195812 0.20584008 -0.028188389 0.05694261 -0.11582598 -0.13726513 -0.09041763 0.12820935 -0.02951774 0.05292901 -0.033679493 0.099985786 -0.019828465 0.06740766 -0.021993998 0.04448355 -0.03867688 0.08009635 0.016493725 -0.12791188 0.13568532 -0.0024001636 -0.15231827 0.053899672 -0.10808036 0.037367716 0.16225895 -0.030645773 -0.05231955 -0.118073545 0.039559804 0.027601058 0.09212069 -0.23058623 -0.055218138 0.08483858 0.021568015 0.22712094 -0.09312142 -0.107555546 0.27426943 0.14051163 -0.006880236 -0.026241811 0.04197595 -0.04152119 -0.14171878 -0.07173402 0.051992748 -0.127557 0.050820854 -0.13955873 -0.066025525 0.027334591 -0.12278426 0.050778616 -0.047380257 -0.03127719 0.0443883 -0.11919016 0.10827593 0.09457339 0.21076441 -0.048678458 -0.024957422 -0.09341266 0.012389655 -0.03714697 -0.27400747 0.051518377 -0.023485268 -0.24839295 0.06995275 -0.1365261 -0.031361714 -0.038155906 -0.09840281 -0.15914632 -0.016598256 -0.031057257 0.12383199 0.03377007 -0.06596086 -0.049816206 0.016227605 -0.0573777 -0.02862506 -0.019817444 -0.09593975 -0.07524115 -0.01806506 -0.10867638 0.091181815 0.032240108 -0.044481214 -0.12257026 -0.13397515 0.10122923 -0.15164427 -0.051619805 -0.024744822 -0.035527915 0.05430597 0.16106784 -0.041885234 -0.100425236 0.17178258 0.04094683 -0.15088801 -0.014216044 0.02594893 0.08386975 -0.11169524 0.14487372 0.012991306 0.058557335 0.014027289 0.08934839 0.08922913 0.21668847 -0.08701777 0.11659759 -0.33299732 -0.13197511 -0.04666235 0.030284563
15 0.0012466277 0.10973528 0.03321228 0.20184939 -0.03133156 0.060061444 -0.123910494 -0.12938707 -0.077954546 0.11937892 -0.014365846 0.053557366 -0.026496237 0.08953609 -0.023072071 0.06380392 -0.019569457 0.04513116 -0.04123961 0.0803451 0.011866871 -0.12889087 0.13572022 0.0024013692 -0.14448698 0.058481514 -0.10723086 0.03563294 0.16208535 -0.021499377 -0.04438239 -0.11526237 0.036715046 0.023582254 0.09294466 -0.23912928 -0.058049582 0.08839159 0.00965717 0.22339532 -0.09971655 -0.10189829 0.25579366 0.15120122 -0.017371893 -0.029334746 0.033846997 -0.035722014 -0.13643126 -0.08174081 0.06310256 -0.13883084 0.052437466 -0.14154334 -0.07121098 0.027577119 -0.116585 0.048460066 -0.049722105 -0.03756132 0.037207693 -0.11111158 0.10661976 0.095028944 0.21889417 -0.05208129 -0.008422079 -0.090135284 0.00652768 -0.026834289 -0.26589876 0.053298175 -0.019397026 -0.24229832 0.0664234 -0.12112109 -0.020003304 -0.028351288 -0.09965887 -0.15463006 -0.00260908 -0.037786026 0.1058096 0.040481478 -0.053944472 -0.040398423 0.02206382 -0.052407745 -0.028566992 -0.03294822 -0.08704194 -0.04923198 -0.025223212 -0.106575154 0.10378604 0.03189325 -0.039778706 -0.115699686 -0.115196235 0.09402911 -0.16394351 -0.038122367 -0.018786332 -0.050082054 0.045296673 0.16431984 -0.049333442 -0.110286206 0.16984172 0.038420867 -0.1571481 -0.014621607 0.02384028 0.094994806 -0.10660103 0.15306799 0.024714297 0.06633521 0.021580491 0.098020084 0.07380667 0.20542066 -0.08135248 0.12923497 -0.33459425 -0.141456 -0.033000305 0.024012944
16 0.010020832 0.11530881 0.029137013 0.19957 -0.03507519 0.06314727 -0.13746025 -0.123956546 -0.08001424 0.12576333 -0.013053902 0.059263673 -0.02200035 0.088110365 -0.030511655 0.06669931 -0.020007387 0.03880898 -0.045631606 0.079405576 0.0113933515 -0.1331794 0.13860929 0.0030536833 -0.14019985 0.054426275 -0.10929064 0.03646759 0.1657132 -0.025240095 -0.04041409 -0.11776541 0.03025176 0.030177811 0.09483811 -0.2463344 -0.06532205 0.08800477 0.0014794039 0.2249296 -0.094741605 -0.1030831 0.24900544 0.14883365 -0.019443497 -0.02889295 0.027112613 -0.030054964 -0.13861664 -0.07998837 0.06983243 -0.14193065 0.052021164 -0.1420489 -0.07232006 0.03574681 -0.113724664 0.05202519 -0.047252346 -0.033185374 0.03300429 -0.10694736 0.106154315 0.101454176 0.21894348 -0.051514417 0.0019129022 -0.08361093 0.0074667637 -0.02906954 -0.26613075 0.0562415 -0.01682036 -0.25090936 0.065049745 -0.1214174 -0.021276282 -0.03120393 -0.095975205 -0.15286846 0.002760082 -0.044817094 0.10524301 0.052689884 -0.048388228 -0.045463502 0.023476494 -0.051606007 -0.03378467 -0.034238257 -0.090706386 -0.04656405 -0.027053874 -0.10766577 0.103234604 0.029196253 -0.04908089 -0.12574048 -0.11438337 0.09396429 -0.16846032 -0.040284473 -0.017064458 -0.051541977 0.034590922 0.16340706 -0.04975206 -0.1102912 0.16925645 0.043959636 -0.17011973 -0.012858427 0.022151753 0.09822881 -0.106410496 0.15830387 0.021515606 0.06453708 0.026481373 0.10029009 0.077527285 0.1960101 -0.078681484 0.13176589 -0.3403492 -0.15002981 -0.03306152 0.021378545
21 0.0022412569 0.11265124 0.027516508 0.19922782 -0.02974139 0.0579186 -0.122119695 -0.12328232 -0.08042748 0.12409961 -0.017946472 0.052865315 -0.024987109 0.08876718 -0.02698306 0.06564961 -0.02208188 0.045603417 -0.0438529 0.07765434 0.009884108 -0.1327268 0.12998623 0.0011218927 -0.13773243 0.051590182 -0.102767095 0.03690313 0.16001222 -0.020813465 -0.038331136 -0.10777956 0.028272403 0.027623912 0.085700326 -0.2380474 -0.055579796 0.089859575 0.008937449 0.21731384 -0.099506944 -0.09455534 0.25209346 0.14823799 -0.011788865 -0.026507262 0.027056538 -0.034094725 -0.13816206 -0.07750961 0.06065765 -0.13137612 0.05387693 -0.13200054 -0.07069293 0.030794788 -0.11440067 0.05117447 -0.05079169 -0.035857726 0.04017188 -0.1061686 0.1081612 0.09538855 0.21890838 -0.044771988 -0.0068060146 -0.09118482 0.0045946664 -0.02849944 -0.26238772 0.05129088 -0.015471784 -0.2398996 0.06841934 -0.12331553 -0.025829744 -0.037266076 -0.099189006 -0.15072095 0.00040297685 -0.042876374 0.10378875 0.044310912 -0.05505255 -0.04437104 0.026486423 -0.057704687 -0.030754725 -0.029474616 -0.08638946 -0.049277782 -0.025630508 -0.10901976 0.1007487 0.027196448 -0.044636935 -0.12234373 -0.11839584 0.091377616 -0.16371557 -0.044803277 -0.016299728 -0.047842838 0.046607275 0.15912502 -0.045475934 -0.1041013 0.17126961 0.04413124 -0.15512565 -0.013224245 0.020119429 0.09130972 -0.10722857 0.14984846 0.02537722 0.064626135 0.024103833 0.09737913 0.07859726 0.19934914 -0.0776825 0.12003937 -0.33301154 -0.13541085 -0.03340405 0.027576286
12 -0.007594113 0.08343254 0.025998758 0.19647534 -0.02508691 0.027624747 -0.074163154 -0.1453145 -0.09878346 0.116747014 -0.051191736 0.025581738 -0.04266748 0.11171663 -0.0125469165 0.051568836 -0.01621049 0.05688546 -0.010049801 0.07221882 0.029187782 -0.10913031 0.11724548 -0.012294713 -0.16589226 0.051407192 -0.09533639 0.026812254 0.139351 -0.03136179 -0.06798864 -0.09428128 0.060124245 0.014049387 0.090092115 -0.18753345 -0.04327167 0.06329696 0.05073821 0.2186497 -0.0753513 -0.107473806 0.28767288 0.09620522 0.013728041 -0.0029426175 0.0643635 -0.051714808 -0.12662111 -0.037173767 0.013567843 -0.08476643 0.051952314 -0.120470256 -0.050885372 0.015214095 -0.13997513 0.047243893 -0.036794588 -0.0077381716 0.06297495 -0.15818352 0.09640425 0.06790848 0.19348271 -0.04258678 -0.0822637 -0.110975735 0.03285408 -0.03351494 -0.2736214 0.03649486 -0.05282006 -0.22771847 0.06732293 -0.1550283 -0.035347436 -0.0725809 -0.09611692 -0.16994955 -0.043071892 -0.011744005 0.15426612 -0.0073628626 -0.085372806 -0.054790974 0.01181523 -0.061148502 -0.017705923 0.015527721 -0.099976756 -0.13978681 -0.005144421 -0.12091211 0.062033996 0.039715905 -0.024864513 -0.1320606 -0.18309194 0.11384526 -0.13532862 -0.069700874 -0.044909682 -0.015730893 0.094446965 0.15532565 -0.012776146 -0.09490626 0.16476756 0.04318816 -0.13070063 -0.008451966 0.019846898 0.07585579 -0.13189177 0.13695864 -0.014809387 0.04331984 0.00351125 0.0571821 0.14116609 0.26277497 -0.11415306 0.10354714 -0.3530796 -0.108993806 -0.06611403 0.037620064
